svm_type c_svc
kernel_type rbf
gamma 1
nr_class 3
total_sv 2692
rho 3.45156 -1.01787 -1.02839
label -1 1 0
probA -1.31303 -261.592 -73.4891
probB -2.74898 254.252 68.7497
nr_sv 2540 151 1
SV
1 0 1:0.21962 2:0.012362 3:0.000692 5:0.011878 6:0.016588 7:0.001833 11:5.4e-05 17:0.000633 18:9e-05 21:0.008882 22:0.102557 23:0.016199 24:9e-06 26:0.001367 27:0.039 28:9e-06 37:0.000186 38:0.002652 39:0.000222 41:5e-06 42:0.003778 43:0.231674 44:0.015805 47:0.000353 48:0.007032 59:0.000986 60:0.0001 63:0.000457 64:0.304977 
1 0 1:0.066345 2:0.000146 5:0.000214 6:0.000475 17:0.020136 18:0.000728 21:0.018375 22:0.691291 23:0.000498 26:0.000268 27:0.000666 38:0.035876 39:0.001019 42:0.009773 43:0.059551 44:0.000659 47:2.3e-05 48:0.000774 59:0.036252 60:0.000291 63:0.036275 64:0.020366 
1 0 1:0.084768 2:0.032832 3:5.3e-05 4:3.7e-05 5:0.000789 6:0.020507 7:0.001387 11:9.1e-05 12:2.7e-05 17:0.002576 18:0.002747 19:4.8e-05 20:1.1e-05 21:0.001941 22:0.11064 23:0.030597 26:0.002101 27:0.049552 28:0.003707 32:0.000672 33:3.2e-05 37:0.000315 38:0.003429 39:0.002219 41:2.1e-05 42:0.003456 43:0.417328 44:0.005616 47:0.001253 48:0.004485 54:5e-06 58:0.000192 59:0.003472 60:0.000837 63:0.003403 64:0.208853 
1 0 1:0.099136 2:0.018027 3:0.002347 4:0.000997 5:0.004309 6:0.031925 7:0.000421 8:8.5e-05 9:0.000171 10:0.000171 11:7.5e-05 17:0.004053 18:0.001077 19:0.000272 20:9.6e-05 21:0.002656 22:0.177104 23:0.037589 24:0.003669 25:0.000693 26:0.016715 27:0.096507 28:0.00056 29:1.6e-05 31:3.7e-05 32:5.9e-05 33:0.001173 37:0.018875 38:0.003829 39:0.000901 40:0.000176 41:3.7e-05 42:0.003547 43:0.236112 44:0.026331 45:3.7e-05 46:0.000544 47:0.001392 48:0.024453 53:0.007771 54:0.000869 57:0.007637 58:0.021163 59:0.00664 60:0.000725 61:5e-06 62:0.01408 63:0.048432 64:0.076501 
1 0 1:0.362576 2:0.033472 3:0.00424 4:0.006832 5:0.006672 6:0.010165 7:0.000144 8:1.1e-05 17:0.021157 18:0.001472 19:0.00056 20:0.011227 21:0.044555 22:0.255771 23:0.004432 24:0.004709 26:0.003792 27:0.006053 28:4.3e-05 32:1.1e-05 33:1.6e-05 34:2.1e-05 36:5e-06 37:6.4e-05 38:0.018443 39:0.000677 40:0.001259 41:2.1e-05 42:0.022464 43:0.080464 44:0.002501 47:0.001589 48:0.002197 50:5e-06 54:4.3e-05 58:0.000491 59:0.023813 60:0.002891 63:0.007003 64:0.058139 
1 0 1:0.721404 2:0.035847 3:4e-06 5:0.000286 6:0.024547 7:0.001429 17:0.000356 18:0.000758 21:0.000265 22:0.054617 23:0.026133 26:0.000567 27:0.02159 28:0.000791 38:0.000484 39:0.000373 42:0.00034 43:0.042629 44:0.017271 47:0.000712 48:0.009151 59:0.000306 60:0.000344 63:0.000398 64:0.0394 
1 0 1:0.100709 2:0.054133 5:7.5e-05 6:0.406315 7:0.171392 11:4.3e-05 12:5e-06 17:0.000528 18:0.000192 21:6.9e-05 22:0.025851 23:0.178427 24:1.1e-05 27:0.016901 28:0.000491 32:2.1e-05 33:1.1e-05 34:2.7e-05 38:0.000603 39:0.000949 42:2.1e-05 43:0.028411 44:0.000544 47:5.9e-05 48:0.000363 54:2.7e-05 58:5e-06 59:0.002949 60:0.000336 63:0.000992 64:0.009541 
1 0 1:0.062091 2:0.003387 5:0.00024 6:0.033936 7:0.002789 11:2.1e-05 17:0.004123 18:3.2e-05 21:0.006965 22:0.260597 23:0.049467 26:0.000544 27:0.075291 28:0.005861 32:1.1e-05 37:1.6e-05 38:0.019131 39:1.6e-05 42:0.022688 43:0.083179 44:0.077707 47:0.000149 48:0.095995 58:5e-06 59:0.002437 60:5e-06 63:0.002187 64:0.191131 
1 0 1:0.066995 2:0.05684 3:5.9e-05 5:0.000112 6:0.061287 7:0.049723 11:3.7e-05 12:5e-06 17:0.069356 18:0.000191 21:0.101995 22:0.075862 23:0.06909 24:1.1e-05 26:0.000468 27:0.025293 28:0.05267 32:5e-06 37:9e-05 38:0.071112 39:4.3e-05 42:0.200229 43:0.021372 44:0.018436 47:0.000878 48:0.018793 59:0.000133 60:5.3e-05 63:0.000399 64:0.038463 
1 0 1:0.098325 2:0.003723 5:0.09088 6:0.388704 7:0.000149 10:0.056581 11:0.005301 12:5e-06 15:0.000107 17:5.3e-05 18:2.7e-05 21:5.9e-05 22:0.073163 23:0.006725 26:0.030091 27:0.059957 28:2.7e-05 31:0.000843 32:5e-06 38:0.000208 39:0.000128 42:0.000395 43:0.084752 44:0.003317 47:0.008027 48:0.008555 59:0.00152 60:9.6e-05 63:0.004533 64:0.073744 
1 0 1:0.190763 2:0.007947 5:0.002341 6:0.023819 7:1.1e-05 9:4.3e-05 10:0.000155 17:0.11776 18:0.000811 19:8.5e-05 21:0.118555 22:0.216395 23:0.040928 24:0.000139 25:1.6e-05 26:0.001605 27:0.008576 28:1.1e-05 37:0.000352 38:0.009259 39:0.012896 40:0.001504 42:0.008613 43:0.057547 44:0.089637 47:1.6e-05 48:0.001243 54:0.000395 58:0.025925 59:0.009531 60:0.015637 62:8.5e-05 63:0.002928 64:0.034475 
1 0 1:0.083219 2:0.003303 5:0.001045 6:0.007772 7:6e-05 17:0.010444 18:0.000859 21:0.013568 22:0.102288 23:0.007027 26:0.014192 27:0.031225 28:3.6e-05 37:3.6e-05 38:0.034643 39:0.000901 42:0.16779 43:0.348595 44:0.008781 47:0.000258 48:0.010967 58:0.008859 59:0.12215 60:5.4e-05 63:0.003141 64:0.018787 
1 0 1:0.137866 2:0.043725 5:0.005776 6:0.041008 7:0.004762 10:0.002667 11:0.00158 14:6e-06 15:0.001188 16:0.000196 17:0.004258 18:0.002768 19:6e-06 21:0.001188 22:0.064303 23:0.039031 26:0.001384 27:0.03302 28:0.001983 31:0.003384 32:0.008695 38:0.005518 39:0.000779 42:0.001933 43:0.041182 44:0.024807 47:0.002034 48:0.106644 59:0.00665 60:0.000896 63:0.001367 64:0.409401 
1 0 1:0.125307 2:0.002896 3:0.000117 5:0.036976 6:0.140661 7:7.5e-05 10:0.000197 11:4.3e-05 17:0.000128 18:0.000245 19:4.3e-05 21:0.000501 22:0.371739 23:0.011061 24:1.1e-05 26:0.006752 27:0.025547 28:0.000144 38:0.000363 39:0.000347 42:0.000891 43:0.065083 44:0.002069 47:0.002613 48:0.00464 55:5e-06 59:0.000325 60:0.0004 63:0.000763 64:0.200059 
1 0 1:0.235067 2:0.008677 3:0.000944 5:0.005685 6:0.032299 7:0.001173 8:3.2e-05 10:0.02016 11:0.000555 12:1.1e-05 17:0.063984 18:0.004955 19:9.6e-05 21:0.038283 22:0.151429 23:0.01624 24:1.1e-05 26:0.014752 27:0.011605 28:2.7e-05 31:0.000101 33:5e-06 35:5e-06 37:0.000699 38:0.060496 39:0.003845 40:5e-06 41:1.6e-05 42:0.05728 43:0.146944 44:0.001541 47:0.00088 48:0.001413 57:5e-06 58:0.000389 59:0.037755 60:0.001685 62:1.6e-05 63:0.019867 64:0.061067 
1 0 1:0.043451 2:0.02368 5:0.001803 6:0.023019 7:0.000107 17:0.00264 18:0.002768 21:0.000805 22:0.337296 23:0.0064 26:0.018635 27:0.045221 38:0.003376 39:0.000677 42:0.007456 43:0.467797 44:6.9e-05 47:0.007925 48:0.000133 59:0.005237 60:1.6e-05 63:0.000661 64:0.000827 
1 0 1:0.060571 2:0.018591 3:0.00013 4:2.6e-05 5:0.000942 6:0.030019 7:0.000292 8:0.000195 11:6e-06 12:5.8e-05 16:0.00013 17:0.001812 18:0.001201 21:0.008325 22:0.33574 23:0.018071 24:0.000305 26:0.003818 27:0.030961 28:0.00063 32:0.000799 38:0.024182 39:0.002831 42:0.019636 43:0.394403 44:0.007169 47:0.000175 48:0.007377 59:0.000344 60:0.000188 63:2.6e-05 64:0.031045 
1 0 1:0.192219 2:0.015296 3:0.006021 5:0.000325 6:0.010021 7:0.040155 8:0.00104 11:0.002645 12:0.003579 17:0.009605 18:0.000875 19:0.002357 21:0.201867 22:0.019136 23:0.010688 24:2.7e-05 26:0.000347 27:0.006261 28:0.003248 32:5e-06 37:0.162059 38:0.012891 39:0.000373 42:0.012016 43:0.114848 44:0.001035 47:0.000859 48:0.001301 58:0.000181 59:0.0232 60:5e-06 63:0.065776 64:0.079739 
1 0 1:0.050432 2:0.05552 3:2.4e-05 5:0.053099 6:0.157207 7:0.011778 17:1.2e-05 18:3.6e-05 19:6e-06 21:0.001315 22:0.206306 23:0.015958 24:6e-06 26:0.022907 27:0.033664 28:0.000258 37:6e-06 38:0.000234 39:1.2e-05 42:0.012967 43:0.032318 44:0.006468 47:0.001213 48:0.001231 58:0.00012 59:0.001838 60:6e-06 62:0.000913 63:0.175682 64:0.158462 
1 0 1:0.143608 2:0.003361 3:6e-06 5:0.001506 6:0.009554 7:0.000199 11:8.4e-05 17:0.056777 18:0.002229 19:2.4e-05 21:0.012048 22:0.080295 23:0.017572 24:6e-06 26:0.002819 27:0.021169 28:0.000331 32:0.000163 33:2.4e-05 37:0.002337 38:0.036729 39:0.000572 40:6e-06 42:0.05394 43:0.288723 44:0.006024 47:0.001566 48:0.009048 58:0.000904 59:0.033958 60:9.6e-05 63:0.008229 64:0.20609 
1 0 1:0.252827 2:0.007733 3:4.3e-05 5:0.005605 6:0.029957 7:0.000469 10:2.7e-05 11:0.00016 12:8.5e-05 17:0.004789 18:0.001515 19:5e-06 21:0.003301 22:0.109173 23:0.009232 24:5e-06 26:0.002368 27:0.019088 28:0.000491 32:0.000533 34:2.1e-05 37:4.3e-05 38:0.011627 39:0.001221 42:0.042155 43:0.213712 44:0.010011 47:0.002869 48:0.056587 54:5e-06 58:0.000112 59:0.070352 60:0.00088 63:0.027659 64:0.115339 
1 0 1:0.321798 2:0.128826 5:0.002368 6:0.137271 7:4e-06 17:0.000733 18:0.000211 21:0.000457 22:0.257927 23:0.015968 26:0.001134 27:0.003194 38:0.004628 39:4.5e-05 42:0.012591 43:0.055032 59:0.019344 60:4e-06 63:0.032194 64:0.006271 
1 0 1:0.239115 2:0.017723 3:0.005851 4:0.002736 5:0.003157 6:0.012949 7:0.00032 8:0.000272 10:0.000229 11:0.000171 12:0.000176 16:5e-06 17:0.025813 18:0.009109 19:0.000667 20:0.001589 21:0.038928 22:0.20624 23:0.015152 24:0.00632 26:0.006208 27:0.038027 28:0.002693 31:0.001061 32:0.000336 37:1.6e-05 38:0.013541 39:0.001904 40:0.000267 42:0.013952 43:0.066987 44:0.024373 47:0.003392 48:0.033616 58:0.001131 59:0.011797 60:0.000293 63:0.008368 64:0.185515 
1 0 1:0.002637 2:0.001147 6:0.006421 7:0.018276 11:0.000219 17:0.088241 18:0.007225 21:0.114268 22:0.184547 23:0.026595 27:0.079839 28:0.100096 37:0.002176 38:0.19312 39:0.000461 42:0.000449 43:0.016088 44:0.094355 48:0.060836 59:0.000124 64:0.002879 
1 0 1:0.101652 2:0.004192 3:3e-05 5:0.000306 6:0.001453 7:0.007411 8:0.000198 11:3e-05 12:0.000276 16:6e-06 17:0.02973 18:0.003568 21:0.030324 22:0.053057 23:0.000384 24:6e-06 25:1.2e-05 26:0.00155 27:0.002901 28:0.000649 32:4.8e-05 37:0.004054 38:0.113141 39:0.000132 40:6e-06 41:0.000132 42:0.243658 43:0.320517 44:0.006997 46:1.8e-05 47:0.000913 48:0.004138 53:0.000174 54:0.000264 57:8.4e-05 58:0.008517 59:0.0137 60:7.2e-05 62:0.000114 63:0.019111 64:0.026474 
1 0 1:0.184469 2:0.084635 3:2.7e-05 5:0.006251 6:0.132032 7:0.002955 8:8e-05 10:0.000112 11:9.1e-05 12:4.3e-05 16:5e-06 17:0.004043 18:0.000197 19:4.3e-05 21:0.005461 22:0.371077 23:0.042 24:0.00064 26:0.005925 27:0.008523 28:0.000363 31:5e-06 32:3.7e-05 33:0.000405 37:0.005392 38:0.00624 39:0.000459 40:3.2e-05 41:5.9e-05 42:0.03 43:0.082603 44:0.000475 47:0.001429 48:0.000704 53:0.000165 54:5e-06 57:0.000224 58:0.001232 59:0.006 60:5.3e-05 62:2.1e-05 63:0.003541 64:0.011947 
1 0 1:0.138378 2:0.005081 3:0.000727 4:0.000517 5:0.001303 6:0.031201 7:0.004631 8:3e-05 10:7.8e-05 11:0.007315 12:0.003447 16:0.008991 17:0.012048 18:0.002036 19:0.001015 20:0.00027 21:0.005676 22:0.312126 23:0.018048 24:0.005177 26:0.002613 27:0.140847 28:0.006979 31:3e-05 32:0.069303 33:1.8e-05 37:0.000535 38:0.057321 39:0.000366 40:0.000462 42:0.031135 43:0.066799 44:0.00582 47:0.000733 48:0.019063 53:1.2e-05 54:3e-05 55:6e-06 58:0.000787 59:0.001664 60:0.000462 63:0.002474 64:0.034444 
1 0 1:0.218747 2:0.026288 3:0.001339 5:0.002293 6:0.010736 7:0.003477 8:0.000139 10:0.000144 11:0.000171 12:0.000453 16:2.7e-05 17:0.084731 18:0.012987 19:2.1e-05 21:0.040272 22:0.170912 23:0.007237 24:0.000123 25:5e-06 26:0.002816 27:0.001936 28:0.001088 32:0.001611 37:0.002011 38:0.014213 39:0.000901 40:5e-06 41:0.000293 42:0.030891 43:0.023845 44:0.001355 46:5e-06 47:0.000411 48:0.000683 58:3.7e-05 59:0.016843 60:3.7e-05 62:5e-06 63:0.169051 64:0.151861 
1 0 1:0.484821 2:0.043888 3:0.000368 5:0.00864 6:0.059488 7:0.003003 10:6.9e-05 11:2.1e-05 17:0.003643 18:0.001157 19:0.000795 21:0.004933 22:0.061717 23:0.016544 24:1.6e-05 26:0.001664 27:0.013205 28:3.7e-05 31:1.6e-05 38:0.027771 39:0.000117 42:0.053659 43:0.018165 44:0.000416 47:0.000336 48:0.002491 58:2.7e-05 59:0.061013 60:4.3e-05 63:0.02664 64:0.105296 
1 0 1:0.109696 2:0.004528 3:1.6e-05 5:0.000245 6:0.002208 7:0.000149 11:2.7e-05 17:0.061056 18:0.006277 19:2.7e-05 21:0.028197 22:0.206048 23:0.018277 24:0.000101 25:5e-06 26:0.000507 27:0.014091 28:0.006283 31:1.6e-05 32:5.9e-05 33:5e-06 37:0.004699 38:0.098336 39:0.005893 40:0.000187 41:0.001307 42:0.034912 43:0.148368 44:0.044288 47:0.000411 48:0.015605 57:5e-06 58:0.002032 59:0.064597 60:0.002219 62:1.6e-05 63:0.055056 64:0.064251 
1 0 1:0.084853 2:0.035915 3:0.005013 4:0.0012 5:0.016107 6:0.08912 7:0.011957 8:0.004816 11:1.1e-05 12:0.000619 17:0.020709 18:0.002219 19:0.002885 20:3.7e-05 21:0.075776 22:0.456219 23:0.023755 24:0.006416 26:0.00064 27:0.020027 28:0.05344 32:0.000128 37:1.1e-05 38:0.010549 39:0.000256 40:3.2e-05 42:0.001872 43:0.031456 44:0.006555 47:3.2e-05 48:0.004715 59:0.000448 60:0.000213 63:0.000363 64:0.031637 
1 0 1:0.736437 2:0.054715 3:0.000144 4:1.6e-05 5:0.003819 6:0.051131 7:0.117627 8:0.000235 11:6.9e-05 12:0.000213 16:0.00024 17:0.000283 18:0.000101 21:0.000565 22:0.027493 23:0.001957 24:5e-06 26:6.4e-05 27:0.000395 28:7.5e-05 32:1.6e-05 38:5.3e-05 39:1.1e-05 42:4.3e-05 43:0.003701 44:0.000117 47:5.9e-05 48:0.000181 59:3.2e-05 60:1.1e-05 63:5e-06 64:0.000187 
1 0 1:0.286411 2:0.016192 3:0.000987 4:0.000464 5:0.001003 6:0.015067 7:0.002837 8:0.004 11:0.000357 12:0.004224 16:0.000533 17:0.017664 18:0.002187 19:0.00048 20:0.000384 21:0.011141 22:0.121003 23:0.016053 24:0.002277 26:0.003056 27:0.010965 28:0.003333 32:0.000693 33:0.000128 34:5.3e-05 35:1.1e-05 36:5e-06 37:0.002672 38:0.024677 39:0.001035 40:0.000603 42:0.020741 43:0.061637 44:0.00752 47:0.000587 48:0.004704 53:1.6e-05 54:0.000384 55:8e-05 56:8e-05 57:0.000133 58:0.018448 59:0.033936 60:0.001776 62:5e-06 63:0.029419 64:0.270037 
1 0 1:0.054799 2:0.002071 5:0.013237 6:0.012893 7:0.000888 17:0.000361 18:6e-06 21:0.00932 22:0.055041 23:0.020249 24:6e-06 26:0.001385 27:0.040225 28:0.009905 37:6e-06 38:0.000592 39:2.4e-05 42:0.002633 43:0.090124 44:0.067521 47:3e-05 48:0.028503 59:0.010207 60:0.00832 63:0.000166 64:0.571491 
1 0 1:0.800416 2:0.059605 3:0.000464 4:0.000112 6:0.046405 7:0.014869 8:0.000331 10:5e-06 11:0.001269 12:0.000331 16:1.1e-05 17:0.000155 18:6.4e-05 20:3.2e-05 21:0.000192 22:0.007685 23:0.014459 24:0.000373 26:1.1e-05 27:0.018197 28:0.008896 31:1.1e-05 32:0.001307 33:5e-06 37:0.000208 38:3.7e-05 39:2.7e-05 41:0.000123 42:5.9e-05 43:0.000523 44:0.002453 47:1.1e-05 48:0.008992 57:4.3e-05 58:5e-06 59:2.7e-05 60:4.3e-05 63:1.1e-05 64:0.012235 
1 0 1:0.037215 2:0.004211 5:0.000586 6:0.00452 7:1.2e-05 17:0.004695 18:0.002369 19:1.2e-05 21:0.004109 22:0.115063 23:0.007831 24:6e-06 26:0.001946 27:0.004381 28:1.8e-05 38:0.005523 39:0.001734 40:1.2e-05 42:0.00768 43:0.15397 44:0.050066 47:0.000236 48:0.024761 59:0.035498 60:0.002792 63:0.043843 64:0.486912 
1 0 1:0.182203 2:0.012608 3:0.002736 4:0.001995 5:0.004624 6:0.011504 7:0.001605 8:0.000523 10:0.000107 11:0.000608 12:0.002368 15:5e-06 16:0.000523 17:0.04608 18:0.001195 19:0.000304 20:5.9e-05 21:0.055195 22:0.161904 23:0.010155 24:0.000704 25:0.000853 26:0.006389 27:0.037536 28:0.001083 31:4.8e-05 32:0.000544 33:0.002464 34:5e-06 37:0.039221 38:0.022549 39:0.001077 40:4.3e-05 41:0.003355 42:0.019552 43:0.238469 44:0.008085 46:5e-06 47:0.004523 48:0.019915 49:5e-06 53:0.013568 54:3.7e-05 57:0.000821 58:0.010288 59:0.008827 60:0.000544 62:4.3e-05 63:0.005525 64:0.057621 
1 0 1:0.083467 2:0.024293 3:0.001712 4:0.000597 5:0.002789 6:0.008827 7:0.000768 8:1.6e-05 10:7.5e-05 11:0.000512 12:0.000171 16:4.3e-05 17:0.009536 18:0.003355 19:0.000139 20:0.00152 21:0.032875 22:0.162352 23:0.015723 24:0.006635 25:0.00016 26:0.001648 27:0.009739 28:0.001744 31:5.9e-05 32:0.002976 33:2.1e-05 37:0.003083 38:0.025525 39:0.00152 40:0.00152 41:0.004971 42:0.018325 43:0.087083 44:0.008427 46:1.6e-05 47:0.002091 48:0.013552 53:0.000219 54:0.000395 55:5.3e-05 57:0.000309 58:0.001515 59:0.026811 60:0.000715 61:4.3e-05 62:0.001376 63:0.038379 64:0.392325 
1 0 1:0.587525 2:0.145829 3:0.005557 4:0.000171 5:0.002251 6:0.100411 7:0.03192 8:0.001424 10:5e-06 11:0.000283 12:0.000891 17:5e-06 18:1.1e-05 21:1.6e-05 22:0.020491 23:0.032096 24:0.003947 26:1.6e-05 27:0.022997 28:0.021547 31:2.7e-05 32:0.000261 43:0.001312 44:0.007691 48:0.008043 64:0.005275 
1 0 1:0.378091 2:0.004102 3:0.000209 4:0.000182 5:0.002697 6:0.002091 7:1.6e-05 8:5e-06 9:7.5e-05 10:3.8e-05 11:5e-06 17:0.009962 18:0.001442 19:1.6e-05 20:2.7e-05 21:0.031668 22:0.151619 23:0.003105 24:7e-05 25:0.0017 26:0.001743 27:0.001893 30:2.1e-05 31:0.000139 33:5e-06 37:0.00074 38:0.013196 39:0.001399 40:1.6e-05 41:6.4e-05 42:0.010981 43:0.150697 44:0.010359 46:5.4e-05 47:0.001298 48:0.001496 58:0.000129 59:0.008038 60:0.001534 63:0.007426 64:0.201651 
1 0 1:0.048283 2:0.002091 3:0.000192 4:5e-06 5:0.043872 6:0.057653 7:1.6e-05 10:0.000885 11:0.000107 17:0.001035 18:0.000219 19:5.9e-05 21:0.019029 22:0.290421 23:0.008587 24:2.1e-05 26:0.007472 27:0.017744 38:0.027088 39:0.000736 42:0.033296 43:0.146352 44:0.008299 47:0.000613 48:0.020944 59:0.132843 60:8e-05 63:0.110352 64:0.021707 
1 0 1:0.044816 2:5.3e-05 3:4.3e-05 6:0.00032 7:0.000229 17:0.001339 18:0.000144 19:1.1e-05 21:0.000197 22:0.00504 23:0.015717 24:0.001845 26:7.5e-05 27:0.006475 28:0.008245 31:5e-06 38:0.002779 39:0.006437 40:0.000208 42:0.000603 43:0.053877 44:0.079413 47:0.004469 48:0.010677 59:0.017669 60:0.11368 63:0.003941 64:0.621691 
1 0 1:0.069205 2:0.004293 3:2.7e-05 5:0.000773 6:0.003125 7:3.2e-05 11:3.2e-05 17:0.014304 18:0.001835 19:0.000144 20:5.9e-05 21:0.021424 22:0.205787 23:0.006544 24:0.002144 25:0.000581 26:0.000709 27:0.006235 28:8.5e-05 32:8e-05 33:5e-06 37:0.000299 38:0.121461 39:0.00248 40:0.001451 41:0.00312 42:0.151691 43:0.12264 44:0.023643 45:0.000373 46:0.00392 47:0.000261 48:0.004677 54:0.000155 57:1.6e-05 58:0.002261 59:0.072971 60:0.004416 62:5e-06 63:0.021408 64:0.125328 
1 0 1:0.242199 2:0.112089 5:0.001144 6:0.077329 7:0.001219 17:0.008692 18:0.002205 21:0.004815 22:0.049658 23:0.010288 26:5.5e-05 27:0.02124 28:0.001767 32:7e-06 33:0.000123 37:0.003521 38:0.036295 39:0.000116 42:0.008877 43:0.018959 44:0.005712 47:0.000144 48:0.016151 53:0.00013 54:0.103205 58:0.146411 59:0.098986 60:1.4e-05 63:0.00611 64:0.022541 
1 0 1:0.075456 2:0.007157 5:0.094651 6:0.155739 7:0.005915 10:0.003275 11:2.7e-05 12:1.1e-05 17:6.9e-05 18:0.000224 21:9.1e-05 22:0.1512 23:0.019659 26:0.047376 27:0.063717 28:0.006576 31:0.00016 38:0.001333 39:0.000229 42:0.00016 43:0.068773 44:0.009168 47:0.001829 48:0.005141 58:1.1e-05 59:0.148523 60:0.000587 63:0.023547 64:0.109397 
1 0 1:0.787893 2:0.07848 3:0.001147 4:1.6e-05 5:0.001525 6:0.047083 7:0.006197 8:0.000379 10:1.6e-05 11:0.000437 12:0.00072 16:0.000149 17:0.001424 18:0.000571 19:1.6e-05 20:1.1e-05 21:0.000101 22:0.043755 23:0.012123 24:0.000107 26:0.000176 27:0.009589 28:0.000341 33:5.9e-05 34:5e-06 37:2.1e-05 38:0.000544 39:0.000101 42:2.7e-05 43:0.004208 44:0.000251 47:2.7e-05 48:0.000219 54:3.7e-05 58:1.6e-05 59:0.000256 60:2.1e-05 63:2.7e-05 64:0.001925 
1 0 1:0.273704 2:0.017154 3:0.000154 5:0.015633 6:0.094036 7:0.000651 17:0.001237 18:0.000154 21:0.008036 22:0.213734 23:0.038385 26:0.00187 27:0.059982 28:0.000118 38:0.004923 39:3e-05 42:0.016769 43:0.115994 44:0.022521 47:3.6e-05 48:0.005272 59:0.007071 60:0.001657 63:0.001775 64:0.099107 
1 0 1:0.001604 2:0.00026 5:0.013349 6:0.309266 7:0.005456 10:7.1e-05 11:0.010556 12:0.024775 16:0.003444 17:4.7e-05 21:0.000917 22:0.339657 23:0.003882 26:0.005769 27:0.009627 28:0.005213 32:0.006615 37:6e-06 38:0.006757 39:5.9e-05 42:0.008527 43:0.063846 44:0.000112 47:1.8e-05 48:4.1e-05 58:1.8e-05 59:0.002302 60:0.000213 63:0.000349 64:0.177243 
1 0 1:0.137954 2:0.003273 5:0.017833 6:0.105687 7:0.001641 11:4.6e-05 17:0.009265 18:2.9e-05 21:0.012313 22:0.13501 23:0.013829 26:0.004405 27:0.032326 28:8.4e-05 33:5.8e-05 37:0.000409 38:0.007152 39:8.8e-05 42:0.010025 43:0.101795 44:0.001649 47:0.002994 48:0.004263 59:0.013624 60:5.8e-05 63:0.022839 64:0.361349 
1 0 1:0.165264 2:0.006715 3:0.000437 4:5e-06 5:0.002229 6:0.010144 7:0.000101 17:0.005573 18:9.1e-05 19:5e-06 20:5e-06 21:0.049659 22:0.125291 23:0.039616 24:0.000101 25:5e-06 26:0.000688 27:0.059024 28:0.000101 33:8.5e-05 37:0.001861 38:0.002501 39:0.000117 40:5e-06 41:4.8e-05 42:0.001771 43:0.147835 44:0.002603 47:8.5e-05 48:0.001963 53:0.000336 57:0.001728 58:0.184165 59:0.009344 60:9.1e-05 61:0.000128 62:0.003296 63:0.070464 64:0.106517 
1 0 1:0.173152 2:0.019888 3:0.015429 4:0.000448 5:0.009957 6:0.027995 7:0.007131 8:0.002219 10:0.000624 11:0.002821 12:0.002768 15:0.000389 16:0.000485 17:0.027653 18:0.002171 19:0.003643 20:0.000283 21:0.045003 22:0.087584 23:0.015707 24:0.005829 25:0.000176 26:0.011397 27:0.010053 28:0.004128 30:5e-06 31:0.003243 32:0.012683 33:0.001509 34:1.1e-05 37:0.028581 38:0.021611 39:0.002251 40:0.000453 41:0.001349 42:0.124949 43:0.073984 44:0.004832 46:0.000128 47:0.015008 48:0.007045 53:0.011787 54:0.0016 55:4.3e-05 57:0.009739 58:0.016752 59:0.013541 60:0.000523 61:0.000885 62:0.006443 63:0.095584 64:0.068528 
1 0 1:0.126681 2:0.045837 3:3e-05 5:0.005719 6:0.279837 7:0.001022 11:0.00037 17:0.00117 18:0.000637 21:0.001319 22:0.072948 23:0.005407 26:0.00037 27:0.00357 28:0.000163 32:0.000104 33:4.4e-05 37:0.001259 38:0.004667 39:0.001822 42:0.005556 43:0.034563 44:0.000622 47:1.5e-05 48:0.000326 53:0.000104 54:8.9e-05 57:1.5e-05 58:0.000489 59:0.000919 60:0.000252 63:0.0004 64:0.403674 
1 0 1:0.703015 2:0.072456 3:2.4e-05 5:0.001057 6:0.046769 7:0.001658 17:0.001622 18:0.00033 21:0.003243 22:0.079754 23:0.006529 26:0.000751 27:0.013706 28:9e-05 34:4.8e-05 38:0.000571 39:0.00027 40:1.2e-05 42:0.002426 43:0.033399 44:0.001976 47:0.000264 48:0.003039 55:1.8e-05 59:0.000871 60:0.000258 63:0.00203 64:0.023814 
1 0 1:0.118235 2:0.124352 3:0.000768 4:5e-06 5:0.002037 6:0.222293 7:0.005003 8:5e-06 10:5e-06 11:0.000213 17:0.001269 18:0.008133 19:2.1e-05 21:0.000293 22:0.235632 23:0.036176 24:2.1e-05 26:0.000496 27:0.058533 28:0.00168 31:3.2e-05 32:0.00016 33:3.2e-05 35:5e-06 37:6.4e-05 38:0.002267 39:0.001221 40:5e-06 42:0.000309 43:0.063243 44:0.009221 47:0.000192 48:0.012656 53:6.4e-05 54:0.000176 57:1.1e-05 58:0.000352 59:0.001067 60:0.000421 62:1.1e-05 63:0.000411 64:0.092907 
1 0 1:0.060997 2:0.00528 5:0.000224 6:0.005205 17:0.044299 18:0.000555 21:0.060784 22:0.478299 23:0.002709 26:6.9e-05 27:0.002331 38:0.254133 39:0.000747 42:0.022165 43:0.049024 44:0.011499 47:5e-06 48:0.0004 59:0.000203 60:4.3e-05 63:0.000171 64:0.000859 
1 0 1:0.129082 2:0.005066 5:0.027584 6:0.067257 7:3.7e-05 10:0.001582 11:9e-06 17:0.006994 21:0.050833 22:0.092444 23:0.016554 26:0.013979 27:0.04073 31:9e-06 37:0.011189 38:0.010346 39:2.8e-05 42:0.011414 43:0.061966 44:0.012294 47:0.001386 48:0.088661 58:0.001367 59:0.015468 60:9e-06 63:0.046376 64:0.287331 
1 0 1:0.22573 2:0.063339 3:0.000144 5:0.000282 6:0.018264 7:0.015922 8:0.001772 11:0.008108 12:0.019279 16:0.003718 17:0.003027 18:0.001562 21:0.001207 22:0.045423 23:0.022733 24:6e-06 26:0.000168 27:0.011219 28:0.000589 31:6e-06 32:0.002264 38:0.002072 39:0.000216 42:0.001568 43:0.043946 44:0.074895 47:6e-06 48:0.042859 58:6e-06 59:0.003153 60:0.001435 63:0.000691 64:0.38439 
1 0 1:0.264236 2:0.020482 5:0.00601 6:0.069897 7:0.009056 8:7.2e-05 10:5.1e-05 11:0.005026 12:0.001436 16:0.000287 17:0.039559 18:0.004769 19:1e-05 21:0.008574 22:0.092482 23:0.024677 24:0.000205 26:0.000708 27:0.045477 28:0.013826 31:5.1e-05 32:0.003969 33:1e-05 34:5.1e-05 38:0.026185 39:0.005508 40:1e-05 42:0.004021 43:0.052954 44:0.011097 47:0.000533 48:0.01399 54:3.1e-05 56:1e-05 58:0.000113 59:0.129795 60:0.000636 63:0.037026 64:0.107169 
1 0 1:0.183696 2:0.050608 3:6.9e-05 5:0.009595 6:0.057083 7:0.000491 10:0.000171 11:5.9e-05 17:0.001872 18:0.000939 19:5.3e-05 20:5e-06 21:0.003995 22:0.121589 23:0.029781 24:3.2e-05 26:0.003211 27:0.010208 28:0.000101 32:1.1e-05 34:5e-06 38:0.005072 39:0.001157 40:1.6e-05 42:0.041099 43:0.084496 44:0.003888 47:0.000432 48:0.00208 59:0.003232 60:0.000139 63:0.012736 64:0.37208 
1 0 1:0.673803 2:0.022139 3:0.002213 4:0.001269 5:9.1e-05 6:0.010224 7:0.001216 8:0.000213 11:0.000133 12:0.000144 16:0.00048 17:0.019557 18:0.001205 19:0.017792 20:0.05056 21:0.014187 22:0.031728 23:0.028869 24:0.030597 26:5.3e-05 27:0.013829 28:0.000293 32:0.000176 33:2.7e-05 37:0.000256 38:0.003525 39:0.001093 40:0.000181 41:4.8e-05 42:0.003557 43:0.030843 44:0.027477 47:5.3e-05 48:0.001392 53:1.6e-05 54:5e-06 57:8.5e-05 58:0.000165 59:0.002757 60:0.000256 61:1.6e-05 62:0.000197 63:0.0016 64:0.005675 
1 0 1:0.177557 2:0.010459 3:2.1e-05 5:0.128933 6:0.353984 7:0.001157 9:5e-06 10:0.022699 11:0.003397 12:5e-06 17:0.004283 18:0.000608 19:8e-05 21:0.003893 22:0.060987 23:0.019365 24:4.3e-05 26:0.008992 27:0.024299 28:0.001403 31:0.000107 32:5.9e-05 34:1.6e-05 35:1.1e-05 36:5e-06 37:0.000261 38:0.014859 39:0.005216 40:0.000859 42:0.004491 43:0.0208 44:0.006613 46:5e-06 47:0.000256 48:0.000779 56:5e-06 58:2.7e-05 59:0.016523 60:0.013819 63:0.003024 64:0.090096 
1 0 1:0.208361 2:0.025036 3:1.2e-05 5:0.001337 6:0.132096 7:0.076367 10:7.2e-05 11:0.074006 12:0.080873 17:0.004042 18:2.4e-05 21:0.100151 22:0.126199 23:0.065819 25:0.000367 26:0.002259 27:0.045988 28:0.006458 31:6e-06 32:0.001946 38:0.010277 39:4.2e-05 41:6.6e-05 42:0.004783 43:0.019048 44:0.000476 47:0.000422 48:0.000428 59:0.011422 60:1.2e-05 63:0.001428 64:0.000175 
1 0 1:0.295919 2:0.022391 3:4e-05 5:0.000316 6:0.014368 7:0.001393 8:2e-05 17:0.002421 18:0.001976 21:0.000949 22:0.079881 23:0.05587 24:0.002204 26:4e-05 27:0.051265 28:0.031018 39:0.000247 43:0.047925 44:0.303953 48:0.023063 59:0.000237 60:0.001818 64:0.062688 
1 0 1:0.191648 2:0.001243 5:0.068299 6:0.01384 7:0.000128 10:0.000933 11:0.000192 12:1.1e-05 16:5e-06 17:0.007813 18:0.000661 21:0.064784 22:0.104117 23:0.000667 26:0.010667 27:0.006864 28:1.1e-05 37:0.001435 38:0.024331 39:0.000491 40:5e-06 41:1.1e-05 42:0.040075 43:0.075163 44:0.000448 46:5e-06 47:0.003056 48:0.000896 58:3.7e-05 59:0.040261 60:0.000421 62:5e-06 63:0.088491 64:0.252987 
1 0 1:0.001262 2:0.003412 3:0.000487 4:0.00207 5:7e-06 6:0.002544 7:0.00201 8:0.000828 10:0.009182 11:0.001649 12:0.014772 14:0.005917 15:0.011039 16:0.018171 17:6.7e-05 18:0.000254 19:0.000581 20:0.002197 21:2e-05 22:0.018572 23:0.058226 24:0.013109 26:0.001322 27:0.029317 28:0.028094 30:0.000935 31:0.005903 32:0.005476 37:0.003339 38:0.006204 39:0.002958 40:0.016368 41:0.003032 42:0.028956 43:0.091616 44:0.083956 47:0.002344 48:0.05088 53:0.000154 54:1.3e-05 56:0.001897 57:0.011099 58:0.063601 59:0.081612 60:0.01958 62:0.001836 63:0.137574 64:0.155558 
1 0 1:0.064697 2:0.02545 3:0.002611 4:4.7e-05 5:9.3e-05 6:0.041357 7:0.143604 8:0.033337 10:7e-06 11:0.021116 12:0.014384 17:8e-05 18:0.001596 21:5.3e-05 22:0.018471 23:0.053725 24:0.022485 26:0.000247 27:0.029076 28:0.111937 31:4.7e-05 32:0.009843 42:7e-06 43:0.00203 44:0.046245 47:7e-06 48:0.354469 60:7e-06 64:0.002972 
1 0 1:0.137494 2:6e-06 17:0.081747 18:0.003807 21:0.069283 22:0.076699 23:6e-06 37:0.001265 38:0.104578 39:4.8e-05 42:0.288795 43:0.014012 58:0.042392 59:0.101042 63:0.007355 64:0.07147 
1 0 1:0.291592 2:0.001628 3:0.002775 4:0.002577 5:0.003628 6:0.002955 7:0.000144 8:0.001081 17:0.001856 18:0.000252 19:0.000498 20:0.00027 21:0.083874 22:0.331838 23:0.002889 24:0.002991 25:0.000126 26:0.003664 27:0.000805 28:0.000396 33:0.000132 37:0.001129 38:0.095267 39:0.000751 40:0.000186 41:0.000108 42:0.081556 43:0.057676 44:0.002012 46:1.2e-05 47:0.000583 48:0.000607 53:1.8e-05 54:6.6e-05 57:6e-06 58:0.000492 59:0.001796 60:0.000517 62:6e-06 63:0.002853 64:0.01839 
1 0 1:0.546955 2:0.002907 3:0.000112 4:6.9e-05 5:0.019621 6:0.037365 7:0.004768 8:3.7e-05 10:4.3e-05 11:0.006859 12:0.000288 17:0.001403 18:1.1e-05 19:1.1e-05 21:0.002517 22:0.016331 23:0.000432 24:0.000176 26:0.000197 27:0.005467 28:0.007936 32:0.007253 37:5e-06 38:0.000203 42:0.000331 43:0.052597 44:0.000203 47:0.000432 48:0.001056 59:0.012389 60:1.6e-05 63:0.014741 64:0.257269 
1 0 1:0.175008 2:0.005717 3:2.1e-05 5:0.013669 6:0.009536 7:2.7e-05 8:5e-06 10:0.000976 11:0.000208 17:0.011728 18:0.002016 19:1.6e-05 21:0.022107 22:0.249696 23:0.0192 24:1.1e-05 25:1.1e-05 26:0.01088 27:0.06136 28:4.3e-05 31:3.2e-05 37:0.001077 38:0.009723 39:0.009531 40:1.1e-05 41:0.00072 42:0.016048 43:0.162661 44:0.005413 47:0.000416 48:0.001968 53:5e-06 57:0.000133 58:0.000587 59:0.003104 60:0.005328 61:1.6e-05 62:0.000357 63:0.002891 64:0.197744 
1 0 1:0.13744 2:0.024779 5:0.001909 6:0.023632 7:0.000432 17:0.035653 18:0.002 19:2.1e-05 21:0.0212 22:0.145605 23:0.027237 24:0.000224 25:2.7e-05 26:0.001376 27:0.038939 28:0.001163 33:1.1e-05 37:6.9e-05 38:0.017867 39:0.003413 40:0.000107 41:2.7e-05 42:0.009349 43:0.137883 44:0.035787 47:0.001173 48:0.045067 54:5.9e-05 58:0.000309 59:0.042149 60:0.002885 63:0.020363 64:0.221845 
1 0 1:0.229067 2:0.000672 3:2.1e-05 5:0.000912 6:0.001445 7:1.1e-05 17:0.040544 18:0.000288 19:5e-06 21:0.03896 22:0.096197 23:0.001515 24:3.2e-05 26:0.000325 27:0.00128 28:3.7e-05 37:0.166997 38:0.111643 39:0.000277 41:7.5e-05 42:0.100544 43:0.039008 44:0.000784 47:0.000299 48:0.001029 53:2.7e-05 54:6.4e-05 57:3.2e-05 58:0.003776 59:0.003717 60:0.000293 63:0.002645 64:0.157477 
1 0 1:0.178502 2:0.004818 5:0.022684 6:0.044617 7:0.00022 10:0.000167 11:2.4e-05 17:0.006565 18:0.001426 21:0.005402 22:0.047722 23:0.004115 26:0.004431 27:0.00922 28:7.7e-05 31:8.1e-05 32:5e-06 33:5e-06 34:1e-05 37:0.0001 38:0.007646 39:0.000742 42:0.026828 43:0.081278 44:0.001478 46:5e-06 47:0.00188 48:0.003804 58:0.000684 59:0.030301 60:0.000187 62:1e-05 63:0.170311 64:0.344656 
1 0 1:0.234462 2:0.008498 3:1.2e-05 5:0.002553 6:0.011243 7:0.000739 11:2.4e-05 17:0.001267 18:0.003171 19:0.000486 21:0.001315 22:0.042324 23:0.012757 24:9e-05 26:0.015303 27:0.015754 28:0.001129 32:6e-06 34:1.2e-05 37:6e-06 38:0.00776 39:0.003237 40:8.4e-05 42:0.052679 43:0.267664 44:0.025538 47:0.01588 48:0.006006 54:6e-06 55:1.2e-05 58:0.000108 59:0.088889 60:0.000805 63:0.114264 64:0.065916 
1 0 1:0.186767 2:0.006629 3:0.00031 4:0.000147 5:0.029282 6:0.03351 7:0.000188 8:8e-06 12:4e-06 17:0.15682 18:0.002633 19:0.000669 20:0.000514 21:0.107437 22:0.184433 23:0.017837 24:0.006514 26:0.004567 27:0.042951 28:0.000441 32:8.2e-05 37:0.000567 38:0.001939 39:0.001665 40:0.004955 42:0.002286 43:0.041718 44:0.018008 46:4e-06 47:0.000992 48:0.005682 58:4e-06 59:0.000469 60:0.00269 63:0.000678 64:0.1366 
1 0 1:0.033858 2:0.038152 3:0.000942 5:0.000187 6:0.045938 7:0.007546 8:0.00016 11:0.0001 12:0.003419 16:0.000968 17:0.003693 18:0.000875 19:0.000641 20:5.3e-05 21:0.008301 22:0.082848 23:0.067341 24:0.000427 26:0.000508 27:0.023106 28:0.001516 32:0.000608 37:8e-05 38:0.007546 39:0.000715 40:9.3e-05 42:0.011713 43:0.179599 44:0.032288 47:0.001643 48:0.019079 58:1.3e-05 59:0.010418 60:0.001276 63:0.01974 64:0.394611 
1 0 1:0.160789 2:0.003509 3:0.000219 4:3.2e-05 5:0.088939 6:0.099461 7:0.00032 8:2.7e-05 10:0.01768 11:0.0012 12:5e-06 15:1.1e-05 16:1.1e-05 17:0.001392 18:0.000229 19:5e-06 21:0.002096 22:0.238208 23:0.006496 24:2.7e-05 25:1.6e-05 26:0.024912 27:0.049397 28:8.5e-05 31:0.000485 32:0.000149 37:5e-06 38:0.001653 39:0.000341 40:1.1e-05 42:0.002709 43:0.157141 44:0.009803 47:0.002859 48:0.028816 59:0.000891 60:5.3e-05 63:0.003424 64:0.096592 
1 0 1:0.208631 2:0.008979 3:1.2e-05 5:0.068132 6:0.105255 7:0.002006 10:0.000438 11:4.8e-05 17:0.000384 18:0.000162 21:0.000949 22:0.095483 23:0.057652 24:0.002036 26:0.003279 27:0.069231 28:0.028691 38:0.000372 39:7.2e-05 42:0.001808 43:0.132234 44:0.01642 47:0.000492 48:0.002673 58:2.4e-05 59:0.062048 60:0.000114 63:0.043003 64:0.089369 
1 0 1:0.314816 2:0.002325 3:0.000117 5:0.053099 6:0.067472 10:0.000352 11:2.1e-05 17:0.002059 18:0.000363 19:2.7e-05 21:0.002677 22:0.087264 23:0.000245 26:0.003141 27:0.002203 31:5e-06 38:0.000576 39:6.4e-05 42:0.000427 43:0.019621 44:0.000149 47:0.000496 48:0.000784 59:6.9e-05 60:2.1e-05 63:0.000837 64:0.440768 
1 0 1:0.268277 2:0.054273 5:0.000378 6:0.030878 7:0.000542 10:5.9e-05 11:0.000861 12:0.001794 15:8e-06 16:0.006416 17:0.063609 18:0.001786 21:0.096021 22:0.073147 23:0.014803 24:2.1e-05 26:0.000424 27:0.019912 28:0.00455 31:9.7e-05 32:0.013324 33:0.000227 34:8e-06 37:0.020744 38:0.022693 39:0.000748 40:0.00016 42:0.004038 43:0.062315 44:0.07979 47:0.001046 48:0.034214 58:4.2e-05 59:0.004962 60:0.000412 63:0.006723 64:0.110697 
1 0 1:0.090069 2:0.029767 3:3.1e-05 4:0.000465 5:0.000748 6:0.052736 7:0.003447 8:3.1e-05 11:1.9e-05 12:1.3e-05 17:0.028824 18:0.000327 20:6.9e-05 21:0.133855 22:0.068138 23:0.014157 24:0.000377 26:0.001019 27:0.012642 28:0.001038 31:1.3e-05 32:0.000107 37:0.01822 38:0.107113 39:0.000157 40:6e-06 42:0.310019 43:0.031774 44:0.007145 47:0.000918 48:0.026528 59:0.000321 60:0.000113 63:0.000138 64:0.059654 
1 0 1:0.212747 2:0.007547 3:0.004827 4:5e-06 5:0.004603 6:0.023515 7:0.003205 8:0.000432 10:0.000101 11:0.000656 12:1.6e-05 15:1.1e-05 16:0.001771 17:0.002768 18:0.002027 19:0.00064 21:0.004907 22:0.160587 23:0.038555 24:0.000779 26:0.013472 27:0.089872 28:0.000699 31:0.000283 32:0.01448 33:2.7e-05 37:0.012555 38:0.011205 39:0.009979 41:0.000139 42:0.003024 43:0.257344 44:0.015211 47:0.002688 48:0.047648 53:3.2e-05 54:3.2e-05 58:3.2e-05 59:0.001813 60:0.003797 63:0.000357 64:0.045616 
1 0 1:0.117589 2:0.007968 5:0.000437 6:0.018064 7:3.2e-05 17:0.009877 18:0.000933 21:0.008133 22:0.181088 23:0.018651 26:0.000907 27:0.061376 28:0.000277 33:0.000363 37:0.005093 38:0.021653 39:0.000459 42:0.011104 43:0.27104 44:0.014763 47:0.001685 48:0.025211 53:1.6e-05 58:0.000912 59:0.012571 60:0.000379 63:0.009616 64:0.199803 
1 0 1:0.275009 2:0.067748 3:0.000781 5:0.016895 6:0.052541 7:0.048426 17:0.002835 18:0.00027 21:0.019616 22:0.086396 23:0.056264 24:6e-06 25:6e-06 26:0.000805 27:0.007664 28:0.000252 37:0.000126 38:0.042661 39:0.000162 42:0.051718 43:0.026913 44:0.000288 47:0.000282 48:0.001459 58:0.014817 59:0.015477 60:8.4e-05 62:3.6e-05 63:0.015309 64:0.195153 
1 0 1:0.102187 2:0.005664 3:0.001136 4:0.000101 5:0.001877 6:0.002587 7:0.000475 11:0.000165 12:0.000293 16:5.3e-05 17:0.046384 18:0.005685 19:0.006848 20:0.001221 21:0.012347 22:0.058315 23:0.002 24:0.001419 25:0.004411 26:0.004853 27:0.00248 28:0.000427 29:4.8e-05 32:9.6e-05 33:0.076069 34:0.010816 35:0.001739 36:0.000293 37:0.036848 38:0.037829 39:0.002021 40:0.001371 41:0.025499 42:0.061131 43:0.081147 44:0.000496 45:5e-06 46:3.2e-05 47:0.001435 48:0.00096 49:0.0364 50:0.000187 51:8e-05 53:0.103691 54:0.016613 55:0.000517 56:1.6e-05 57:0.000363 58:0.048725 59:0.089365 60:0.000603 62:0.000288 63:0.02192 64:0.082469 
1 0 1:0.153008 2:0.045483 3:0.02456 4:0.001083 5:0.001483 6:0.050453 7:0.009845 8:0.000315 11:0.004597 12:9.6e-05 17:8.5e-05 18:0.001584 19:0.005739 20:0.002395 21:3.7e-05 22:0.102453 23:0.085883 24:0.0168 26:0.004395 27:0.046848 28:0.001925 38:0.006608 39:0.011216 40:0.001056 42:0.002443 43:0.245275 44:0.111653 47:1.6e-05 48:0.000859 59:0.000187 60:0.002075 64:0.059547 
1 0 1:0.353909 2:0.022821 3:0.000624 5:0.001797 6:0.044053 7:0.004437 8:9.6e-05 10:1.1e-05 11:0.000427 12:7.5e-05 17:8e-05 18:5.3e-05 19:5e-06 21:0.000491 22:0.051803 23:0.01408 24:0.000144 26:0.001115 27:0.028032 28:0.002928 32:0.000144 38:0.000107 39:0.000171 40:3.2e-05 42:0.000293 43:0.050651 44:0.015253 47:0.000933 48:0.047915 59:5.9e-05 60:0.000165 63:0.000213 64:0.357083 
1 0 1:0.093672 2:0.037187 5:0.000977 6:0.045417 7:0.000599 17:1.3e-05 18:5.2e-05 21:0.000612 22:0.501185 23:0.003372 26:0.006185 27:0.001549 37:0.000247 38:0.010273 39:9.1e-05 42:0.042057 43:0.25651 
1 0 1:0.00135 2:0.017254 6:0.010006 18:0.000616 19:0.000323 22:0.130854 23:0.245114 26:0.001526 27:0.005076 38:0.000176 39:0.005032 42:0.000205 43:0.560593 44:0.000763 47:0.000396 48:0.000425 59:0.007688 60:0.000191 63:0.004284 64:0.008128 
1 0 1:0.084453 2:0.024225 3:0.000423 4:3.3e-05 5:3.3e-05 6:0.040514 7:0.019329 8:0.000801 11:1.3e-05 17:0.000788 18:0.000417 19:4.6e-05 21:0.000638 22:0.293125 23:0.136803 24:0.011296 26:5.2e-05 27:0.05125 28:0.038262 32:7.8e-05 37:4.6e-05 38:0.060456 39:0.005059 42:0.019492 43:0.125254 44:0.033574 47:1.3e-05 48:0.018177 58:0.000221 59:0.022507 60:0.001634 63:0.001764 64:0.009225 
1 0 1:0.063978 2:0.002129 3:0.000111 5:0.168457 6:0.330618 7:0.000156 10:0.017884 11:0.00043 17:0.001693 18:1.3e-05 19:0.000918 20:0.001315 21:0.001595 22:0.052578 23:0.032038 24:0.000195 26:0.017611 27:0.049753 28:0.004284 31:0.000352 32:0.000169 38:0.000143 39:0.000299 40:0.000137 42:0.000215 43:0.031921 44:0.051823 47:0.003073 48:0.056126 59:0.001986 60:0.000417 63:0.00737 64:0.100215 
1 0 1:0.341754 2:0.063754 3:2.4e-05 5:0.005024 6:0.069443 7:0.00197 17:0.00188 18:0.000503 21:0.006814 22:0.132689 23:0.040371 25:6e-05 26:0.000347 27:0.001419 37:5.4e-05 38:0.001778 39:0.001527 41:0.00012 42:0.001269 43:0.251054 44:0.020263 46:6e-06 47:0.001036 48:0.002503 58:3e-05 59:0.015096 60:0.007719 63:0.005144 64:0.026347 
1 0 1:0.209734 2:0.003685 5:0.002909 6:0.029937 7:0.001685 10:0.000734 11:0.013762 12:0.001287 15:9.1e-05 16:0.001217 17:0.004972 18:0.001371 21:0.001357 22:0.459392 23:0.00307 26:0.006259 27:0.046587 28:0.001958 31:0.001315 32:0.009839 38:0.009105 39:0.001972 42:0.00121 43:0.17379 44:0.000594 47:0.000343 48:0.001189 59:0.000601 60:0.000259 63:0.000196 64:0.00958 
1 0 1:0.104624 2:0.012256 5:0.002533 6:0.02064 7:4.3e-05 17:0.009328 18:0.000587 21:0.001611 22:0.293973 23:0.007632 26:0.006261 27:0.073739 38:0.004304 39:0.000501 42:0.002496 43:0.372917 44:8e-05 47:0.001701 48:0.001365 59:0.008523 60:0.000123 63:0.013317 64:0.061445 
1 0 1:0.172249 2:0.048386 3:0.034107 5:0.00095 6:0.018659 7:0.025306 8:5.9e-05 11:0.005359 12:0.00251 17:0.001145 18:0.00016 19:0.000113 20:6e-06 21:0.001656 22:0.020647 23:0.018095 24:0.000261 25:6e-06 26:0.000831 27:0.02635 28:0.025442 32:0.001163 37:0.000107 38:0.001128 39:3.6e-05 41:2.4e-05 42:0.01797 43:0.116599 44:0.016315 47:0.000855 48:0.01689 58:0.000131 59:0.016896 60:0.000522 63:0.020297 64:0.388772 
1 0 1:0.092043 2:0.034337 5:0.00777 6:0.081262 7:0.00184 10:1.1e-05 11:1.1e-05 17:0.015 18:0.000428 21:0.015733 22:0.079342 23:0.055765 24:0.000305 26:0.004203 27:0.100679 28:0.006898 31:5e-06 33:1.1e-05 37:0.003182 38:0.008674 39:7.5e-05 41:0.000139 42:0.014973 43:0.030428 44:0.016086 47:0.001032 48:0.003567 53:8.6e-05 54:1.1e-05 57:4.8e-05 58:0.257032 59:0.007497 60:3.2e-05 62:0.010642 63:0.094909 64:0.055947 
1 0 1:0.000781 2:0.000633 3:2.4e-05 5:0.000219 6:0.001456 7:9.5e-05 12:8.3e-05 16:0.000101 17:0.000349 18:0.000734 19:9.5e-05 21:0.000657 22:0.417675 23:0.09032 24:0.00426 26:0.001834 27:0.034562 28:0.02055 32:0.009189 34:1.2e-05 38:0.009136 39:0.009811 40:0.000438 42:0.003402 43:0.16987 44:0.095272 47:0.001225 48:0.010083 58:5.3e-05 59:0.002456 60:0.002775 63:0.003148 64:0.108704 
1 0 1:0.218841 22:0.233297 43:0.511201 64:0.036661 
1 0 1:0.033701 2:0.048624 3:0.011931 5:8e-05 6:0.011248 7:5e-06 17:0.028261 18:0.002352 19:0.004773 20:3.7e-05 21:0.027739 22:0.250587 23:0.032805 24:0.002501 26:0.000464 27:0.034619 28:2.7e-05 37:0.005483 38:0.022949 39:0.001344 40:6.4e-05 42:0.018944 43:0.136699 44:0.012144 47:0.0004 48:0.011701 58:0.000368 59:0.041701 60:0.001104 63:0.03048 64:0.226864 
1 0 1:0.151739 2:0.019637 5:0.009824 6:0.072805 7:2.1e-05 17:0.002453 18:0.004597 21:0.004875 22:0.207893 23:0.098789 26:0.007115 27:0.106085 37:6.4e-05 38:0.014144 39:0.001611 42:0.032037 43:0.109797 44:0.001499 47:0.000133 48:6.9e-05 54:5e-06 58:0.001941 59:0.023077 60:0.001499 62:7.5e-05 63:0.0308 64:0.097413 
1 0 1:0.058251 2:0.001061 3:8.5e-05 4:3.2e-05 5:0.009387 6:0.03064 7:0.000763 8:6.9e-05 10:0.001008 11:0.001189 12:0.000533 16:7.5e-05 17:0.004245 18:7.5e-05 21:0.006085 22:0.197152 23:0.024085 24:3.2e-05 26:0.031163 27:0.168992 28:0.000485 31:1.1e-05 32:0.000608 33:4.8e-05 37:0.001643 38:0.001253 39:0.000107 42:0.045264 43:0.158251 44:0.001248 47:0.001216 48:0.001019 53:1.1e-05 59:0.000704 60:1.6e-05 63:0.001883 64:0.251312 
1 0 1:0.519574 2:0.050614 3:0.000226 5:0.000816 6:0.05818 7:0.030806 8:0.000759 11:0.000533 12:0.000727 17:0.032049 18:0.000258 21:0.013114 22:0.015568 23:0.010877 24:0.000266 26:0.000113 27:0.022699 28:0.058915 32:1.6e-05 38:1.6e-05 39:1.6e-05 42:3.2e-05 43:0.005959 44:0.078593 47:2.4e-05 48:0.0966 64:0.002649 
1 0 1:0.09423 2:0.01405 5:0.010065 6:0.01213 7:0.000215 17:0.005065 18:0.00183 21:0.03099 22:0.06155 23:0.00695 25:2.5e-05 26:0.00253 27:0.00912 28:1e-05 33:5e-06 37:0.000515 38:0.00269 39:0.00026 42:0.004775 43:0.05 44:0.000415 47:0.00068 48:0.000665 58:6e-05 59:0.00317 60:3.5e-05 63:0.008465 64:0.679505 
1 0 1:0.558379 2:0.131989 3:0.003456 4:0.000133 5:0.002075 6:0.093541 7:0.100763 8:0.009195 10:2.1e-05 11:0.001445 12:0.006443 16:3.2e-05 17:0.000155 18:0.000347 19:5e-06 21:0.000805 22:0.004304 23:0.014517 24:0.005088 26:6.4e-05 27:0.004475 28:0.056464 32:0.00064 42:5e-06 43:4.3e-05 44:0.002059 48:0.00288 64:0.000677 
1 0 1:0.189659 2:0.028213 3:0.000261 5:0.001736 6:0.047917 7:0.043295 8:7.1e-05 9:0.00032 10:0.000166 11:0.000148 12:1.2e-05 13:0.000332 14:6.5e-05 15:5.3e-05 16:2.4e-05 17:0.006222 18:0.00224 19:0.000101 20:6e-06 21:0.006993 22:0.165831 23:0.02147 24:0.000172 25:3.6e-05 26:0.00365 27:0.056794 28:0.006732 30:3e-05 31:0.000225 32:0.000539 33:1.2e-05 34:5.3e-05 37:0.000154 38:0.003419 39:0.000332 41:6e-06 42:0.005606 43:0.303639 44:0.004119 47:0.00832 48:0.009138 55:6e-06 59:0.001244 60:0.000101 63:0.011745 64:0.068794 
1 0 1:0.040808 2:0.013042 3:0.001 4:0.00021 5:0.000611 6:0.043443 7:0.012832 8:1.2e-05 11:5.4e-05 17:0.002784 18:7.2e-05 19:6.6e-05 20:1.2e-05 21:0.031162 22:0.073024 23:0.102766 24:0.000114 26:0.000234 27:0.108599 28:4.2e-05 37:7.2e-05 38:0.013766 39:8.4e-05 40:1.8e-05 41:0.000108 42:0.002383 43:0.147329 44:0.024174 46:1.2e-05 47:0.007766 48:0.079539 54:6e-06 57:0.000156 58:0.000299 59:9.6e-05 60:8.4e-05 61:6.6e-05 62:0.000425 63:0.000605 64:0.292126 
1 0 1:0.676818 2:0.053626 3:0.001984 4:1.1e-05 5:5e-06 6:0.01438 7:0.01593 8:0.000166 11:0.001893 12:0.005824 17:0.010963 18:0.015294 19:5e-06 21:0.000144 22:0.045283 23:0.047032 24:0.004422 26:3.2e-05 27:0.014936 28:0.02623 32:7.5e-05 34:5e-06 37:3.2e-05 38:0.000198 39:0.002032 42:4.3e-05 43:0.027765 44:0.020369 47:5e-06 48:0.011406 54:5e-06 55:5e-06 58:3.2e-05 59:6.4e-05 60:1.6e-05 62:5e-06 63:3.7e-05 64:0.002925 
1 0 1:0.603515 2:0.116971 5:0.005675 6:0.184907 7:0.001323 11:5e-06 17:0.003093 18:0.000453 21:0.003477 22:0.059205 23:0.010411 26:1.6e-05 27:0.001888 28:0.004507 32:3.2e-05 38:5e-06 39:1.6e-05 42:5e-06 43:0.000384 44:0.000352 48:0.002 64:0.00176 
1 0 1:0.069606 2:0.01128 5:0.002868 6:0.0652 7:0.002843 11:0.0004 12:5.5e-05 21:0.003754 22:0.433606 23:0.0144 26:0.088665 27:0.044203 28:0.005994 32:0.000154 38:0.000234 39:1.2e-05 42:0.003403 43:0.089391 44:0.018671 47:0.016757 48:0.047938 59:6e-06 60:6e-06 63:4.3e-05 64:0.080511 
1 0 1:0.121392 2:0.002549 3:0.000677 4:7.5e-05 5:0.001541 6:0.004048 7:0.000363 8:4.8e-05 10:5e-06 11:5.3e-05 17:0.014213 18:0.000245 19:5.9e-05 20:5e-06 21:0.066651 22:0.118928 23:0.002715 24:0.000133 26:0.005515 27:0.002949 28:0.000112 31:8e-05 32:5e-06 37:0.005733 38:0.011541 39:0.000368 40:5e-06 41:4.3e-05 42:0.036741 43:0.258277 44:0.000288 47:0.000976 48:0.000624 57:5e-06 58:0.000165 59:0.009067 60:3.2e-05 62:1.1e-05 63:0.086939 64:0.246821 
1 0 1:0.257199 2:0.005635 3:8.2e-05 5:0.000354 6:0.00467 7:0.00121 8:2.2e-05 10:1.1e-05 11:0.000441 12:0.000409 16:0.000109 17:0.097183 18:0.001542 19:5e-06 21:0.051777 22:0.126196 23:0.010627 24:0.000136 26:0.000256 27:0.016038 28:0.004142 31:1.1e-05 32:0.001564 33:5e-06 37:0.000452 38:0.02151 39:0.001226 40:5e-06 42:0.004872 43:0.022932 44:0.024774 47:6.5e-05 48:0.026599 58:0.007281 59:0.044768 60:0.002534 63:0.006681 64:0.256676 
1 0 1:0.033042 2:0.003213 3:7.6e-05 5:0.0002 6:0.002671 7:0.000333 17:0.002947 18:0.00057 19:3.8e-05 21:0.0025 22:0.023327 23:0.005694 24:1e-05 26:0.000247 27:0.033413 28:1e-05 33:0.000371 37:0.00385 38:0.001644 39:0.000114 41:0.007177 42:0.072852 43:0.655371 44:0.036112 47:0.003127 48:0.014553 54:1.9e-05 57:0.000209 58:0.01673 59:0.052994 60:0.000114 63:0.005257 64:0.021217 
1 0 1:0.219099 2:0.01656 3:0.00104 5:0.01224 6:0.051232 7:0.003616 10:0.000603 11:0.005909 12:0.000139 17:0.009499 18:0.002064 19:0.000373 21:0.008469 22:0.186533 23:0.016507 26:0.004448 27:0.032907 28:0.000293 31:0.000101 32:0.000773 33:0.000597 37:0.005093 38:0.013584 39:0.003797 41:0.000608 42:0.016544 43:0.112629 44:0.000992 47:0.000923 48:0.002219 53:5e-06 54:3.2e-05 57:0.000347 58:0.006107 59:0.006139 60:0.000208 62:1.6e-05 63:0.008709 64:0.249045 
1 0 1:0.59464 2:0.020912 3:0.001488 4:0.000277 5:0.040603 6:0.000992 7:0.000123 8:6.4e-05 9:0.000133 17:0.001749 18:0.020747 19:0.002555 20:6.4e-05 21:0.080261 22:0.093221 23:0.012203 24:0.000821 25:0.001493 26:0.009509 27:0.000555 28:0.000149 29:1.1e-05 30:5e-06 37:0.000293 38:0.000741 39:0.005733 40:0.000485 41:0.001797 42:0.019531 43:0.020661 44:0.004821 45:0.000176 46:0.002453 47:0.005248 48:0.000459 57:0.000149 58:0.000235 59:0.00048 60:0.001397 61:0.001104 62:0.002229 63:0.008603 64:0.040827 
1 0 1:0.081941 2:0.036933 3:0.000117 5:0.000795 6:0.007675 7:0.000203 17:0.001067 18:0.003019 19:5.3e-05 21:0.002283 22:0.063787 23:0.029301 24:0.000117 25:0.000133 26:0.002629 27:0.007557 28:0.000176 33:1.1e-05 37:0.000373 38:0.002149 39:0.002448 40:3.2e-05 41:0.000235 42:0.004741 43:0.548853 44:0.002245 47:0.00176 48:0.000149 53:1.1e-05 54:3.7e-05 58:0.000224 59:0.166992 60:0.000283 63:0.009936 64:0.021733 
1 0 1:0.219637 2:0.028635 3:0.001685 4:1.6e-05 5:0.009477 6:0.004672 7:4.8e-05 17:0.001355 18:0.004512 19:0.001509 20:0.00024 21:0.016683 22:0.337739 23:0.070139 24:0.014869 26:0.011003 27:0.005808 38:0.003696 39:0.000693 40:2.7e-05 42:0.044123 43:0.136955 44:0.000475 47:0.001595 48:0.000229 59:0.00048 60:6.9e-05 63:0.001456 64:0.082176 
1 0 1:0.137061 2:0.004752 5:0.002565 6:0.014917 17:0.00448 18:0.000485 21:0.004165 22:0.297403 23:0.007349 26:0.001893 27:0.017131 38:0.017904 39:0.000523 42:0.01488 43:0.334405 44:0.003819 47:0.000229 48:0.006128 59:0.000752 60:4.3e-05 63:0.000491 64:0.128624 
1 0 1:0.856337 22:0.039663 43:0.036858 64:0.067142 
1 0 1:0.072907 2:0.027637 3:0.000309 5:0.000459 6:0.005589 7:5e-06 17:0.011573 18:0.011232 19:0.000501 21:0.008421 22:0.225989 23:0.033237 26:0.000368 27:0.001621 28:5e-06 37:0.001803 38:0.061285 39:0.029605 41:0.000123 42:0.050405 43:0.183253 44:1.1e-05 46:0.000235 47:0.009957 48:0.000459 53:5e-06 54:2.1e-05 57:0.000288 58:0.002155 59:0.039568 60:1.1e-05 62:0.000411 63:0.043413 64:0.177136 
1 0 1:0.02201 2:0.00201 3:1.7e-05 5:8.4e-05 6:0.003568 7:0.00072 17:0.001675 18:0.000184 21:0.00072 22:0.017018 23:0.022563 24:0.000134 26:3.4e-05 27:0.063166 28:0.040888 38:0.002094 39:0.000402 40:1.7e-05 42:0.000419 43:0.027337 44:0.063769 48:0.005863 59:0.185142 60:0.016265 63:0.025159 64:0.498744 
1 0 1:0.026501 2:0.005083 3:0.003147 5:0.001125 6:0.093611 7:0.000763 10:2.1e-05 11:0.001573 12:0.001141 16:5e-06 17:0.005232 18:0.001131 19:7.5e-05 21:0.000832 22:0.308821 23:0.008459 26:0.003659 27:0.01104 28:0.000496 32:8.5e-05 38:0.089408 39:0.002688 42:0.028085 43:0.122005 44:0.000656 47:3.2e-05 48:0.000933 59:0.016576 60:0.000245 63:0.009429 64:0.257141 
1 0 1:0.386085 2:0.008875 3:4.8e-05 5:0.002565 6:0.011504 7:0.001333 8:1.6e-05 10:5e-06 11:1.6e-05 12:0.000213 17:0.045963 18:0.010315 21:0.063387 22:0.131621 23:0.016997 24:0.000459 26:0.000795 27:0.006853 28:0.010571 32:0.001115 33:0.000224 34:5e-06 37:0.057253 38:0.053216 39:0.004085 40:3.7e-05 41:2.1e-05 42:0.017205 43:0.054539 44:0.039509 47:4.3e-05 48:0.031381 49:6.9e-05 53:0.005701 54:0.001819 55:1.1e-05 57:0.002464 58:0.002485 59:0.001824 60:0.000768 61:1.1e-05 62:3.7e-05 63:0.000448 64:0.028107 
1 0 1:0.1332 2:0.007925 5:0.001984 6:0.000944 10:4.3e-05 11:5.9e-05 15:5e-06 17:0.026667 18:0.015003 21:0.005627 22:0.103125 23:0.026805 24:4.8e-05 26:0.001563 27:0.003253 28:4.8e-05 31:0.00032 32:0.000187 37:0.000283 38:0.04768 39:0.022251 40:0.002192 42:0.013189 43:0.103835 44:0.029381 47:0.001659 48:0.003467 54:0.000357 58:0.006592 59:0.112491 60:0.011621 62:5e-06 63:0.033141 64:0.285051 
1 0 1:0.315211 2:0.005371 3:1.1e-05 5:0.003179 6:0.002992 7:1.1e-05 17:0.041595 18:0.001019 21:0.045749 22:0.104496 23:0.004987 25:0.000768 26:0.011205 27:0.007515 28:9.6e-05 30:2.1e-05 31:3.2e-05 32:2.7e-05 38:0.01008 39:0.001088 42:0.010091 43:0.063968 44:0.009904 46:5e-06 47:0.004501 48:0.029696 59:0.002624 60:6.4e-05 63:0.004347 64:0.319349 
1 0 1:0.169557 2:0.005323 5:0.00303 6:0.015425 7:0.003126 11:0.000659 17:0.025772 18:0.00012 21:0.028952 22:0.152958 23:0.013174 26:0.001731 27:0.021084 28:0.001198 38:0.002042 39:0.00015 42:0.013946 43:0.078275 44:0.025156 47:0.01106 48:0.016353 59:0.000449 60:1.8e-05 63:0.003868 64:0.406575 
1 0 1:0.107526 2:0.000979 3:0.00045 5:0.024721 6:0.148691 7:0.002559 10:0.000228 11:0.003021 12:4.2e-05 17:0.002306 18:0.000456 19:0.000432 20:1.8e-05 21:0.020841 22:0.158745 23:0.003051 24:7.2e-05 26:0.034468 27:0.021231 28:0.000186 31:3e-05 32:0.000216 37:0.000721 38:0.016505 39:0.000571 40:0.000102 42:0.036613 43:0.057177 44:0.00161 47:0.002036 48:0.00388 53:4.2e-05 58:0.000577 59:0.02448 60:0.000414 63:0.072006 64:0.252997 
1 0 1:0.099424 2:0.006736 3:0.006533 4:0.00472 5:0.034827 6:0.076144 7:0.000651 8:0.000181 10:0.004117 11:9.1e-05 17:0.002512 18:0.000368 19:0.000555 20:0.000352 21:0.007765 22:0.130587 23:0.006832 24:0.002059 25:2.1e-05 26:0.03576 27:0.023877 28:0.000197 31:5.3e-05 37:1.6e-05 38:0.011339 39:0.000432 40:0.000379 41:5e-06 42:0.043051 43:0.124976 44:0.005739 47:0.009941 48:0.007051 58:0.000101 59:0.012432 60:0.000379 63:0.156448 64:0.183349 
1 0 1:0.081893 2:0.008848 5:0.000309 6:0.006368 17:0.014043 18:0.002427 21:0.003755 22:0.292555 23:0.032795 26:0.033179 27:0.025856 28:8e-05 33:0.000219 34:2.1e-05 37:0.000549 38:0.024213 39:0.009605 40:0.001605 42:0.016203 43:0.201733 44:0.030325 47:0.010352 48:0.026533 54:0.002603 55:0.005728 56:0.001253 58:0.001861 59:0.010464 60:0.009349 63:0.003088 64:0.142187 
1 0 1:0.276991 22:0.229483 43:0.333934 64:0.159592 
1 0 1:0.034667 2:0.055429 3:0.184416 4:0.018139 6:5.9e-05 7:0.004821 8:0.013909 18:0.000107 19:0.006331 20:0.004437 22:0.000512 23:0.009056 24:0.197264 27:1.1e-05 28:0.023376 39:0.000107 40:0.001061 43:0.000112 44:0.418864 48:0.011141 60:0.004325 64:0.011856 
1 0 1:0.032352 2:0.006981 3:0.00032 4:5.9e-05 5:0.00872 6:0.016555 7:0.000219 8:1.6e-05 10:0.000496 11:0.000144 17:0.003563 18:0.002336 19:0.000117 20:0.000224 21:0.022757 22:0.251125 23:0.017845 24:0.001291 25:0.000379 26:0.010165 27:0.050896 28:0.000656 30:1.6e-05 31:5e-06 32:8.5e-05 38:0.009659 39:0.000811 40:0.003408 42:0.012021 43:0.092677 44:0.017461 46:0.000149 47:0.002309 48:0.005317 59:0.001216 60:0.000133 63:0.08752 64:0.339995 
1 0 21:5e-06 22:0.464789 23:0.004299 24:1.1e-05 26:0.002149 27:0.002203 28:5e-06 38:0.023557 39:0.001787 40:6.4e-05 42:0.030944 43:0.422379 44:0.002581 47:0.000517 48:0.004043 59:0.00016 60:0.000107 63:0.000128 64:0.040272 
1 0 1:0.186256 2:0.034928 3:0.010512 4:0.001216 5:0.004304 6:0.011984 7:0.007323 8:0.010165 11:2.1e-05 12:0.027824 16:0.000443 17:0.003675 18:0.000672 19:3.7e-05 21:0.022037 22:0.164144 23:0.014101 24:0.000379 26:0.009003 27:0.007813 28:0.008901 31:5e-06 32:0.020267 38:0.000571 39:0.000603 40:2.1e-05 42:0.015771 43:0.215067 44:0.008464 47:0.004485 48:0.006139 59:0.01616 60:0.001707 63:0.009301 64:0.175701 
1 0 1:0.215636 2:0.00085 5:0.002545 6:0.001882 17:0.038627 18:0.000536 21:0.0894 22:0.036286 23:3.2e-05 25:5e-06 26:0.000109 33:5e-06 37:0.001809 38:0.069259 39:0.000214 41:1.4e-05 42:0.159286 43:0.064891 44:5e-06 46:5e-06 47:8.2e-05 48:2.7e-05 58:0.029927 59:0.083859 60:0.000345 62:2.3e-05 63:0.024741 64:0.1796 
1 0 1:0.213495 2:0.059393 3:0.000961 5:0.000348 6:0.029778 7:0.001712 17:0.190294 18:0.00194 19:0.003093 21:0.168625 22:0.130931 23:0.075994 26:9e-05 27:0.020673 28:0.015171 37:0.01045 38:0.004162 39:2.4e-05 42:0.000559 43:0.01985 44:0.023195 47:0.000661 48:0.000318 59:0.001652 60:2.4e-05 63:0.006925 64:0.019682 
1 0 1:0.098533 2:0.016992 3:0.000533 4:1.6e-05 5:0.000816 6:0.028197 7:0.021525 8:0.000293 10:6.4e-05 11:0.001712 12:0.001584 16:2.7e-05 17:0.017648 18:0.00256 19:8.5e-05 21:0.008624 22:0.088149 23:0.051029 24:9.1e-05 26:0.00184 27:0.062363 28:0.056037 32:0.007979 33:0.000619 34:0.000123 37:0.004379 38:0.038613 39:0.003259 40:1.1e-05 41:9.1e-05 42:0.017733 43:0.196203 44:0.016107 47:0.001211 48:0.093184 49:1.1e-05 50:9.1e-05 51:1.6e-05 53:3.2e-05 54:0.000293 55:0.000315 57:0.000213 58:0.001749 59:0.033531 60:0.000789 61:2.7e-05 62:5.9e-05 63:0.038379 64:0.086267 
1 0 1:0.342577 22:0.120865 43:0.17206 64:0.364498 
1 0 1:0.216885 2:0.064005 3:0.002661 4:5e-06 5:0.000309 6:0.048661 7:0.005877 8:0.000448 10:5e-06 11:5.9e-05 12:0.000352 17:0.001488 18:0.001488 19:0.001947 20:0.000683 21:0.002272 22:0.119701 23:0.050971 24:0.006245 26:0.000192 27:0.052789 28:0.003728 32:5.3e-05 38:0.004245 39:0.000544 40:0.002581 42:0.003051 43:0.028043 44:0.010299 47:5.9e-05 48:0.004725 58:9.6e-05 59:0.000656 60:0.000373 63:0.085467 64:0.279035 
1 0 1:0.190533 2:0.012368 3:0.004272 4:0.002453 5:0.012075 6:0.044507 7:0.001051 8:0.000325 10:0.002011 11:0.001595 12:0.000171 16:0.0004 17:0.037211 18:0.002571 19:0.000757 20:0.001605 21:0.056144 22:0.181461 23:0.014789 24:0.004448 26:0.01144 27:0.042112 28:0.001344 30:5e-06 31:0.000368 32:0.002101 37:5.9e-05 38:0.022667 39:0.001712 40:0.0008 42:0.022816 43:0.212192 44:0.025947 47:0.000661 48:0.012112 55:5e-06 59:0.006843 60:0.001397 63:0.002693 64:0.061979 
1 0 1:0.033808 2:0.009424 3:0.000128 4:5e-06 5:0.015552 6:0.106053 7:0.018459 8:0.000155 10:5.9e-05 11:0.004544 12:0.000528 17:0.000331 18:0.000779 19:1.1e-05 21:0.004192 22:0.305696 23:0.163024 24:0.000475 25:0.000171 26:0.005387 27:0.100267 28:0.014619 31:4.8e-05 32:0.000608 37:0.000117 38:0.002795 39:0.014203 40:0.000117 41:0.001605 42:0.020624 43:0.114059 44:0.035493 47:0.000363 48:0.008341 58:5e-06 59:0.001083 60:0.00152 63:0.000816 64:0.014539 
1 0 1:0.689797 2:0.041173 3:0.000128 5:0.000277 6:0.095573 7:0.027019 11:1.6e-05 17:1.1e-05 18:3.2e-05 19:5e-06 22:0.031093 23:0.096693 26:4.3e-05 27:0.017376 28:5e-06 39:5e-06 43:0.000608 44:1.6e-05 48:2.7e-05 59:1.1e-05 60:5e-06 64:8.5e-05 
1 0 1:0.067803 2:0.001616 5:0.001648 6:0.007109 7:1.6e-05 10:1.1e-05 11:5e-06 17:0.027397 18:0.002021 21:0.017029 22:0.190176 23:0.000453 24:2.7e-05 26:0.001099 27:0.006688 28:3.2e-05 34:5e-06 37:2.1e-05 38:0.024363 39:0.000149 40:5e-06 42:0.011936 43:0.189963 44:0.001136 47:0.017285 48:0.073525 54:1.1e-05 58:0.000123 59:0.002517 60:2.1e-05 62:1.1e-05 63:0.006848 64:0.348949 
1 0 1:0.017408 2:0.006549 3:0.000389 5:0.001808 6:0.003936 7:0.000272 12:5e-06 17:0.008549 18:0.002517 19:0.000139 21:0.021813 22:0.471909 23:0.029008 24:0.000923 26:0.016491 27:0.014421 28:0.000293 32:1.1e-05 37:0.000171 38:0.026752 39:0.001829 40:4.3e-05 42:0.057291 43:0.182464 44:0.008336 47:0.001499 48:0.008027 54:5e-06 58:0.000693 59:0.004827 60:0.000389 63:0.00584 64:0.105392 
1 0 1:0.005153 2:0.001934 3:6e-06 5:0.000432 6:0.017988 7:0.017423 8:1.8e-05 10:0.001177 11:0.029922 12:0.000985 16:6e-06 17:0.023351 18:0.00012 21:0.015856 22:0.112072 23:0.008252 24:1.8e-05 26:0.001508 27:0.177087 28:0.114679 31:1.8e-05 32:0.000444 38:0.030402 39:0.005081 42:0.006637 43:0.178432 44:0.129598 47:9e-05 48:0.042985 59:0.011724 60:0.000925 63:0.001441 64:0.064234 
1 0 1:0.000387 2:0.001057 5:6e-06 6:0.003444 7:0.000109 11:6e-06 17:2.4e-05 18:4.2e-05 21:1.8e-05 22:0.266628 23:0.03087 24:4.8e-05 27:0.02452 28:0.028943 32:0.003456 38:0.013148 39:0.001746 42:0.000381 43:0.034894 44:0.029112 47:1.2e-05 48:0.066211 59:0.000785 60:0.000157 63:0.000514 64:0.49348 
1 0 1:0.048479 2:0.037846 5:6e-06 6:0.053822 7:0.009391 8:6e-06 11:0.001107 12:6e-06 21:6e-06 22:0.021882 23:0.079249 26:6e-06 27:0.109509 28:0.081083 32:0.001456 43:0.007757 44:0.081355 47:4.7e-05 48:0.045308 63:0.001355 64:0.420325 
1 0 1:0.114701 2:0.025219 3:0.000337 5:0.000636 6:0.004064 7:1.6e-05 10:6.4e-05 11:7e-05 17:0.007807 18:0.006711 19:0.000326 20:3.7e-05 21:0.004102 22:0.370802 23:0.020385 24:0.000754 26:0.000642 27:0.005497 28:0.000107 31:1.6e-05 32:2.1e-05 33:1.6e-05 37:5.9e-05 38:0.027529 39:0.017952 40:0.00039 42:0.00662 43:0.228406 44:0.010508 47:0.00046 48:0.00215 54:1.6e-05 58:4.3e-05 59:0.009053 60:0.002957 62:5e-06 63:0.004428 64:0.127091 
1 0 1:0.809802 2:0.013177 3:0.000294 4:1.8e-05 5:0.000264 6:0.005646 7:0.003742 8:0.000102 17:0.007345 18:0.000258 21:0.01388 22:0.096715 23:0.01012 24:0.000264 26:1.2e-05 27:0.00594 28:0.005538 38:6e-06 39:0.00039 42:1.2e-05 43:0.005694 44:0.009075 48:0.004396 59:1.2e-05 60:0.00039 64:0.006907 
1 0 1:0.094619 2:0.02179 3:0.00355 4:0.001333 5:0.004018 6:0.021604 7:0.000697 8:0.000775 10:6e-06 11:1.8e-05 17:0.033718 18:0.003814 19:0.000691 20:0.00042 21:0.022949 22:0.063309 23:0.014835 24:0.00445 26:0.00182 27:0.010739 28:0.002138 31:0.000126 32:0.001087 33:1.2e-05 37:0.009568 38:0.063135 39:0.001712 40:0.000396 42:0.031357 43:0.026318 44:0.009508 47:0.000805 48:0.04045 53:1.2e-05 54:0.013327 58:0.210751 59:0.206577 60:0.000348 63:0.026523 64:0.050697 
1 0 1:0.046624 2:0.031643 3:5e-06 5:0.001627 6:0.062539 7:0.000859 8:5.3e-05 10:6.9e-05 11:0.000144 12:5e-06 17:0.000704 18:8e-05 21:0.002992 22:0.049312 23:0.020011 24:3.7e-05 26:0.000629 27:0.02976 28:0.00112 32:3.2e-05 38:0.000395 39:9.6e-05 42:0.004272 43:0.343339 44:0.011877 47:0.003104 48:0.028277 59:0.1576 60:0.000491 63:0.078395 64:0.123909 
1 0 1:0.303569 22:0.443737 43:0.140202 64:0.112493 
1 0.02078622727970801 1:0.311296 2:0.000373 5:0.000603 6:0.002496 7:5e-06 10:0.000139 11:0.000213 16:1.1e-05 17:0.052384 18:0.043712 21:0.000443 22:0.099861 23:0.002016 26:0.002624 27:0.005184 31:4.3e-05 32:4.8e-05 33:0.000331 34:0.001856 37:1.1e-05 38:0.042992 39:0.027275 42:0.004384 43:0.266107 44:0.000549 47:0.022363 48:0.013573 49:1.1e-05 50:5e-06 53:5e-06 54:7.5e-05 55:3.7e-05 58:1.6e-05 59:0.00504 60:0.000437 63:0.005648 64:0.087835 
1 0 1:0.160112 2:0.020411 3:0.052821 4:0.003264 5:0.002763 6:0.038064 7:0.002149 8:1.6e-05 11:0.000208 12:0.000448 17:0.010176 18:0.000416 19:0.000597 20:0.003589 21:0.015205 22:0.070475 23:0.012352 24:0.001141 26:0.001824 27:0.017211 28:0.000987 32:0.000357 33:0.000213 37:0.002507 38:0.011488 39:0.001787 40:1.1e-05 42:0.074784 43:0.273099 44:0.017813 47:0.001627 48:0.021659 54:5e-06 58:0.009387 59:0.022485 60:0.007957 63:0.004795 64:0.135797 
1 0 1:0.286283 2:0.009733 3:0.000245 4:6.4e-05 5:0.013163 6:0.002592 7:9.6e-05 8:1.1e-05 17:0.00136 18:0.001979 19:1.6e-05 20:1.1e-05 21:0.009547 22:0.107643 23:0.013488 24:0.00024 25:0.000165 26:0.054603 27:0.010357 30:4.3e-05 31:0.001152 37:1.1e-05 38:0.003413 39:0.002763 40:2.7e-05 41:0.000512 42:0.053051 43:0.344155 44:0.00664 46:8e-05 47:0.039429 48:0.007429 57:5e-06 59:3.2e-05 60:0.001968 61:9.1e-05 62:0.000213 63:0.000352 64:0.02704 
1 0 1:0.662479 2:0.009201 3:0.000107 5:0.032509 6:0.015556 7:0.006059 8:0.000107 9:4.1e-05 12:2.4e-05 17:0.006527 18:0.000172 19:6e-06 21:0.043053 22:0.04716 23:0.012941 24:0.002018 25:0.009095 26:0.005515 27:0.009757 28:0.019544 31:1.2e-05 32:5.3e-05 33:6e-06 34:1.8e-05 37:0.002456 38:0.000775 39:2.4e-05 40:1.8e-05 41:0.006828 42:0.013657 43:0.023485 44:0.018408 45:1.8e-05 46:6e-06 47:0.000639 48:0.010645 57:0.002533 58:0.00174 59:0.000556 60:0.000166 61:9.5e-05 62:1.2e-05 63:0.001136 64:0.034846 
1 0 1:0.650512 2:0.076064 3:0.000747 5:0.002565 6:0.061621 7:0.013765 11:2.1e-05 17:0.029515 18:0.014784 21:0.012789 22:0.088795 23:0.006443 26:0.000352 27:0.001419 28:1.1e-05 33:4.8e-05 34:1.1e-05 37:0.000411 38:0.003717 39:0.00088 42:0.000315 43:0.017083 44:0.001301 47:0.000139 48:0.002229 50:5e-06 53:8e-05 54:0.000117 55:4.3e-05 57:5e-06 58:0.00024 59:0.000624 60:0.000256 63:0.000165 64:0.012928 
1 0 1:0.127733 2:0.016923 3:0.031904 4:0.008976 5:0.004709 6:0.027611 7:0.001232 8:0.001232 9:1.1e-05 10:0.000709 11:0.001115 12:1.6e-05 17:0.01232 18:0.003413 19:0.006491 20:0.008005 21:0.00656 22:0.081088 23:0.019755 24:0.008091 25:4.3e-05 26:0.009803 27:0.019584 28:0.005568 31:0.000325 32:0.000971 33:9.1e-05 34:2.1e-05 35:2.1e-05 36:1.1e-05 37:0.000736 38:0.009909 39:0.00488 40:0.001099 41:0.000123 42:0.017291 43:0.263077 44:0.018267 45:1.6e-05 46:9.6e-05 47:0.005029 48:0.023579 53:0.000757 54:8.5e-05 55:1.6e-05 56:5e-06 57:0.001333 58:0.028432 59:0.012267 60:0.000896 61:0.000245 62:0.029147 63:0.037413 64:0.140971 
1 0 1:0.129472 2:0.026224 3:8e-05 5:0.002512 6:0.052171 7:0.00296 8:3.2e-05 11:0.000741 12:3.7e-05 17:0.0004 18:0.0008 21:0.000955 22:0.230784 23:0.056917 24:0.001109 26:0.00128 27:0.057157 28:0.005157 32:2.7e-05 38:0.003925 39:0.001851 42:0.007195 43:0.198939 44:0.038197 47:0.000949 48:0.013909 59:0.013408 60:0.001605 63:0.02144 64:0.129765 
1 0 1:0.080688 2:0.008183 3:2.2e-05 5:0.000699 6:0.007333 7:0.001054 8:5e-06 11:0.001151 12:0.003317 16:4.3e-05 17:0.005554 18:0.000812 19:5.9e-05 21:0.001941 22:0.105172 23:0.015032 24:5.9e-05 26:0.001172 27:0.008876 28:0.002973 32:0.001844 33:0.001522 37:0.002527 38:0.011968 39:0.003452 40:6.5e-05 42:0.018446 43:0.192344 44:0.004866 46:5e-06 47:0.000796 48:0.004231 49:1.1e-05 50:5e-06 53:0.004301 54:0.000823 55:5e-06 57:0.000489 58:0.00343 59:0.002226 60:0.000462 62:2.2e-05 63:0.003527 64:0.498489 
1 0 1:0.063312 2:0.020949 3:0.008613 4:0.008448 5:0.000176 6:0.019648 7:0.005563 8:0.004875 10:9.6e-05 11:0.000517 12:0.00032 17:0.059019 18:0.005099 19:0.003701 20:0.089077 21:0.109093 22:0.079072 23:0.037488 24:0.021915 26:0.000683 27:0.020309 28:0.007909 31:5e-06 32:0.000645 35:5e-06 36:4.3e-05 37:0.05584 38:0.112635 39:0.000923 40:0.008795 42:0.001637 43:0.018011 44:0.066427 47:5.9e-05 48:0.033691 54:4.3e-05 55:8.5e-05 56:0.000352 58:0.000155 59:0.002747 60:0.002731 63:0.004443 64:0.124848 
1 0 1:0.186337 2:0.007544 3:0.000254 5:0.018124 6:0.005243 7:0.004538 9:0.000107 10:0.001408 11:0.000249 17:0.008929 18:0.000278 21:0.016325 22:0.024249 23:0.015527 24:0.001189 25:0.000692 26:0.020207 27:0.023864 28:0.00542 31:0.013278 32:0.009059 37:0.000391 38:0.002544 39:0.000479 40:5.9e-05 42:0.004195 43:0.021734 44:0.02113 47:0.012988 48:0.18813 58:7.1e-05 59:0.001396 60:0.000231 62:6e-06 63:0.001521 64:0.382302 
1 0 1:0.307598 2:0.032715 3:0.030907 4:0.010601 5:0.000468 6:0.00191 7:9.6e-05 8:0.000925 10:6e-06 11:1.8e-05 12:1.2e-05 17:0.022138 18:0.002937 19:0.0017 20:0.001183 21:0.004823 22:0.073453 23:0.00976 24:0.002577 25:1.8e-05 26:0.000342 27:0.00376 28:1.8e-05 33:6e-06 37:0.000571 38:0.017748 39:0.006438 40:0.000432 42:0.004114 43:0.076384 44:0.001946 47:0.001153 48:0.005922 54:1.8e-05 55:6e-06 58:0.00048 59:0.012997 60:0.000979 63:0.006012 64:0.356829 
1 0 1:0.080785 2:0.003123 5:0.003104 6:0.136262 7:0.000765 10:0.010857 11:0.005758 17:5.8e-05 18:2.4e-05 21:0.05815 22:0.248789 23:0.068334 26:0.024717 27:0.18954 28:0.000421 37:5e-06 38:0.001448 39:0.000107 42:0.006102 43:0.099879 44:0.024567 47:0.001341 48:0.008131 59:0.005245 60:3.9e-05 63:0.010896 64:0.011554 
1 0 1:0.047544 2:0.000114 5:0.000961 6:0.000228 7:1.8e-05 11:6.6e-05 12:7.2e-05 16:0.000204 17:0.037243 18:4.8e-05 19:6e-06 21:0.050937 22:0.039622 23:0.000138 24:1.2e-05 26:0.001946 27:9.6e-05 28:5.4e-05 32:4.8e-05 33:0.002907 37:0.012961 38:0.031279 39:3.6e-05 40:1.2e-05 42:0.134829 43:0.006384 44:0.000102 47:6e-05 48:4.8e-05 53:3.6e-05 54:1.2e-05 57:1.8e-05 58:0.020565 59:0.014631 60:3e-05 63:0.476847 64:0.119886 
1 0 1:0.11616 2:0.040939 3:2.1e-05 5:0.000107 6:0.012144 7:6.9e-05 17:0.031621 18:0.002053 19:0.000101 21:0.007211 22:0.137424 23:0.042928 24:3.2e-05 26:0.000128 27:0.019211 28:0.00096 33:0.000128 34:1.1e-05 37:7.5e-05 38:0.047376 39:0.003819 42:0.065851 43:0.3608 44:0.046192 47:0.000165 48:0.028037 54:1.6e-05 58:2.1e-05 59:0.016048 60:0.001669 63:0.000981 64:0.017701 
1 0 1:0.155328 2:0.053979 3:0.175099 5:0.000331 6:0.018736 7:0.041232 11:4.3e-05 17:0.000528 18:0.000747 19:0.001131 20:1.1e-05 21:0.000261 22:0.033317 23:0.046144 24:3.7e-05 26:0.000672 27:0.016304 28:5.9e-05 31:5e-06 34:5e-06 37:6.9e-05 38:0.000709 39:0.001259 40:0.000133 42:0.000901 43:0.247253 44:0.154933 47:0.000299 48:0.011099 58:5e-06 59:0.000475 60:0.001045 63:0.00024 64:0.037611 
1 0 1:0.207015 2:0.015964 3:6e-06 5:0.011009 6:0.095568 17:0.019988 18:0.00361 21:0.008931 22:0.094679 23:0.036312 26:0.001213 27:0.03376 28:6e-06 35:6e-06 37:6.6e-05 38:0.003664 39:0.002498 42:0.009754 43:0.452384 44:0.00042 47:8.4e-05 48:9.6e-05 59:0.000559 60:9e-05 63:0.000234 64:0.002084 
1 0 1:0.096245 2:0.003787 5:0.051397 6:0.106709 7:0.000843 10:0.009072 11:0.001264 12:0.000133 15:7.5e-05 16:0.000261 17:0.001515 18:0.00016 19:1.1e-05 21:0.007403 22:0.114656 23:0.002523 24:1.1e-05 26:0.091253 27:0.053557 28:0.001195 31:0.00096 32:0.0012 37:0.000656 38:0.090485 39:5.3e-05 40:5e-06 42:0.0504 43:0.019365 44:0.003035 47:0.004475 48:0.019248 54:0.000133 58:0.008453 59:0.004736 60:5.9e-05 63:0.237728 64:0.016939 
1 0 1:0.098619 2:0.063013 3:0.000197 5:0.09536 6:0.169573 7:0.005952 9:0.012181 10:3.2e-05 11:0.00016 13:1.6e-05 17:0.005072 18:0.001163 19:0.000144 21:0.001899 22:0.049557 23:0.035893 24:5e-06 25:0.013104 26:0.013771 27:0.059376 28:0.000475 29:0.002464 30:0.004107 31:5e-06 32:0.00016 33:0.000581 34:1.6e-05 37:0.003525 38:0.003563 39:0.000779 41:0.000528 42:0.006085 43:0.175936 44:0.001045 45:6.9e-05 46:0.009627 47:0.007957 48:0.012 53:0.001221 54:0.000181 55:2.1e-05 57:0.0016 58:0.001808 59:0.006677 60:9.6e-05 61:0.001472 62:0.001152 63:0.010848 64:0.120912 
1 0 1:0.042708 2:0.00723 5:0.010796 6:0.040013 7:0.002801 17:0.012894 18:0.000429 21:0.006681 22:0.15892 23:0.051712 24:4e-06 26:0.004159 27:0.270655 28:0.001615 38:0.007372 39:0.000642 40:4e-06 42:0.005296 43:0.178783 44:0.08065 47:0.000398 48:0.070438 58:4e-06 59:0.007345 60:0.000208 63:0.000938 64:0.037301 
1 0 1:0.199989 2:0.036368 3:0.000827 5:0.003424 6:0.01368 7:0.003931 8:5e-06 11:5e-06 12:5.3e-05 17:0.00728 18:0.004091 19:0.000101 21:0.004704 22:0.130752 23:0.032421 24:0.000192 26:0.002133 27:0.021216 28:0.003312 32:0.001333 33:5e-06 34:2.7e-05 38:0.006123 39:0.006171 40:0.000251 42:0.003984 43:0.334011 44:0.036875 47:0.00104 48:0.010832 58:0.000155 59:0.039973 60:0.017669 62:3.2e-05 63:0.0076 64:0.069435 
1 0 1:0.345315 2:0.036757 3:0.004402 4:0.000348 5:0.002144 6:0.012919 7:0.00182 8:9.6e-05 10:1.8e-05 12:3.6e-05 17:0.033063 18:0.00194 19:0.000847 20:0.00015 21:0.02564 22:0.094096 23:0.049129 24:0.001868 26:0.000402 27:0.00624 28:0.00191 33:6e-06 37:0.010805 38:0.053556 39:0.007063 40:0.000547 42:0.021574 43:0.082541 44:0.026973 47:0.00015 48:0.003784 54:0.000246 58:0.024408 59:0.046955 60:0.011321 63:0.015123 64:0.075808 
1 0 1:0.227892 2:0.003698 3:0.000852 4:0.000221 5:0.00158 6:0.006771 7:9.7e-05 8:2.7e-05 10:0.000291 11:0.000124 12:0.000156 15:3.2e-05 16:0.000582 17:0.012054 18:0.003057 19:0.000135 20:1.6e-05 21:0.024054 22:0.128248 23:0.00642 24:0.000108 26:0.003369 27:0.011558 28:0.000895 31:0.000615 32:0.001617 33:2.7e-05 37:0.018038 38:0.065391 39:0.001353 40:4.9e-05 41:1.6e-05 42:0.064199 43:0.17173 44:0.007606 46:1.6e-05 47:0.00173 48:0.018679 53:0.000604 54:6.5e-05 57:0.000183 58:0.045984 59:0.016863 60:0.000933 62:0.000146 63:0.02186 64:0.130059 
1 0 1:0.246902 2:0.033184 3:0.000143 5:0.001988 6:0.00618 7:0.001049 17:0.005502 18:0.00498 19:8.2e-05 21:0.016935 22:0.111257 23:0.027208 24:3.3e-05 25:0.000269 26:0.002669 27:0.004037 28:0.000229 31:5.7e-05 37:0.000196 38:0.006004 39:0.023808 40:0.000139 41:0.000543 42:0.024555 43:0.139086 44:0.007735 47:0.000861 48:0.006722 58:0.000637 59:0.018576 60:0.000698 62:1.6e-05 63:0.019955 64:0.287767 
1 0 1:0.638829 2:0.000775 5:0.004631 6:0.002739 7:0.00018 10:3.6e-05 11:0.000486 12:2.4e-05 16:0.000168 17:0.076709 18:0.064673 19:6e-06 21:0.00024 22:0.023664 23:0.000859 26:0.000168 27:0.007916 28:6e-06 32:1.2e-05 33:0.000775 34:0.009976 35:0.001111 37:7.8e-05 38:0.049784 39:0.053568 42:6e-05 43:0.017982 44:0.000577 47:0.00012 48:0.000613 49:6e-06 50:0.000174 51:0.000336 54:0.000252 55:0.010138 59:0.031219 60:0.000318 63:3.6e-05 64:0.000757 
1 0 1:0.614992 2:0.071675 3:0.00768 4:0.000709 5:0.000261 6:0.020496 7:0.020613 8:0.000389 11:5.9e-05 12:0.000139 16:1.1e-05 17:2.7e-05 18:0.000139 19:0.000213 20:8e-05 21:0.000123 22:0.02592 23:0.031792 24:0.001925 26:0.000128 27:0.023467 28:0.027227 39:5.3e-05 42:3.7e-05 43:0.006864 44:0.077419 47:0.000299 48:0.057664 60:1.6e-05 63:3.7e-05 64:0.009547 
1 0 1:0.638949 2:0.055051 3:0.00024 5:0.008384 6:0.130492 7:6.6e-05 8:6e-06 17:9e-05 18:6.6e-05 21:0.00021 22:0.096162 23:0.005976 24:6e-06 26:0.0003 27:0.011634 42:1.8e-05 43:0.045874 44:0.005718 48:0.000751 64:6e-06 
1 0 1:0.106251 2:0.002406 3:2.4e-05 5:0.012519 6:0.03317 7:4.8e-05 10:0.003684 11:0.001158 17:0.012955 18:0.000806 21:0.021081 22:0.181606 23:0.029116 24:0.000281 26:0.00923 27:0.047922 28:0.007606 31:4.2e-05 32:6e-06 37:3e-05 38:0.009021 39:0.000597 42:0.00477 43:0.116991 44:0.022 47:0.000591 48:0.012269 58:6e-06 59:0.005815 60:6.6e-05 63:0.112006 64:0.245928 
1 0 1:0.03429 2:0.013929 3:0.004279 4:0.000437 5:0.000803 6:0.006858 7:0.026694 8:0.004923 10:0.000322 11:0.002322 12:0.00165 15:0.000344 16:9.3e-05 17:0.008699 18:0.000448 19:0.00041 20:0.00023 21:0.000689 22:0.010989 23:0.043301 24:0.00265 26:0.000934 27:0.188443 28:0.07018 31:5e-06 32:0.000388 33:0.000257 34:5e-06 35:5e-06 37:0.000803 38:0.004383 39:0.000492 40:0.000388 42:0.036557 43:0.10971 44:0.008377 47:0.00029 48:0.004027 58:0.000672 59:0.210923 60:0.000552 63:0.168601 64:0.029645 
1 0 1:0.044835 2:0.018913 3:0.00024 4:4.2e-05 5:0.00045 6:0.021604 7:0.001309 8:6e-06 17:0.007405 18:0.000553 21:0.000517 22:0.015994 23:0.069736 24:6e-05 26:4.8e-05 27:0.128607 28:0.000775 37:9e-05 38:0.01576 39:0.000727 40:6e-06 42:0.07633 43:0.45985 44:0.03364 47:1.2e-05 48:0.000967 58:7.2e-05 59:0.099441 60:0.000282 63:0.00027 64:0.001459 
1 0 1:0.184589 2:0.073718 3:1.8e-05 5:0.000583 6:0.053345 7:0.000529 17:0.024168 18:0.002745 21:0.005183 22:0.181628 23:0.003778 24:1.2e-05 26:0.000402 27:0.002793 38:0.013351 39:0.001063 42:0.005417 43:0.14842 44:0.002985 47:9e-05 48:0.003465 59:0.028949 60:0.000595 63:0.005928 64:0.256246 
1 0 1:0.204802 2:0.017021 3:0.00155 4:0.000274 5:0.001125 6:0.015131 7:0.00341 8:2.4e-05 9:7.9e-05 10:0.000128 11:0.000705 12:0.00028 16:7.3e-05 17:0.014729 18:0.005216 19:0.000511 20:0.000334 21:0.007739 22:0.115982 23:0.099459 24:0.001271 25:2.4e-05 26:0.000784 27:0.067404 28:0.007112 30:1.2e-05 31:0.000128 32:0.000979 33:6.7e-05 34:3e-05 36:6e-06 37:0.005422 38:0.044875 39:0.004754 40:0.000304 41:2.4e-05 42:0.011009 43:0.104438 44:0.01938 47:0.000328 48:0.005362 53:5.5e-05 54:0.006809 55:3e-05 57:2.4e-05 58:0.069191 59:0.062815 60:0.00566 62:1.8e-05 63:0.01031 64:0.082802 
1 0 1:0.226287 2:0.041904 3:3.2e-05 5:0.002032 6:0.063585 7:0.000191 11:0.00016 17:0.00317 18:0.000984 19:1.1e-05 21:0.000798 22:0.353165 23:0.029947 26:0.000633 27:0.030761 28:2.7e-05 38:0.001005 39:0.000202 42:0.000431 43:0.096138 44:0.000867 47:0.000473 48:0.003234 59:0.000452 60:8e-05 63:9.6e-05 64:0.143335 
1 0 1:0.336256 2:0.027408 3:0.000363 5:0.011205 6:0.06032 7:0.005733 8:0.004597 10:6.9e-05 11:0.000661 12:0.001659 16:1.1e-05 17:0.011141 18:0.004155 19:3.7e-05 21:0.007792 22:0.101392 23:0.050773 24:0.003541 26:0.001243 27:0.029045 28:0.010464 31:1.6e-05 32:0.000171 33:1.1e-05 37:0.003003 38:0.005883 39:0.00432 41:0.003195 42:0.008987 43:0.097536 44:0.023419 46:1.1e-05 47:0.00056 48:0.004 53:2.7e-05 54:3.2e-05 57:0.00704 58:0.014181 59:0.013856 60:0.003317 61:0.00304 62:0.019216 63:0.064048 64:0.056267 
1 0 1:0.174072 2:0.062 3:0.000505 4:0.000685 5:0.011219 6:0.027892 7:0.00039 8:0.000126 17:0.011592 18:0.002961 19:7.2e-05 20:0.000234 21:0.031706 22:0.426973 23:0.020234 24:0.001267 26:0.000505 27:0.010198 28:0.000342 33:6e-06 37:0.004901 38:0.041916 39:0.000673 40:3.6e-05 41:0.001231 42:0.074769 43:0.079556 44:0.000637 47:0.000126 48:0.000324 59:0.000727 60:3e-05 63:0.000823 64:0.011273 
1 0 1:0.158203 2:0.011344 3:0.000555 4:5e-06 5:0.027808 6:0.035013 7:0.000768 9:1.1e-05 10:0.001461 11:2.1e-05 17:0.02904 18:0.00528 19:0.001931 20:0.001125 21:0.01728 22:0.164565 23:0.053813 24:0.000245 25:3.2e-05 26:0.010677 27:0.013488 28:0.000128 31:0.000117 32:1.6e-05 34:5e-06 35:4.8e-05 36:4.3e-05 37:7.5e-05 38:0.040549 39:0.003477 40:0.000197 41:7.5e-05 42:0.027376 43:0.182341 44:0.038555 45:4.3e-05 46:0.000277 47:0.002101 48:0.002112 53:5e-06 54:3.7e-05 55:0.000101 56:5e-06 58:0.006165 59:0.052555 60:0.012704 62:0.000432 63:0.029557 64:0.068235 
1 0 1:0.184847 2:0.047742 5:0.017099 6:0.138511 7:0.002342 10:3e-05 11:1.8e-05 17:1.8e-05 18:0.000252 21:3.6e-05 22:0.14818 23:0.113345 26:0.001694 27:0.071321 28:1.8e-05 34:7.8e-05 35:7.2e-05 38:7.8e-05 39:0.000396 42:0.000505 43:0.174114 44:0.010805 47:0.000781 48:0.007778 55:4.2e-05 59:0.023916 60:0.000132 63:0.010961 64:0.044889 
1 0 1:0.095621 2:0.009296 5:0.000293 6:0.052965 7:0.008645 17:0.002571 18:0.000203 21:0.003616 22:0.241984 23:0.118464 26:0.003333 27:0.095307 33:1.1e-05 37:1.1e-05 38:0.007669 39:4.8e-05 42:0.042192 43:0.162741 44:0.000251 47:9.6e-05 48:2.1e-05 54:1.1e-05 58:0.000315 59:0.143925 60:5e-06 63:0.007664 64:0.002741 
1 0 1:0.365744 2:0.011472 5:0.005371 6:0.074384 7:5e-06 10:1.1e-05 17:1.1e-05 21:0.000224 22:0.055899 23:0.010405 26:0.000256 27:0.021813 43:0.055051 44:0.023504 47:0.000107 48:0.131573 64:0.244171 
1 0 1:0.043975 2:0.00364 3:7e-05 4:0.00012 5:8.5e-05 6:0.00248 7:0.00019 8:0.000365 11:3.5e-05 12:5.5e-05 16:3e-05 17:0.013825 18:0.000685 19:8e-05 20:6.5e-05 21:0.009955 22:0.025685 23:0.00593 24:0.001055 26:0.00022 27:0.00315 28:0.00033 32:0.00016 33:0.00524 37:0.037145 38:0.10755 39:0.000815 40:0.00022 41:5e-06 42:0.24029 43:0.068445 44:0.003285 46:2e-05 47:0.000165 48:0.00068 53:9e-05 54:9e-05 57:0.000105 58:0.00825 59:0.319435 60:0.00048 61:2.5e-05 62:6.5e-05 63:0.039045 64:0.05637 
1 0 1:0.204256 2:0.02632 3:0.00056 4:5.3e-05 5:0.00328 6:0.009328 7:0.006475 8:8.5e-05 9:5e-06 10:5e-06 11:0.000187 12:0.000224 17:0.031195 18:0.006517 19:0.001824 20:8.5e-05 21:0.031227 22:0.200144 23:0.026597 24:0.002405 25:0.000176 26:0.020192 27:0.017835 28:0.004133 30:0.005749 31:4.3e-05 32:0.000123 33:9.1e-05 35:1.1e-05 36:1.1e-05 37:0.002832 38:0.055707 39:0.004235 40:0.000336 41:0.000245 42:0.021877 43:0.112453 44:0.031147 46:0.000128 47:0.001664 48:0.024592 54:2.1e-05 56:1.1e-05 58:0.00088 59:0.011424 60:0.001995 62:0.000501 63:0.008965 64:0.121851 
1 0 1:0.176276 2:0.069676 3:0.034529 5:0.012 6:0.041471 7:5.4e-05 17:0.001556 18:0.000649 19:0.001051 21:0.008258 22:0.22955 23:0.007862 26:0.004985 27:0.000739 38:0.006246 39:0.000456 42:0.024372 43:0.378144 44:4.2e-05 47:0.000114 48:5.4e-05 59:0.000156 63:0.000408 64:0.001351 
1 0 1:0.291243 2:0.016474 5:0.005441 6:0.009958 7:5.4e-05 8:6e-06 17:0.003688 18:3.6e-05 21:0.007916 22:0.093129 23:0.002871 24:1.8e-05 26:0.008775 27:0.012438 28:3e-05 38:0.002294 39:1.8e-05 42:0.02361 43:0.295243 44:0.003183 47:0.003021 48:0.005508 58:4.2e-05 59:0.084859 60:3e-05 63:0.067826 64:0.062288 
1 0 1:0.295429 22:0.390023 43:0.176851 64:0.137697 
1 0 1:0.260794 2:0.01997 3:0.034621 4:0.003242 5:0.00071 6:0.00443 7:0.002113 8:0.000615 10:1.2e-05 11:6.6e-05 12:6e-06 15:6e-06 17:0.10289 18:0.000878 19:0.001212 20:0.000131 21:0.182048 22:0.066203 23:0.007504 24:0.001355 26:0.0004 27:0.00523 28:0.001869 31:1.8e-05 32:7.8e-05 33:4.8e-05 34:6e-06 37:0.025922 38:0.082358 39:0.000293 40:5.4e-05 41:1.8e-05 42:0.043427 43:0.036036 44:0.010018 47:0.000167 48:0.009546 58:0.002543 59:0.01649 60:0.000627 63:0.008573 64:0.067475 
1 0 1:0.048705 2:0.00038 5:0.004952 6:0.079355 7:0.000289 10:0.003331 11:1.2e-05 17:0.000151 18:6e-06 21:0.001566 22:0.043157 23:0.000867 26:0.081976 27:0.248994 28:9.6e-05 31:0.00012 38:0.000494 42:0.012663 43:0.032241 44:0.000163 47:0.002639 48:0.001108 58:3.6e-05 59:0.0525 63:0.379765 64:0.004434 
1 0 1:0.192048 2:0.001712 5:0.013781 6:0.013472 7:0.000101 9:5e-06 10:0.000475 11:0.001675 12:0.000149 15:6.4e-05 16:0.000336 17:0.017952 18:0.001957 21:0.017632 22:0.301979 23:0.002411 26:0.004709 27:0.012336 28:0.000683 31:0.000155 32:0.000981 33:0.024581 34:0.001563 37:0.006688 38:0.025957 39:0.012181 42:0.003829 43:0.145979 44:0.001968 47:0.001664 48:0.00768 49:0.001083 50:0.000901 53:9.1e-05 54:0.005611 55:0.00248 58:0.000181 59:0.008155 60:0.01528 63:0.000512 64:0.149003 
1 0 1:0.166997 2:0.003707 3:0.001845 4:0.000133 5:6.4e-05 6:0.009451 7:0.018683 8:0.001547 11:0.003861 12:0.007035 15:5e-06 16:0.029179 17:0.032624 18:0.003712 19:4.8e-05 20:5e-06 21:0.004672 22:0.044256 23:0.001877 24:0.000101 26:6.4e-05 27:0.001029 28:0.000736 32:0.005872 34:5e-06 37:0.000133 38:0.021952 39:0.015579 40:5e-06 42:0.002544 43:0.59744 44:0.000715 47:9.1e-05 48:0.001451 54:5e-06 55:5e-06 58:0.000107 59:0.010651 60:0.001093 63:0.000432 64:0.010288 
1 0 1:0.187453 2:0.027101 3:1.7e-05 5:0.000609 6:0.035619 7:0.000277 17:0.004903 18:0.001851 19:1.7e-05 21:0.00976 22:0.498646 23:0.031706 24:0.000302 26:0.000936 27:0.024398 28:0.00024 37:7e-05 38:0.008923 39:0.000791 40:9.1e-05 41:4e-06 42:0.008385 43:0.091723 44:0.021988 47:0.000588 48:0.010911 50:4e-06 54:3.3e-05 55:6.6e-05 58:9.5e-05 59:0.001971 60:0.000277 63:0.001329 64:0.028915 
1 0 1:0.000907 2:0.002132 3:3.6e-05 6:0.005147 11:6e-06 18:0.000276 19:0.001201 20:0.000252 22:0.029015 23:0.09821 24:0.006474 26:5.4e-05 27:0.067327 28:0.000456 32:0.000102 39:0.000559 40:0.019171 43:0.028084 44:0.07582 47:1.8e-05 48:0.128054 60:0.006366 64:0.53033 
1 0 1:0.278563 22:0.345718 43:0.184789 64:0.19093 
1 0 1:0.095779 2:0.004274 3:1.4e-05 5:0.005201 6:0.011476 7:0.000774 8:4.2e-05 10:2.8e-05 11:0.001004 12:0.000265 16:9.1e-05 17:0.00396 18:0.00076 21:0.0073 22:0.181811 23:0.011811 26:0.014063 27:0.071487 28:0.004448 31:0.00039 32:0.008625 38:0.000112 39:2.1e-05 42:0.003814 43:0.082497 44:0.009768 47:0.004448 48:0.04129 58:1.4e-05 59:0.010159 63:0.024529 64:0.399745 
1 0 1:0.165888 2:0.011248 3:0.001755 4:0.000165 5:0.00224 6:0.007984 7:0.002613 8:9.1e-05 9:5e-06 11:0.001301 12:0.000379 17:0.0292 18:0.004373 19:2.1e-05 20:2.1e-05 21:0.021237 22:0.284811 23:0.015488 24:0.000149 26:0.001221 27:0.007648 28:0.002528 32:6.9e-05 33:5.9e-05 37:0.000208 38:0.104944 39:0.001003 40:1.1e-05 42:0.028635 43:0.143147 44:0.005968 47:0.000171 48:0.000373 58:0.000368 59:0.044736 60:0.000171 63:0.041413 64:0.068357 
1 0 1:0.727509 2:0.000587 5:0.156507 6:0.000619 7:5e-06 9:0.00296 17:0.00032 18:0.000347 21:0.062987 22:0.005616 25:0.018165 26:0.021685 27:2.7e-05 41:0.000325 42:0.001659 43:2.1e-05 45:5e-06 46:0.000224 47:0.000309 61:5e-06 62:1.1e-05 63:0.000107 
1 0 1:0.734887 2:0.035377 3:0.012813 4:0.012137 5:0.000955 6:0.004185 7:0.001404 8:0.00019 17:0.004016 18:0.015314 19:0.001768 20:0.00457 21:0.000412 22:0.05352 23:0.023319 24:0.016016 26:3.7e-05 27:0.000596 28:0.001504 38:5.3e-05 39:0.00104 40:0.003609 42:2.1e-05 43:0.003694 44:0.020628 48:0.004522 59:2.6e-05 60:0.002712 63:5e-06 64:0.04067 
1 0 1:0.061904 2:0.027803 5:5.9e-05 6:0.1416 7:0.023845 17:0.001029 18:0.000133 21:0.000933 22:0.060149 23:0.1028 26:0.009424 27:0.084357 28:0.000181 31:3.2e-05 38:0.000896 39:0.000597 42:0.002955 43:0.06616 44:0.050576 47:0.043088 48:0.208523 59:0.00048 60:0.000107 63:0.012283 64:0.100085 
1 0 1:0.145066 2:0.035524 3:0.000342 5:0.003835 6:0.012923 7:0.000192 10:0.000336 11:4.1e-05 15:8.2e-05 16:7e-06 17:0.015868 18:0.006321 19:0.000705 21:0.00491 22:0.142519 23:0.010684 24:1.4e-05 26:0.011122 27:0.026086 28:0.00013 31:0.000281 32:0.00013 33:0.000753 37:0.003835 38:0.013444 39:0.002602 42:0.009026 43:0.320027 44:0.003678 47:0.00867 48:0.014012 59:0.009287 60:0.001383 63:0.006691 64:0.189472 
1 0 1:0.785225 2:0.021781 3:0.005639 4:0.001692 5:5.9e-05 6:0.004059 7:0.004787 8:0.000527 11:0.000609 12:0.000479 17:0.007704 18:0.001923 19:2.4e-05 20:7.7e-05 21:0.000426 22:0.01384 23:0.005716 24:0.00126 26:0.000172 27:0.005231 28:0.00358 32:0.000627 33:1.2e-05 34:6e-06 37:2.4e-05 38:0.000923 39:0.000207 40:0.000107 42:0.000237 43:0.007361 44:0.003438 47:0.000308 48:0.010077 59:0.000905 60:0.000148 63:0.000373 64:0.110438 
1 0 1:0.170587 2:0.056048 3:0.001936 5:0.002341 6:0.034955 7:0.001664 11:6.9e-05 12:2.1e-05 17:0.001179 18:0.005947 19:1.1e-05 21:0.000971 22:0.2832 23:0.015221 26:0.001205 27:0.003877 28:1.6e-05 31:5e-06 37:7.5e-05 38:0.004512 39:0.004597 42:0.002064 43:0.298091 44:0.000896 47:0.000304 48:0.000832 53:2.7e-05 58:5e-06 59:0.096224 60:0.004416 63:0.001461 64:0.007243 
1 0 1:0.072729 2:0.008972 5:0.002012 6:0.045676 7:0.000168 17:0.000555 18:0.000131 21:0.007975 22:0.359246 23:0.005196 26:0.002723 27:0.005383 28:0.000112 31:6e-06 38:0.222885 39:6.2e-05 42:0.240355 43:0.020324 44:0.001283 47:5e-05 48:0.001844 58:0.000212 59:0.000555 63:4.4e-05 64:0.001502 
1 0 1:0.025707 2:0.001131 3:2.7e-05 5:0.026853 6:0.042533 7:2.1e-05 10:0.008891 11:0.000427 17:0.00432 18:0.000784 19:0.000203 20:2.7e-05 21:0.004965 22:0.055867 23:0.002309 24:2.1e-05 25:1.1e-05 26:0.034912 27:0.091947 28:6.4e-05 31:0.03656 32:0.000992 35:2.1e-05 36:0.000149 37:0.001712 38:0.013024 39:0.000731 40:0.001413 41:2.1e-05 42:0.005787 43:0.047051 44:0.003189 46:2.7e-05 47:0.055403 48:0.133157 54:2.7e-05 56:0.001659 58:0.000976 59:0.014965 60:0.001307 62:0.000117 63:0.068795 64:0.311899 
1 0 1:0.670953 2:0.026471 5:0.000184 6:0.026908 7:0.000918 17:0.008189 18:3e-05 21:0.006169 22:0.034263 23:0.011107 26:0.000323 27:0.020581 38:0.000179 42:0.000308 43:0.042387 44:0.012139 47:0.000506 48:0.054769 59:3.5e-05 63:9.9e-05 64:0.083484 
1 0 1:0.137483 2:0.049701 3:0.000619 5:0.000459 6:0.046693 7:0.001072 17:0.027349 18:0.00504 19:5e-06 21:0.015819 22:0.318315 23:0.035867 24:3.2e-05 26:0.000187 27:0.018651 28:0.000368 37:1.6e-05 38:0.008811 39:0.001504 41:2.7e-05 42:0.010325 43:0.085728 44:0.006331 47:3.2e-05 48:0.004048 58:2.7e-05 59:0.035653 60:0.000123 63:0.016379 64:0.173339 
1 0 1:0.047221 2:0.001952 5:0.001248 6:0.002069 7:0.000139 11:3.2e-05 12:5e-06 17:0.00472 18:0.001627 21:0.006512 22:0.075717 23:0.018907 24:0.000123 26:0.004997 27:0.008133 28:0.0016 32:0.000128 33:5e-06 34:1.1e-05 37:4.8e-05 38:0.008912 39:0.001269 40:5.3e-05 42:0.030437 43:0.338565 44:0.011952 47:0.002245 48:0.007392 54:1.1e-05 58:0.000245 59:0.052197 60:0.000773 62:1.1e-05 63:0.061728 64:0.309013 
1 0 1:0.29896 2:0.028304 5:0.013552 6:0.027648 7:1.1e-05 10:5.9e-05 11:5e-06 17:0.001349 18:0.000496 19:5e-06 21:0.048389 22:0.132117 23:0.038907 25:0.002325 26:0.001899 27:0.023579 28:5e-06 37:0.000624 38:0.002971 39:0.000779 41:0.002619 42:0.004864 43:0.163595 44:0.008587 46:1.1e-05 47:0.003952 48:0.023611 58:4.3e-05 59:0.042395 60:0.001605 62:5e-06 63:0.010608 64:0.116123 
1 0 1:0.233351 2:0.0597 3:3e-05 5:2.4e-05 6:0.030565 7:0.002126 17:0.012793 18:0.0117 19:6e-06 21:0.136204 22:0.152162 23:0.069898 27:0.007345 37:0.159952 38:0.024607 39:0.009345 41:0.000697 42:0.003381 43:0.047333 44:0.012114 47:6e-06 48:0.002228 53:4.2e-05 57:4.2e-05 58:6.6e-05 59:0.001934 60:0.000547 63:0.000126 64:0.021676 
1 0 1:0.301952 2:0.010637 3:0.00027 4:6e-06 5:0.006294 6:0.008709 7:0.000348 8:0.000108 10:6e-05 11:1.8e-05 12:1.8e-05 17:0.014703 18:0.001982 19:0.000396 20:6.6e-05 21:0.012324 22:0.068613 23:0.059129 24:0.000517 25:0.00033 26:0.003261 27:0.009508 28:0.000637 32:0.000102 33:0.000312 34:0.000348 35:0.000282 36:1.8e-05 37:0.001562 38:0.017177 39:0.001393 40:0.001165 41:0.000871 42:0.007135 43:0.066625 44:0.012426 45:1.2e-05 47:0.000973 48:0.010691 49:6e-06 50:1.8e-05 51:6e-05 52:1.8e-05 53:7.2e-05 54:0.000631 55:0.000276 56:0.000132 57:0.000126 58:0.002625 59:0.011471 60:0.004505 62:0.000216 63:0.044192 64:0.314673 
1 0 1:0.183718 2:0.020306 3:0.000787 4:0.001231 5:0.000426 6:0.035405 7:0.005039 8:4.2e-05 11:7.2e-05 12:7.8e-05 17:0.016895 18:0.000288 19:1.2e-05 21:0.003423 22:0.133285 23:0.041417 24:0.000198 26:0.001147 27:0.098252 28:0.003748 32:2.4e-05 33:0.03621 37:0.036102 38:0.011243 39:0.000174 41:3e-05 42:0.177802 43:0.085447 44:0.008204 47:0.000426 48:0.006853 53:7.8e-05 57:3.6e-05 58:0.051928 59:0.027285 60:5.4e-05 63:0.000757 64:0.011574 
1 0 1:0.134321 2:0.003712 5:0.001968 6:0.013013 7:0.000218 17:0.004269 18:0.0015 21:0.002596 22:0.135038 23:0.009071 26:0.004635 27:0.041494 28:3.2e-05 37:1.9e-05 38:0.00375 39:0.000968 42:0.005019 43:0.368949 44:0.006519 47:0.008038 48:0.031212 58:3.2e-05 59:0.019 60:0.003705 63:0.015269 64:0.185654 
1 0 1:0.041313 2:0.043244 3:0.003033 5:0.000785 6:0.026244 7:0.045256 8:0.004894 11:5.3e-05 12:0.01176 17:0.003435 18:0.001407 21:0.007451 22:0.499008 23:0.009963 24:2e-05 26:0.000711 27:0.003553 28:0.02302 38:0.030992 39:0.002366 42:0.044573 43:0.187016 44:0.000715 47:0.000175 48:0.000589 59:0.000675 60:8e-06 63:0.000715 64:0.007024 
1 0 1:0.068859 2:0.043179 3:0.072629 4:0.033829 5:0.001728 6:0.020373 7:0.008875 8:0.005632 10:4.3e-05 11:0.00024 12:3.2e-05 17:0.024043 18:0.002821 19:0.000155 20:2.1e-05 21:0.016869 22:0.075643 23:0.041893 24:0.009051 26:0.00176 27:0.025045 28:0.025147 32:5e-06 33:0.000181 37:0.007952 38:0.007099 39:0.000965 40:0.000107 41:3.2e-05 42:0.008293 43:0.080389 44:0.031792 46:5e-06 47:0.003125 48:0.011333 49:5e-06 53:0.000581 54:0.000235 55:5.9e-05 57:4.3e-05 58:0.003419 59:0.016027 60:0.001227 62:5.9e-05 63:0.138203 64:0.210997 
1 0 1:0.243133 2:0.091033 3:0.001158 5:0.000258 6:0.008825 7:0.000525 17:0.000425 18:0.00075 19:0.000275 20:3.3e-05 21:0.000767 22:0.068533 23:0.026158 24:3.3e-05 26:0.000642 27:0.002967 37:9.2e-05 38:0.001608 39:0.001833 40:1.7e-05 42:0.002783 43:0.052408 44:0.001283 47:0.002742 48:0.000392 59:0.005525 60:0.000333 63:0.018883 64:0.466583 
1 0 1:0.262907 2:0.007393 3:0.000811 4:0.000541 5:0.001171 6:0.008288 7:0.000817 8:1.2e-05 11:0.000444 12:0.001742 16:0.000132 17:0.040979 18:0.002595 19:6e-05 20:5.4e-05 21:0.087321 22:0.213459 23:0.008492 24:0.00015 25:0.000643 26:0.005237 27:0.008547 28:0.009459 32:0.000655 37:0.029598 38:0.016841 39:0.000709 40:1.8e-05 41:0.001147 42:0.09567 43:0.166865 44:0.001117 46:0.000192 47:0.003327 48:0.001105 53:4.8e-05 54:0.00021 58:0.000342 59:0.002523 60:0.000198 62:0.000186 63:0.002036 64:0.015958 
1 0 1:0.184875 2:0.001899 3:0.000293 4:0.000581 5:0.018133 6:0.025061 7:0.000565 8:0.001632 10:0.000395 11:3.2e-05 12:1.1e-05 17:0.007648 18:0.000272 19:5e-06 20:3.2e-05 21:0.035563 22:0.195664 23:0.005696 24:0.003195 26:0.006059 27:0.023984 28:0.002267 31:5.9e-05 32:1.1e-05 37:1.1e-05 38:0.007605 39:0.000133 40:0.000139 42:0.013989 43:0.233701 44:0.004949 47:0.003755 48:0.006315 58:0.000107 59:0.024272 60:0.000341 63:0.024677 64:0.166075 
1 0 1:0.250789 2:0.017619 5:0.00434 6:0.048286 7:1.4e-05 12:0.000136 16:2.7e-05 17:0.00117 18:0.000966 21:0.001497 22:0.243469 23:0.020803 26:0.007673 27:0.020762 28:6.8e-05 32:1.4e-05 38:0.004095 39:0.001211 42:0.008122 43:0.211048 44:0.021551 47:0.00302 48:0.008707 59:0.013088 60:0.002966 63:0.004667 64:0.103891 
1 0 1:0.874426 2:0.06842 5:0.000162 6:0.024577 7:0.009201 11:0.003706 12:0.016318 17:8.4e-05 21:0.000162 22:0.002901 23:1.8e-05 27:1.8e-05 64:6e-06 
1 0 1:0.153604 2:0.012817 3:0.004967 4:0.000763 5:0.001075 6:0.009435 7:0.002871 8:0.001099 10:4.8e-05 11:0.007471 12:0.000108 15:0.00018 16:5.4e-05 17:0.011357 18:0.000637 19:0.000102 20:1.8e-05 21:0.009694 22:0.076691 23:0.01033 24:0.006294 26:0.001105 27:0.015093 28:0.004697 31:0.000366 32:0.00215 33:5.4e-05 34:1.8e-05 37:0.000709 38:0.007652 39:0.000853 40:3.6e-05 42:0.004631 43:0.138414 44:0.007213 47:0.002859 48:0.008793 53:6e-06 54:3.6e-05 58:0.00048 59:0.007189 60:0.000691 63:0.007423 64:0.479916 
1 0 1:0.329467 2:0.03512 3:0.00216 4:7e-06 5:0.00046 6:0.004373 7:0.00042 8:0.00052 10:1.3e-05 12:2e-05 17:0.008267 18:0.001587 19:1.3e-05 21:0.00558 22:0.092653 23:0.01408 24:0.00062 26:0.002747 27:0.0357 28:0.000853 32:4.7e-05 33:1.3e-05 37:0.001287 38:0.004473 39:0.00032 40:7e-06 41:0.000413 42:0.00344 43:0.332893 44:0.00778 47:0.0011 48:0.01298 57:0.000187 58:0.000133 59:0.001847 60:8e-05 61:0.0001 62:0.00018 63:0.002187 64:0.095873 
1 0 1:0.1596 2:0.053104 3:0.002779 4:0.00184 5:0.001152 6:0.02544 7:0.021157 8:0.000624 9:0.000229 10:0.000171 11:0.000379 12:0.000469 16:1.1e-05 17:0.006299 18:0.001696 19:0.000203 20:0.000432 21:0.002869 22:0.094016 23:0.036816 24:0.000613 25:2.1e-05 26:0.010219 27:0.060507 28:0.002064 30:2.1e-05 31:2.7e-05 32:0.000107 33:0.000405 34:2.1e-05 36:4.3e-05 37:0.001445 38:0.004464 39:0.001435 40:0.000341 41:0.000197 42:0.002491 43:0.375371 44:0.019349 46:5e-06 47:0.014667 48:0.011909 49:2.1e-05 50:5e-06 53:4.3e-05 54:8.5e-05 57:0.000144 58:0.000347 59:0.004325 60:0.001365 62:8.5e-05 63:0.003093 64:0.075477 
1 0 1:0.27992 2:0.023253 3:0.003595 4:0.000496 5:0.000208 6:0.019061 7:0.007035 8:0.000997 11:2.1e-05 12:0.000469 16:5e-06 17:0.013829 18:0.000203 21:0.040512 22:0.117675 23:0.01784 24:0.005195 26:0.000261 27:0.006704 28:0.031632 32:5e-06 37:0.00336 38:0.075621 39:0.000181 42:0.151253 43:0.028069 44:0.014795 47:3.2e-05 48:0.022581 58:0.055392 59:0.011888 60:0.000171 63:0.001243 64:0.066496 
1 0 1:0.056891 2:0.000725 5:0.014832 6:0.004357 7:6.4e-05 9:0.000197 10:0.001851 11:0.000224 14:5e-06 15:9.1e-05 16:1.1e-05 17:0.012741 18:0.000208 21:0.102688 22:0.093547 23:0.000832 25:4.3e-05 26:0.012725 27:0.005184 28:0.000592 30:2.7e-05 31:0.000144 32:0.000123 33:0.000171 37:0.022032 38:0.162533 39:0.000112 41:2.7e-05 42:0.199797 43:0.088821 44:0.003003 46:5e-06 47:0.003349 48:0.004176 54:5.3e-05 57:1.1e-05 58:0.014885 59:0.079328 60:0.000224 62:2.1e-05 63:0.051013 64:0.062336 
1 0 1:0.691033 2:0.043748 3:0.014114 4:0.000733 5:0.001327 6:0.040468 7:0.005291 8:6e-06 11:0.000168 17:0.014793 18:0.003087 19:0.000162 20:2.4e-05 21:0.020264 22:0.061862 23:0.051892 24:0.00021 26:0.000613 27:0.006042 28:9e-05 35:1.8e-05 37:7.2e-05 38:0.001345 39:0.003327 40:0.000192 42:0.001916 43:0.0303 44:0.000547 47:0.000354 48:0.00021 56:6e-06 59:0.000571 60:0.000949 63:0.001255 64:0.003009 
1 0 1:0.052613 2:0.006832 5:0.005424 6:0.020491 17:0.009381 18:0.002107 21:0.005013 22:0.331077 23:0.027056 24:2.1e-05 26:0.016053 27:0.027008 28:9.6e-05 37:0.000496 38:0.01496 39:0.001963 40:1.1e-05 42:0.008256 43:0.195461 44:0.030992 47:0.000747 48:0.036373 53:0.001872 54:0.000203 57:0.000336 58:0.001845 59:0.013275 60:0.000832 62:0.00432 63:0.032768 64:0.152117 
1 0 1:0.634925 2:0.013784 3:0.005465 4:0.00191 5:0.003664 6:0.009604 7:0.00167 8:6e-05 11:0.000168 12:0.00012 17:0.013105 18:0.000661 19:0.00015 20:4.8e-05 21:0.024102 22:0.130438 23:0.002685 24:0.000114 26:0.000108 27:0.00042 28:0.00039 32:4.2e-05 38:0.009784 39:0.004342 42:0.00433 43:0.053213 44:7.8e-05 47:0.000108 48:9e-05 59:0.022589 60:9e-05 63:0.017784 64:0.043958 
1 0 1:0.039824 2:0.020925 3:5e-06 5:0.000171 6:0.011043 7:9.6e-05 11:3.7e-05 17:0.003251 18:0.007861 21:0.212626 22:0.313476 23:0.046738 26:0.000214 27:0.028722 28:1.6e-05 38:0.044086 39:0.000128 42:0.073187 43:0.155064 44:0.000246 47:0.000155 48:0.000471 59:0.007813 60:5e-06 63:0.007749 64:0.026091 
1 0 1:0.15366 2:0.051088 3:0.000865 4:0.000292 5:0.005231 6:0.015469 7:0.000674 8:0.000191 11:1.1e-05 17:0.006042 18:0.009576 19:0.000318 20:8.5e-05 21:0.010918 22:0.262414 23:0.00366 24:5.3e-05 26:0.005883 27:0.003592 28:4.8e-05 33:2.7e-05 34:3.2e-05 35:5e-06 36:2.7e-05 37:0.001772 38:0.130218 39:0.065135 40:0.000122 41:0.000117 42:0.015915 43:0.189708 44:0.001618 47:0.002568 48:0.002074 50:5e-06 53:0.001135 54:9.5e-05 55:4.8e-05 56:5e-06 57:0.002133 58:0.002732 59:0.00844 60:0.002064 62:5e-06 63:0.00495 64:0.038981 
1 0 1:0.261915 2:0.006622 5:0.000383 6:0.027713 7:0.000367 11:1.1e-05 22:0.03534 23:0.005282 26:0.000814 27:0.100356 28:0.018303 32:2.1e-05 43:0.225112 44:0.14733 47:0.004239 48:0.166128 64:6.4e-05 
1 0 1:0.144023 2:0.034691 3:7.7e-05 5:0.002479 6:0.068361 7:0.006713 17:0.005503 18:0.000348 21:0.013368 22:0.13665 23:0.101214 24:0.000104 26:0.004221 27:0.079074 28:0.000673 37:0.00353 38:0.001038 39:1.4e-05 41:5e-06 42:0.018605 43:0.330014 44:0.007544 47:0.00558 48:0.005779 59:0.000962 60:9e-06 63:0.000199 64:0.029223 
1 0 1:0.255099 2:0.012571 3:0.005509 5:0.00072 6:0.002219 7:0.000437 8:1.1e-05 11:0.000277 17:0.043408 18:0.006976 19:0.001461 21:0.045275 22:0.186251 23:0.00432 26:0.000597 27:0.000741 32:5e-06 33:0.000309 37:0.006256 38:0.034549 39:0.00256 41:4.8e-05 42:0.017904 43:0.138267 44:0.000821 47:0.002624 48:0.000965 53:5e-06 54:1.1e-05 57:2.1e-05 58:0.000784 59:0.014176 60:0.002203 62:5e-06 63:0.016501 64:0.196112 
1 0 1:0.690763 2:0.208773 3:0.025056 4:0.000347 6:0.028229 7:0.043109 8:0.000779 12:0.000128 16:5.3e-05 19:1.1e-05 20:5e-06 23:0.000581 24:0.000107 27:1.1e-05 28:0.000251 32:0.000192 40:4.3e-05 43:5e-06 44:5.3e-05 48:0.000299 56:5e-06 60:2.7e-05 64:0.001173 
1 0 1:0.155189 2:0.002971 5:0.0032 6:0.006117 17:0.006613 18:0.000885 21:0.011611 22:0.545435 23:0.008 24:5.9e-05 26:0.001888 27:0.011605 37:0.000245 38:0.030293 39:0.002229 40:0.000155 42:0.018576 43:0.109253 44:0.002224 47:0.000267 48:0.003061 54:0.000416 58:0.059003 59:0.011456 60:0.000693 63:0.000667 64:0.007888 
1 0 1:0.090635 2:0.020416 3:2.7e-05 5:0.019691 6:0.020048 7:6.9e-05 10:0.000603 11:1.6e-05 17:0.008896 18:0.109093 19:0.022827 20:5.9e-05 21:0.015739 22:0.122768 23:0.024651 24:0.000272 25:5e-06 26:0.009963 27:0.020592 28:0.002149 31:0.000432 32:2.1e-05 33:5.3e-05 34:0.003477 35:0.029611 36:0.011045 37:4.3e-05 38:0.015141 39:0.043728 40:0.011792 42:0.008955 43:0.101867 44:0.023056 47:0.003611 48:0.006192 50:5e-06 51:0.000112 52:0.003579 54:8.5e-05 55:0.001563 56:0.018155 58:0.000608 59:0.034987 60:0.016405 62:5e-06 63:0.109936 64:0.067019 
1 0 1:0.234084 2:0.014673 3:8.4e-05 5:0.057423 6:0.105826 7:0.000583 11:0.000336 12:0.000685 16:0.002492 17:0.015423 18:0.001964 19:9.6e-05 20:1.2e-05 21:0.011135 22:0.305544 23:0.038889 26:0.001622 27:0.004216 28:3e-05 32:0.000282 33:0.000691 34:0.000132 35:0.000162 36:6e-06 37:0.106096 38:0.007399 39:0.001471 41:0.002252 42:0.002414 43:0.061634 44:1.8e-05 53:0.004805 54:3e-05 57:0.015069 58:0.00021 59:0.000781 63:0.000132 64:0.001297 
1 0 1:0.030349 2:0.000231 4:6.2e-05 5:0.005489 6:0.001695 7:0.000368 8:0.000555 10:3.7e-05 11:0.000125 12:0.000312 16:0.000399 17:0.003925 18:2.5e-05 20:6e-06 21:0.039308 22:0.025452 23:0.00048 24:0.000673 25:0.000393 26:0.02243 27:0.00724 28:0.000779 31:3.1e-05 32:0.000966 33:1.2e-05 37:0.010486 38:0.002336 39:1.2e-05 41:0.008891 42:0.097514 43:0.167302 44:0.001558 45:6e-06 46:0.000106 47:0.03696 48:0.021682 54:6e-06 57:0.00015 58:0.049047 59:0.001421 60:3.7e-05 61:6e-06 62:0.008629 63:0.329009 64:0.123502 
1 0 1:0.076363 2:0.022139 3:0.000357 6:0.014544 7:0.002027 18:0.000325 19:4.3e-05 22:0.057776 23:0.069216 24:1.1e-05 27:0.04704 28:0.000112 39:7.5e-05 43:0.143776 44:0.026112 48:0.054507 60:5e-06 64:0.485573 
1 0 1:0.090805 2:0.034651 3:0.000219 4:3.7e-05 5:0.009851 6:0.113227 7:0.000704 8:6.4e-05 10:0.000229 11:0.000107 17:0.001472 18:0.00584 19:0.001349 20:3.7e-05 21:0.000315 22:0.173995 23:0.044229 24:9.6e-05 26:0.004064 27:0.01376 28:0.000139 33:1.6e-05 34:0.000123 35:0.000427 36:1.1e-05 38:0.01984 39:0.022016 40:0.004539 42:0.017504 43:0.216016 44:0.029483 47:0.000181 48:0.003856 54:5e-06 55:3.7e-05 56:0.000533 58:5e-06 59:0.025819 60:0.10064 63:0.0004 64:0.06336 
1 0 1:0.171519 2:0.034212 3:6e-06 5:0.000731 6:0.013062 7:0.0143 8:0.0001 10:4.4e-05 11:0.007063 12:0.024275 16:0.009962 17:0.002 18:6.9e-05 21:0.038637 22:0.031938 23:0.020344 24:0.001638 25:5.6e-05 26:0.000937 27:0.033612 28:0.018812 32:0.006763 37:0.047456 38:0.002112 41:0.0175 42:0.012244 43:0.321075 44:0.012944 47:0.001206 48:0.0057 59:0.131919 63:0.016731 64:0.001031 
1 0 1:0.010785 2:0.002885 5:0.000269 6:0.0014 17:8.5e-05 18:0.001654 21:0.000138 22:0.097846 23:0.029854 26:0.001115 27:0.031415 38:0.000192 39:0.006092 42:0.000285 43:0.514785 44:0.039023 47:0.003085 48:0.022815 59:0.000554 60:0.005946 63:0.0005 64:0.229277 
1 0 1:0.208523 2:0.105941 3:5e-06 5:0.00048 6:0.134389 7:0.000448 10:1.1e-05 11:2.7e-05 17:5.9e-05 18:0.000187 19:5e-06 21:2.7e-05 22:0.136731 23:0.033515 26:0.000539 27:0.050539 28:0.00016 32:1.1e-05 38:0.001285 39:0.000816 42:0.001163 43:0.208955 44:0.040256 47:6.4e-05 48:0.009589 59:0.000784 60:0.008501 63:2.7e-05 64:0.056965 
1 0 1:0.103093 2:0.007958 3:0.00117 5:0.009099 6:0.012251 7:0.001493 8:0.000155 10:0.000716 11:0.00086 12:0.000227 15:7.8e-05 16:0.000101 17:0.007379 18:0.000191 19:1.8e-05 21:0.07197 22:0.132203 23:0.013194 24:0.000424 25:7.8e-05 26:0.009331 27:0.03443 28:0.004119 31:0.001373 32:0.007881 37:0.000848 38:0.003821 39:0.000119 40:2.4e-05 41:0.000955 42:0.01191 43:0.068484 44:0.030084 47:0.001964 48:0.094949 54:6e-06 59:0.000478 60:9e-05 63:0.002131 64:0.364346 
1 0 1:0.33599 2:0.059804 3:0.000711 4:2.4e-05 5:0.020506 6:0.1599 7:0.007862 8:4.8e-05 10:3.3e-05 11:0.00052 12:1.9e-05 17:0.005589 18:0.000539 21:0.043704 22:0.091332 23:0.008516 25:1e-05 26:0.002286 27:0.005976 28:3.3e-05 37:0.010434 38:0.048773 39:0.000444 41:0.000248 42:0.182807 43:0.005217 44:6.7e-05 48:2.9e-05 53:1.4e-05 54:0.000148 57:1e-05 58:0.007537 59:0.000826 63:3.8e-05 64:5e-06 
1 0 1:0.309232 2:0.005299 3:0.001354 4:0.000579 5:0.004642 6:0.008737 7:0.002865 8:0.001836 11:1.3e-05 12:8.5e-05 17:0.00498 18:0.000508 19:2e-05 20:5.9e-05 21:0.010736 22:0.170632 23:0.012025 24:0.000775 25:1.3e-05 26:0.001283 27:0.007415 28:0.002057 37:0.000228 38:0.006302 39:0.000729 40:2e-05 41:8.5e-05 42:0.010579 43:0.103216 44:0.009134 45:2e-05 47:0.000345 48:0.007181 59:0.005638 60:0.000534 61:2e-05 62:7e-06 63:0.013079 64:0.297741 
1 0 1:0.079328 2:0.009797 5:0.001019 6:0.015925 17:0.001269 18:0.000123 21:0.003573 22:0.130843 23:0.005408 26:0.001952 27:0.014405 28:1.1e-05 38:0.051643 39:3.7e-05 42:0.61184 43:0.051765 44:0.003605 47:0.001051 48:0.010085 59:0.000187 63:0.000133 64:0.006 
1 0 1:0.241019 2:0.000837 5:0.000784 6:0.010789 7:0.000299 10:0.000112 11:0.000405 15:5e-06 17:0.150933 18:0.083557 19:1.6e-05 21:0.000245 22:0.111429 23:0.005749 26:0.0004 27:0.012811 28:3.2e-05 31:1.1e-05 32:2.7e-05 33:0.002245 34:0.010315 35:2.7e-05 37:0.000101 38:0.073696 39:0.033291 40:2.1e-05 42:0.000149 43:0.200405 44:0.004864 47:1.1e-05 48:0.001504 49:4.3e-05 50:0.000117 51:5e-06 54:0.006101 55:0.021781 56:5e-06 58:1.6e-05 59:0.018651 60:0.002837 63:1.1e-05 64:0.004341 
1 0 1:0.359516 2:0.065681 3:0.000148 4:0.000142 5:0.002336 6:0.165162 7:0.004519 8:1.7e-05 10:0.000632 11:0.001835 12:6.8e-05 15:8.5e-05 16:1.7e-05 17:0.002068 18:0.000473 19:6.8e-05 20:0.000519 21:0.002519 22:0.138262 23:0.032028 24:0.000877 26:0.004114 27:0.038211 28:0.002348 31:0.000752 32:0.003128 33:5.1e-05 34:1.1e-05 36:3.4e-05 38:0.00616 39:0.000923 40:0.000142 42:0.008382 43:0.051208 44:0.006456 47:0.000974 48:0.017248 54:1.7e-05 56:6e-06 58:0.000638 59:0.013162 60:0.000245 63:0.014655 64:0.05416 
1 0 1:0.028037 2:0.001648 5:0.000101 6:0.001355 7:0.000107 10:3.2e-05 11:4.3e-05 17:0.009621 18:0.043925 21:2.7e-05 22:0.240421 23:0.033216 26:8.5e-05 27:0.003989 28:8e-05 31:0.000101 32:0.000379 33:0.000496 34:0.004464 37:5e-06 38:0.169755 39:0.265776 42:0.00024 43:0.126075 44:0.001648 47:0.00544 48:0.016219 49:5e-06 50:2.7e-05 53:5e-06 54:0.000293 55:0.000517 58:1.1e-05 59:0.005637 60:0.001099 63:0.000587 64:0.038533 
1 0 1:0.128347 2:0.043355 3:1.1e-05 5:0.01728 6:0.113152 7:0.000128 8:1.6e-05 11:5e-06 12:3.7e-05 16:2.7e-05 17:0.000832 18:0.000512 21:0.005637 22:0.240597 23:0.078405 26:0.001461 27:0.051904 28:2.7e-05 32:1.1e-05 38:0.004187 39:0.000187 42:0.006576 43:0.055365 44:0.000352 47:0.000203 48:0.000187 59:0.031365 60:1.6e-05 63:0.057568 64:0.162251 
1 0 1:0.529264 2:0.212965 3:0.021648 6:0.172773 7:0.019856 8:0.000224 22:0.00744 23:0.009712 24:0.000581 27:0.00888 28:0.000219 43:0.002699 44:0.007701 48:0.006021 64:1.6e-05 
1 0 1:0.045024 22:0.394496 43:0.521467 64:0.039013 
1 0 1:0.045902 2:0.007921 3:6e-06 5:7.9e-05 6:0.008317 7:3e-05 17:0.001268 18:0.001652 19:6e-06 21:0.000384 22:0.101567 23:0.039348 26:0.000305 27:0.048579 28:0.000128 33:1.8e-05 34:6e-06 37:0.000305 38:0.001957 39:0.006079 42:0.000683 43:0.351561 44:0.053512 47:0.001274 48:0.042506 53:2.4e-05 54:6.1e-05 55:6e-06 58:0.001152 59:0.001774 60:0.001256 62:4.3e-05 63:0.001634 64:0.280652 
1 0 1:0.07646 2:0.017025 3:4.3e-05 5:0.00016 6:0.007086 7:0.000258 8:6e-06 11:6e-06 12:6e-06 17:0.006577 18:0.010742 19:1.8e-05 21:0.002436 22:0.190202 23:0.032301 24:0.000166 26:0.001282 27:0.03992 28:0.005755 32:0.000411 37:7.4e-05 38:0.018663 39:0.003957 40:6e-06 42:0.069436 43:0.239196 44:0.002172 47:4.3e-05 48:0.005448 58:0.060012 59:0.135141 60:0.000104 63:0.056472 64:0.018417 
1 0 1:0.129814 2:2.4e-05 5:0.006685 6:0.000312 17:0.02776 21:0.134775 22:0.038432 26:3e-05 37:0.018907 38:0.159556 42:0.005267 43:0.003279 47:6e-06 58:0.009417 59:0.280426 63:0.179856 64:0.005453 
1 0 1:0.051664 2:0.003856 5:0.001123 6:0.007009 7:0.000216 8:6e-06 17:0.000913 18:0.000222 21:0.002042 22:0.015249 23:0.002745 24:6e-06 26:0.000156 27:0.003598 28:0.00033 32:1.2e-05 37:0.014144 38:0.873033 39:0.000186 42:0.003622 43:0.007526 44:0.002102 47:5.4e-05 48:0.005051 54:1.2e-05 58:2.4e-05 59:0.000162 60:1.8e-05 63:8.4e-05 64:0.004835 
1 0 1:0.077723 2:0.019664 5:0.002096 6:0.069344 7:0.008704 11:5e-06 17:0.007493 18:0.001461 21:0.079568 22:0.191131 23:0.070347 26:0.002891 27:0.002347 33:7.5e-05 34:8e-05 37:0.005648 38:0.093403 39:0.000251 42:0.136059 43:0.212928 47:0.000112 58:5.9e-05 59:0.015349 63:0.003264 
