svm_type c_svc
kernel_type rbf
gamma 1
nr_class 3
total_sv 2304
rho -1.66423 -1.02273 -1.02266
label -1 1 0
probA -0.972349 -61.1507 18.8144
probB -2.96668 54.0966 -22.6197
nr_sv 2184 117 3
SV
1 0 1:0.099136 2:0.018027 3:0.002347 4:0.000997 5:0.004309 6:0.031925 7:0.000421 8:8.5e-05 9:0.000171 10:0.000171 11:7.5e-05 17:0.004053 18:0.001077 19:0.000272 20:9.6e-05 21:0.002656 22:0.177104 23:0.037589 24:0.003669 25:0.000693 26:0.016715 27:0.096507 28:0.00056 29:1.6e-05 31:3.7e-05 32:5.9e-05 33:0.001173 37:0.018875 38:0.003829 39:0.000901 40:0.000176 41:3.7e-05 42:0.003547 43:0.236112 44:0.026331 45:3.7e-05 46:0.000544 47:0.001392 48:0.024453 53:0.007771 54:0.000869 57:0.007637 58:0.021163 59:0.00664 60:0.000725 61:5e-06 62:0.01408 63:0.048432 64:0.076501 
1 0 1:0.066527 2:2.7e-05 3:9e-06 4:5e-06 5:0.000122 6:1.8e-05 17:0.001586 18:9e-06 21:0.001482 22:0.004387 23:1.8e-05 24:9e-06 25:1.4e-05 26:7.2e-05 27:3.2e-05 37:0.000234 38:0.002626 39:3.6e-05 41:0.000225 42:0.598432 43:0.006586 44:0.000153 48:0.00014 58:0.108468 59:0.202342 60:0.00018 63:0.000505 64:0.005757 
1 0 1:0.218475 2:0.009493 3:2.7e-05 5:0.016587 6:0.101349 7:0.00352 10:8e-05 11:0.000219 17:0.000181 18:3.2e-05 19:1.1e-05 21:0.002027 22:0.302379 23:0.033424 24:3.7e-05 26:0.004656 27:0.196848 28:0.000117 38:0.000933 39:5.9e-05 42:0.004512 43:0.060555 44:0.003088 47:0.002587 48:0.014603 59:4.3e-05 60:1.1e-05 63:0.000603 64:0.023547 
1 0 1:0.354517 2:0.056811 3:0.001088 5:0.001744 6:0.097131 7:0.003552 17:0.000475 18:0.000203 21:0.00048 22:0.31816 23:0.028592 24:0.000219 26:0.004624 27:0.022635 28:0.000112 38:0.000288 39:1.1e-05 42:0.000469 43:0.018816 44:0.006725 46:5e-06 47:0.000203 48:0.007152 58:5e-06 59:2.1e-05 63:5.3e-05 64:0.075909 
1 0 1:0.100709 2:0.054133 5:7.5e-05 6:0.406315 7:0.171392 11:4.3e-05 12:5e-06 17:0.000528 18:0.000192 21:6.9e-05 22:0.025851 23:0.178427 24:1.1e-05 27:0.016901 28:0.000491 32:2.1e-05 33:1.1e-05 34:2.7e-05 38:0.000603 39:0.000949 42:2.1e-05 43:0.028411 44:0.000544 47:5.9e-05 48:0.000363 54:2.7e-05 58:5e-06 59:0.002949 60:0.000336 63:0.000992 64:0.009541 
1 0 1:0.062091 2:0.003387 5:0.00024 6:0.033936 7:0.002789 11:2.1e-05 17:0.004123 18:3.2e-05 21:0.006965 22:0.260597 23:0.049467 26:0.000544 27:0.075291 28:0.005861 32:1.1e-05 37:1.6e-05 38:0.019131 39:1.6e-05 42:0.022688 43:0.083179 44:0.077707 47:0.000149 48:0.095995 58:5e-06 59:0.002437 60:5e-06 63:0.002187 64:0.191131 
1 0 1:0.241296 2:0.039184 5:0.000373 6:0.084987 7:6.9e-05 11:6.4e-05 12:0.000304 16:0.001797 17:0.001835 18:0.001061 21:0.000101 22:0.206331 23:0.073173 26:0.000181 27:0.044773 28:0.000245 37:5e-06 38:0.000251 39:0.000293 42:0.000293 43:0.068773 44:0.041707 47:5e-06 48:0.079211 58:5.9e-05 59:0.004368 60:0.000224 63:0.004272 64:0.104763 
1 0 1:0.098325 2:0.003723 5:0.09088 6:0.388704 7:0.000149 10:0.056581 11:0.005301 12:5e-06 15:0.000107 17:5.3e-05 18:2.7e-05 21:5.9e-05 22:0.073163 23:0.006725 26:0.030091 27:0.059957 28:2.7e-05 31:0.000843 32:5e-06 38:0.000208 39:0.000128 42:0.000395 43:0.084752 44:0.003317 47:0.008027 48:0.008555 59:0.00152 60:9.6e-05 63:0.004533 64:0.073744 
1 0 1:0.137866 2:0.043725 5:0.005776 6:0.041008 7:0.004762 10:0.002667 11:0.00158 14:6e-06 15:0.001188 16:0.000196 17:0.004258 18:0.002768 19:6e-06 21:0.001188 22:0.064303 23:0.039031 26:0.001384 27:0.03302 28:0.001983 31:0.003384 32:0.008695 38:0.005518 39:0.000779 42:0.001933 43:0.041182 44:0.024807 47:0.002034 48:0.106644 59:0.00665 60:0.000896 63:0.001367 64:0.409401 
1 0 1:0.170277 2:0.030069 3:1.1e-05 5:0.007819 6:0.146747 7:0.065472 8:2.1e-05 10:0.003312 11:0.007189 12:0.000613 15:0.001312 16:0.003056 17:0.021147 18:9.6e-05 21:0.011307 22:0.131317 23:0.106331 24:5e-06 26:0.006507 27:0.058069 28:0.003627 31:0.000715 32:0.00416 33:0.000517 37:0.006229 38:0.001451 39:0.000235 41:0.000464 42:0.002475 43:0.068672 44:0.013163 47:0.000645 48:0.016453 57:8.5e-05 58:0.001189 59:0.000811 60:0.000192 62:6.4e-05 63:0.001483 64:0.106693 
1 0 1:0.125307 2:0.002896 3:0.000117 5:0.036976 6:0.140661 7:7.5e-05 10:0.000197 11:4.3e-05 17:0.000128 18:0.000245 19:4.3e-05 21:0.000501 22:0.371739 23:0.011061 24:1.1e-05 26:0.006752 27:0.025547 28:0.000144 38:0.000363 39:0.000347 42:0.000891 43:0.065083 44:0.002069 47:0.002613 48:0.00464 55:5e-06 59:0.000325 60:0.0004 63:0.000763 64:0.200059 
1 0 1:0.01839 2:0.01979 5:0.005309 6:0.036967 7:0.059405 10:3.6e-05 17:3.6e-05 18:1.8e-05 21:0.00039 22:0.060156 23:0.164396 26:0.056577 27:0.185357 28:0.005483 31:0.000138 38:7.8e-05 39:9e-05 42:0.001874 43:0.117814 44:0.003592 47:0.01448 48:0.041237 58:6e-06 59:0.000378 60:6e-06 63:0.031147 64:0.176847 
1 0 1:0.050432 2:0.05552 3:2.4e-05 5:0.053099 6:0.157207 7:0.011778 17:1.2e-05 18:3.6e-05 19:6e-06 21:0.001315 22:0.206306 23:0.015958 24:6e-06 26:0.022907 27:0.033664 28:0.000258 37:6e-06 38:0.000234 39:1.2e-05 42:0.012967 43:0.032318 44:0.006468 47:0.001213 48:0.001231 58:0.00012 59:0.001838 60:6e-06 62:0.000913 63:0.175682 64:0.158462 
1 0 1:0.239115 2:0.017723 3:0.005851 4:0.002736 5:0.003157 6:0.012949 7:0.00032 8:0.000272 10:0.000229 11:0.000171 12:0.000176 16:5e-06 17:0.025813 18:0.009109 19:0.000667 20:0.001589 21:0.038928 22:0.20624 23:0.015152 24:0.00632 26:0.006208 27:0.038027 28:0.002693 31:0.001061 32:0.000336 37:1.6e-05 38:0.013541 39:0.001904 40:0.000267 42:0.013952 43:0.066987 44:0.024373 47:0.003392 48:0.033616 58:0.001131 59:0.011797 60:0.000293 63:0.008368 64:0.185515 
0.7662779626602864 0 1:0.002637 2:0.001147 6:0.006421 7:0.018276 11:0.000219 17:0.088241 18:0.007225 21:0.114268 22:0.184547 23:0.026595 27:0.079839 28:0.100096 37:0.002176 38:0.19312 39:0.000461 42:0.000449 43:0.016088 44:0.094355 48:0.060836 59:0.000124 64:0.002879 
1 0 1:0.168324 2:0.007634 3:0.001213 4:0.000583 5:0.004006 6:0.011646 7:0.00164 8:0.00021 11:0.000162 12:0.000348 16:6.6e-05 17:0.00152 18:9.6e-05 19:4.2e-05 20:4.8e-05 21:0.003207 22:0.290258 23:0.021748 24:0.000535 25:2.4e-05 26:0.03218 27:0.179213 28:0.001381 31:6e-06 32:0.000102 33:3.6e-05 37:0.000943 38:0.018817 39:0.000781 40:2.4e-05 41:6e-06 42:0.004631 43:0.068757 44:0.00164 47:0.002198 48:0.003477 53:6e-06 58:1.8e-05 59:0.001207 60:0.00015 63:0.001814 64:0.169303 
1 0 1:0.138378 2:0.005081 3:0.000727 4:0.000517 5:0.001303 6:0.031201 7:0.004631 8:3e-05 10:7.8e-05 11:0.007315 12:0.003447 16:0.008991 17:0.012048 18:0.002036 19:0.001015 20:0.00027 21:0.005676 22:0.312126 23:0.018048 24:0.005177 26:0.002613 27:0.140847 28:0.006979 31:3e-05 32:0.069303 33:1.8e-05 37:0.000535 38:0.057321 39:0.000366 40:0.000462 42:0.031135 43:0.066799 44:0.00582 47:0.000733 48:0.019063 53:1.2e-05 54:3e-05 55:6e-06 58:0.000787 59:0.001664 60:0.000462 63:0.002474 64:0.034444 
1 0 1:0.218747 2:0.026288 3:0.001339 5:0.002293 6:0.010736 7:0.003477 8:0.000139 10:0.000144 11:0.000171 12:0.000453 16:2.7e-05 17:0.084731 18:0.012987 19:2.1e-05 21:0.040272 22:0.170912 23:0.007237 24:0.000123 25:5e-06 26:0.002816 27:0.001936 28:0.001088 32:0.001611 37:0.002011 38:0.014213 39:0.000901 40:5e-06 41:0.000293 42:0.030891 43:0.023845 44:0.001355 46:5e-06 47:0.000411 48:0.000683 58:3.7e-05 59:0.016843 60:3.7e-05 62:5e-06 63:0.169051 64:0.151861 
1 0 1:0.09537 2:0.008249 3:0.00011 5:0.108988 6:0.151277 7:0.000965 8:6e-06 9:0.000272 10:0.007335 11:0.000439 12:6e-06 17:0.011566 18:0.005 19:0.000225 21:0.011763 22:0.329561 23:0.025312 24:2.3e-05 25:0.000133 26:0.078029 27:0.062046 28:0.00141 31:4e-05 32:4.6e-05 33:4e-05 34:0.000127 37:6e-06 38:0.006566 39:0.005121 40:6e-06 42:0.00326 43:0.032994 44:0.00441 47:0.000486 48:0.001694 50:6e-06 54:0.000116 55:0.00015 58:9.2e-05 59:0.014688 60:0.003983 63:0.002289 64:0.025792 
1 0 1:0.177592 2:0.009736 3:0.000757 4:0.001778 5:0.000168 6:0.017033 7:0.003087 8:0.000721 11:1.8e-05 12:8.4e-05 17:0.006817 18:6.6e-05 19:1.2e-05 20:2.4e-05 21:0.002036 22:0.01764 23:0.106883 24:0.00773 26:4.8e-05 27:0.348895 28:0.057778 37:0.00015 38:0.001213 39:2.4e-05 40:6e-06 42:0.000709 43:0.029622 44:0.134276 48:0.050468 58:0.000222 59:0.000613 60:1.8e-05 63:0.000192 64:0.023586 
1 0 1:0.399483 2:0.019525 3:0.000139 5:0.03336 6:0.044203 7:0.001968 9:0.000256 10:0.006048 11:0.000704 12:5.3e-05 14:5e-06 15:1.1e-05 16:2.1e-05 17:0.001435 18:0.000565 19:0.000251 21:0.006661 22:0.097387 23:0.006059 25:4.3e-05 26:0.018827 27:0.015824 28:0.001173 30:9.1e-05 31:0.0012 32:0.000283 33:0.000149 37:0.000672 38:0.003499 39:0.000283 40:3.7e-05 41:0.000203 42:0.04528 43:0.142613 44:0.010011 46:0.003136 47:0.038843 48:0.004155 53:8e-05 54:1.1e-05 57:2.7e-05 58:0.001648 59:0.004139 60:0.000341 62:0.000624 63:0.018395 64:0.070283 
1 0 1:0.26672 2:0.036107 3:0.0004 4:0.00024 5:0.006459 6:0.023733 7:0.006453 8:0.000341 10:0.003931 11:0.005675 12:0.00744 15:0.000789 16:0.000139 17:0.013259 18:0.005845 19:0.000245 20:4.3e-05 21:0.010395 22:0.19752 23:0.021355 24:0.000944 26:0.006405 27:0.022971 28:0.002048 31:0.006123 32:0.001707 33:5e-06 37:0.000581 38:0.009627 39:0.00216 40:0.000597 41:4.3e-05 42:0.004565 43:0.078773 44:0.019787 47:0.003867 48:0.011339 53:8.5e-05 54:1.1e-05 57:0.002176 58:0.000816 59:0.004629 60:0.001269 61:0.000283 62:0.001083 63:0.003803 64:0.207216 
1 0 1:0.050535 2:0.11985 3:0.01985 4:0.001904 5:6e-05 6:0.041075 7:0.005856 8:0.000252 9:2.4e-05 10:6e-06 12:1.2e-05 16:0.000162 17:0.011039 18:0.006492 19:0.000408 20:0.000961 21:0.000925 22:0.098198 23:0.060174 24:0.003273 25:0.00639 26:0.00176 27:0.014763 28:0.018396 29:0.000162 30:0.005099 31:1.2e-05 32:0.004066 33:0.020649 34:0.00018 37:0.047802 38:0.035135 39:0.004078 40:4.2e-05 41:1.2e-05 42:0.002168 43:0.059814 44:0.044348 45:1.2e-05 46:0.002679 47:0.003171 48:0.048462 53:0.000324 54:0.002126 55:1.8e-05 57:5.4e-05 58:0.002012 59:0.005327 60:0.00164 61:1.2e-05 62:0.000264 63:0.005946 64:0.242018 
1 0 1:0.484821 2:0.043888 3:0.000368 5:0.00864 6:0.059488 7:0.003003 10:6.9e-05 11:2.1e-05 17:0.003643 18:0.001157 19:0.000795 21:0.004933 22:0.061717 23:0.016544 24:1.6e-05 26:0.001664 27:0.013205 28:3.7e-05 31:1.6e-05 38:0.027771 39:0.000117 42:0.053659 43:0.018165 44:0.000416 47:0.000336 48:0.002491 58:2.7e-05 59:0.061013 60:4.3e-05 63:0.02664 64:0.105296 
1 0 1:0.047952 2:0.068517 3:4.3e-05 6:0.208389 7:0.109499 11:0.000427 22:0.036635 23:0.148272 24:0.00072 26:0.000133 27:0.267008 28:0.0668 32:1.6e-05 43:0.010032 44:0.024411 48:0.010923 64:0.000224 
1 0 1:0.286411 2:0.016192 3:0.000987 4:0.000464 5:0.001003 6:0.015067 7:0.002837 8:0.004 11:0.000357 12:0.004224 16:0.000533 17:0.017664 18:0.002187 19:0.00048 20:0.000384 21:0.011141 22:0.121003 23:0.016053 24:0.002277 26:0.003056 27:0.010965 28:0.003333 32:0.000693 33:0.000128 34:5.3e-05 35:1.1e-05 36:5e-06 37:0.002672 38:0.024677 39:0.001035 40:0.000603 42:0.020741 43:0.061637 44:0.00752 47:0.000587 48:0.004704 53:1.6e-05 54:0.000384 55:8e-05 56:8e-05 57:0.000133 58:0.018448 59:0.033936 60:0.001776 62:5e-06 63:0.029419 64:0.270037 
1 0 1:0.504603 2:0.084304 3:0.006987 4:0.000176 5:0.00072 6:0.022453 7:0.017504 8:0.001936 10:5e-06 11:2.1e-05 12:0.000117 17:0.000885 18:0.004448 19:6.9e-05 20:8.5e-05 21:0.000235 22:0.090347 23:0.027056 24:0.000816 26:0.000277 27:0.008565 28:0.001499 31:5e-06 32:1.6e-05 33:1.1e-05 34:0.000171 35:6.4e-05 36:5e-06 38:0.000389 39:0.001024 40:6.4e-05 42:9.1e-05 43:0.034229 44:0.011557 47:0.000293 48:0.016272 51:2.1e-05 55:0.000133 56:2.1e-05 59:0.000304 60:0.000491 63:9.6e-05 64:0.161632 
1 0 1:0.154041 2:0.031347 3:0.009335 4:0.010682 5:0.020276 6:0.049082 7:0.028712 8:0.000806 9:0.0011 10:0.003241 11:0.007912 12:0.001429 14:7.1e-05 15:5.9e-05 16:0.0002 17:0.004359 18:0.002171 19:0.000471 20:0.000288 21:0.003635 22:0.041394 23:0.042194 24:0.002212 26:0.000794 27:0.066594 28:0.098871 30:6e-06 31:0.0005 32:0.004724 36:1.2e-05 38:0.001188 39:0.000941 40:0.000171 42:0.0014 43:0.012224 44:0.099712 47:0.000465 48:0.210459 58:2.9e-05 59:0.002947 60:0.000129 63:0.001518 64:0.0823 
1 0 1:0.157573 2:0.053813 3:0.012789 4:0.009813 5:0.012021 6:0.098693 7:0.083024 8:0.037328 10:0.000453 11:0.006059 12:0.081035 16:0.000203 17:0.001589 18:0.000219 19:2.1e-05 20:1.6e-05 21:0.000347 22:0.035467 23:0.027173 24:0.004485 26:0.006059 27:0.058597 28:0.090763 31:5.3e-05 32:0.007013 33:1.1e-05 38:9.6e-05 39:0.000123 40:1.6e-05 42:0.000101 43:0.014309 44:0.035867 47:0.000885 48:0.090304 58:5e-06 59:4.3e-05 60:8.5e-05 63:8.5e-05 64:0.073461 
1 0.1208742724781373 1:0.330722 2:0.00034 5:0.113361 6:0.04634 7:3e-05 9:0.00077 10:0.002346 11:0.00089 12:6e-06 15:0.000197 16:0.001594 17:0.013493 18:0.001487 21:0.034728 22:0.189952 23:0.002024 26:0.0404 27:0.100728 30:1.8e-05 31:0.001248 32:0.000382 33:0.000179 34:0.000352 37:0.00246 38:0.019552 39:0.001934 42:0.003212 43:0.048131 44:2.4e-05 47:0.019075 48:0.003301 49:3e-05 54:3.6e-05 55:1.2e-05 58:0.000167 59:0.002179 63:0.001313 64:0.016985 
1 0 1:0.129737 2:0.00664 3:3e-05 5:0.001474 6:0.058179 7:0.00597 10:0.000432 11:0.007851 12:0.008873 16:0.007767 17:0.06862 18:0.000888 19:1e-05 21:0.03598 22:0.197861 23:0.005335 26:0.081365 27:0.125017 28:0.002129 31:5.5e-05 32:0.0207 33:4.5e-05 37:0.001856 38:0.038174 39:5e-06 42:0.017717 43:0.122873 44:7.4e-05 47:0.010447 48:0.008357 54:0.000486 58:0.002849 59:0.017608 63:0.009687 64:0.004908 
1 0.0416198000802135 1:0.075456 2:0.007157 5:0.094651 6:0.155739 7:0.005915 10:0.003275 11:2.7e-05 12:1.1e-05 17:6.9e-05 18:0.000224 21:9.1e-05 22:0.1512 23:0.019659 26:0.047376 27:0.063717 28:0.006576 31:0.00016 38:0.001333 39:0.000229 42:0.00016 43:0.068773 44:0.009168 47:0.001829 48:0.005141 58:1.1e-05 59:0.148523 60:0.000587 63:0.023547 64:0.109397 
1 0 1:0.273704 2:0.017154 3:0.000154 5:0.015633 6:0.094036 7:0.000651 17:0.001237 18:0.000154 21:0.008036 22:0.213734 23:0.038385 26:0.00187 27:0.059982 28:0.000118 38:0.004923 39:3e-05 42:0.016769 43:0.115994 44:0.022521 47:3.6e-05 48:0.005272 59:0.007071 60:0.001657 63:0.001775 64:0.099107 
1 0 1:0.001604 2:0.00026 5:0.013349 6:0.309266 7:0.005456 10:7.1e-05 11:0.010556 12:0.024775 16:0.003444 17:4.7e-05 21:0.000917 22:0.339657 23:0.003882 26:0.005769 27:0.009627 28:0.005213 32:0.006615 37:6e-06 38:0.006757 39:5.9e-05 42:0.008527 43:0.063846 44:0.000112 47:1.8e-05 48:4.1e-05 58:1.8e-05 59:0.002302 60:0.000213 63:0.000349 64:0.177243 
1 0 1:0.258738 2:0.08638 3:0.002316 5:0.003679 6:0.033759 7:0.010102 8:3.7e-05 10:0.000102 11:4.3e-05 12:5e-06 17:0.005668 18:0.005171 19:0.000134 20:5e-06 21:0.002791 22:0.065406 23:0.087888 24:0.000219 26:0.000834 27:0.042914 28:0.00093 32:3.7e-05 33:0.000128 37:0.002428 38:0.002957 39:0.001733 40:8.6e-05 41:5e-06 42:0.000957 43:0.085128 44:0.052642 47:0.002257 48:0.049278 49:5e-06 53:0.000337 54:7.5e-05 57:0.000209 58:0.00023 59:0.000551 60:0.000503 61:1.6e-05 62:0.000182 63:0.00139 64:0.191743 
1 0.04570189971987316 1:0.137954 2:0.003273 5:0.017833 6:0.105687 7:0.001641 11:4.6e-05 17:0.009265 18:2.9e-05 21:0.012313 22:0.13501 23:0.013829 26:0.004405 27:0.032326 28:8.4e-05 33:5.8e-05 37:0.000409 38:0.007152 39:8.8e-05 42:0.010025 43:0.101795 44:0.001649 47:0.002994 48:0.004263 59:0.013624 60:5.8e-05 63:0.022839 64:0.361349 
1 0 1:0.165264 2:0.006715 3:0.000437 4:5e-06 5:0.002229 6:0.010144 7:0.000101 17:0.005573 18:9.1e-05 19:5e-06 20:5e-06 21:0.049659 22:0.125291 23:0.039616 24:0.000101 25:5e-06 26:0.000688 27:0.059024 28:0.000101 33:8.5e-05 37:0.001861 38:0.002501 39:0.000117 40:5e-06 41:4.8e-05 42:0.001771 43:0.147835 44:0.002603 47:8.5e-05 48:0.001963 53:0.000336 57:0.001728 58:0.184165 59:0.009344 60:9.1e-05 61:0.000128 62:0.003296 63:0.070464 64:0.106517 
1 0 1:0.097395 2:0.006581 5:8.4e-05 6:0.002204 7:0.000317 8:3.6e-05 11:1.8e-05 12:0.00018 17:0.001551 18:0.002653 21:0.00021 22:0.480305 23:0.006353 24:1.8e-05 26:0.085413 27:0.247186 28:0.000263 32:0.000174 38:0.002982 39:0.003174 42:0.000251 43:0.037479 44:0.002168 47:2.4e-05 48:0.00091 59:0.001671 60:0.002509 63:5.4e-05 64:0.017838 
1 0 1:0.126681 2:0.045837 3:3e-05 5:0.005719 6:0.279837 7:0.001022 11:0.00037 17:0.00117 18:0.000637 21:0.001319 22:0.072948 23:0.005407 26:0.00037 27:0.00357 28:0.000163 32:0.000104 33:4.4e-05 37:0.001259 38:0.004667 39:0.001822 42:0.005556 43:0.034563 44:0.000622 47:1.5e-05 48:0.000326 53:0.000104 54:8.9e-05 57:1.5e-05 58:0.000489 59:0.000919 60:0.000252 63:0.0004 64:0.403674 
1 0 1:0.118235 2:0.124352 3:0.000768 4:5e-06 5:0.002037 6:0.222293 7:0.005003 8:5e-06 10:5e-06 11:0.000213 17:0.001269 18:0.008133 19:2.1e-05 21:0.000293 22:0.235632 23:0.036176 24:2.1e-05 26:0.000496 27:0.058533 28:0.00168 31:3.2e-05 32:0.00016 33:3.2e-05 35:5e-06 37:6.4e-05 38:0.002267 39:0.001221 40:5e-06 42:0.000309 43:0.063243 44:0.009221 47:0.000192 48:0.012656 53:6.4e-05 54:0.000176 57:1.1e-05 58:0.000352 59:0.001067 60:0.000421 62:1.1e-05 63:0.000411 64:0.092907 
1 0 1:0.129082 2:0.005066 5:0.027584 6:0.067257 7:3.7e-05 10:0.001582 11:9e-06 17:0.006994 21:0.050833 22:0.092444 23:0.016554 26:0.013979 27:0.04073 31:9e-06 37:0.011189 38:0.010346 39:2.8e-05 42:0.011414 43:0.061966 44:0.012294 47:0.001386 48:0.088661 58:0.001367 59:0.015468 60:9e-06 63:0.046376 64:0.287331 
1 0 1:0.22573 2:0.063339 3:0.000144 5:0.000282 6:0.018264 7:0.015922 8:0.001772 11:0.008108 12:0.019279 16:0.003718 17:0.003027 18:0.001562 21:0.001207 22:0.045423 23:0.022733 24:6e-06 26:0.000168 27:0.011219 28:0.000589 31:6e-06 32:0.002264 38:0.002072 39:0.000216 42:0.001568 43:0.043946 44:0.074895 47:6e-06 48:0.042859 58:6e-06 59:0.003153 60:0.001435 63:0.000691 64:0.38439 
1 0 1:0.264236 2:0.020482 5:0.00601 6:0.069897 7:0.009056 8:7.2e-05 10:5.1e-05 11:0.005026 12:0.001436 16:0.000287 17:0.039559 18:0.004769 19:1e-05 21:0.008574 22:0.092482 23:0.024677 24:0.000205 26:0.000708 27:0.045477 28:0.013826 31:5.1e-05 32:0.003969 33:1e-05 34:5.1e-05 38:0.026185 39:0.005508 40:1e-05 42:0.004021 43:0.052954 44:0.011097 47:0.000533 48:0.01399 54:3.1e-05 56:1e-05 58:0.000113 59:0.129795 60:0.000636 63:0.037026 64:0.107169 
1 0 1:0.183696 2:0.050608 3:6.9e-05 5:0.009595 6:0.057083 7:0.000491 10:0.000171 11:5.9e-05 17:0.001872 18:0.000939 19:5.3e-05 20:5e-06 21:0.003995 22:0.121589 23:0.029781 24:3.2e-05 26:0.003211 27:0.010208 28:0.000101 32:1.1e-05 34:5e-06 38:0.005072 39:0.001157 40:1.6e-05 42:0.041099 43:0.084496 44:0.003888 47:0.000432 48:0.00208 59:0.003232 60:0.000139 63:0.012736 64:0.37208 
1 0 1:0.177557 2:0.010459 3:2.1e-05 5:0.128933 6:0.353984 7:0.001157 9:5e-06 10:0.022699 11:0.003397 12:5e-06 17:0.004283 18:0.000608 19:8e-05 21:0.003893 22:0.060987 23:0.019365 24:4.3e-05 26:0.008992 27:0.024299 28:0.001403 31:0.000107 32:5.9e-05 34:1.6e-05 35:1.1e-05 36:5e-06 37:0.000261 38:0.014859 39:0.005216 40:0.000859 42:0.004491 43:0.0208 44:0.006613 46:5e-06 47:0.000256 48:0.000779 56:5e-06 58:2.7e-05 59:0.016523 60:0.013819 63:0.003024 64:0.090096 
1 0 1:0.040384 2:0.214037 3:0.077947 4:6.4e-05 5:0.000869 6:0.105739 7:0.007365 8:5.3e-05 9:0.002117 10:0.001317 11:0.000112 13:4.3e-05 14:0.004731 15:1.6e-05 16:1.1e-05 17:0.0068 18:0.001824 19:0.01288 20:0.000283 21:0.003003 22:0.073733 23:0.054544 24:0.010699 25:8e-05 26:0.0048 27:0.042219 28:0.001008 29:5.9e-05 30:0.002224 31:0.000144 32:0.000128 33:0.00112 37:0.023931 38:0.012453 39:0.004843 40:0.001573 41:8.5e-05 42:0.009904 43:0.124219 44:0.027232 46:0.000144 47:0.002011 48:0.01592 53:0.003333 54:0.007616 55:1.6e-05 57:0.000389 58:0.012352 59:0.024405 60:0.002891 62:0.000187 63:0.006971 64:0.049173 
1 0 1:0.055321 2:0.089993 3:0.06252 4:0.003399 5:7e-06 6:0.035848 7:0.122441 8:0.087195 11:0.000508 12:0.022846 16:0.000247 17:0.00012 18:0.002678 19:2.7e-05 20:8.7e-05 21:7e-06 22:0.020181 23:0.034111 24:0.015667 26:2.7e-05 27:0.018598 28:0.098815 32:0.007726 38:0.000401 39:0.000501 43:0.002818 44:0.016328 47:2.7e-05 48:0.106835 60:0.0001 63:7e-06 64:0.194618 
0.09120116526138847 0 1:0.036195 2:0.048736 3:0.003246 4:0.000982 5:0.000347 6:0.058045 7:0.241437 8:0.00414 11:0.011994 12:0.009937 17:0.03747 18:0.001983 19:0.00014 20:8e-05 21:0.020274 22:0.082307 23:0.014952 24:0.000554 26:0.000127 27:0.026839 28:0.009536 32:0.00394 33:0.000134 37:0.023199 38:0.007413 39:0.000354 40:0.000247 41:3.3e-05 42:0.004194 43:0.038652 44:0.034125 47:0.000381 48:0.025336 53:0.03347 54:9.3e-05 57:0.037671 58:0.007426 59:0.002965 60:0.000267 62:0.000287 63:0.0078 64:0.16269 
1 0 1:0.191648 2:0.001243 5:0.068299 6:0.01384 7:0.000128 10:0.000933 11:0.000192 12:1.1e-05 16:5e-06 17:0.007813 18:0.000661 21:0.064784 22:0.104117 23:0.000667 26:0.010667 27:0.006864 28:1.1e-05 37:0.001435 38:0.024331 39:0.000491 40:5e-06 41:1.1e-05 42:0.040075 43:0.075163 44:0.000448 46:5e-06 47:0.003056 48:0.000896 58:3.7e-05 59:0.040261 60:0.000421 62:5e-06 63:0.088491 64:0.252987 
1 0 1:0.001262 2:0.003412 3:0.000487 4:0.00207 5:7e-06 6:0.002544 7:0.00201 8:0.000828 10:0.009182 11:0.001649 12:0.014772 14:0.005917 15:0.011039 16:0.018171 17:6.7e-05 18:0.000254 19:0.000581 20:0.002197 21:2e-05 22:0.018572 23:0.058226 24:0.013109 26:0.001322 27:0.029317 28:0.028094 30:0.000935 31:0.005903 32:0.005476 37:0.003339 38:0.006204 39:0.002958 40:0.016368 41:0.003032 42:0.028956 43:0.091616 44:0.083956 47:0.002344 48:0.05088 53:0.000154 54:1.3e-05 56:0.001897 57:0.011099 58:0.063601 59:0.081612 60:0.01958 62:0.001836 63:0.137574 64:0.155558 
1 0 1:0.361605 2:0.111387 3:0.002224 4:0.000245 5:0.000843 6:0.072443 7:0.097515 8:0.002677 11:0.001557 12:0.004939 17:4.8e-05 18:4.8e-05 21:0.000549 22:0.012341 23:0.026448 24:0.002011 26:0.000277 27:0.033253 28:0.045632 31:4.8e-05 32:0.003472 38:7.5e-05 39:1.1e-05 40:5e-06 42:0.000869 43:0.005168 44:0.024139 47:0.000512 48:0.044283 59:6.9e-05 60:0.000213 63:0.000923 64:0.144171 
1 0 1:0.179321 2:0.209219 3:0.001688 5:3e-05 6:0.12248 7:0.088192 8:0.000318 10:0.000186 11:0.072354 12:0.010679 16:3e-05 17:1.2e-05 18:6e-05 22:0.01224 23:0.006859 24:0.002042 26:0.001387 27:0.065646 28:0.078078 31:0.000637 32:0.036012 42:1.2e-05 43:0.046979 44:0.001862 47:0.007075 48:0.042523 59:9.6e-05 60:6e-06 63:0.003243 64:0.010733 
1 0 1:0.316571 2:0.137477 5:0.000213 6:0.016288 7:4.8e-05 17:0.28424 18:0.007883 19:4.8e-05 21:0.001147 22:0.049147 23:0.071467 24:0.000261 26:0.000405 27:0.003275 28:0.000528 33:0.002624 34:0.000816 37:0.001744 38:0.011723 39:0.008821 40:0.002565 42:5.9e-05 43:0.02264 44:0.048395 47:1.1e-05 48:0.000107 54:9.6e-05 55:0.000187 58:4.8e-05 59:0.008091 60:0.001371 63:0.000165 64:0.001541 
1 0 1:0.546955 2:0.002907 3:0.000112 4:6.9e-05 5:0.019621 6:0.037365 7:0.004768 8:3.7e-05 10:4.3e-05 11:0.006859 12:0.000288 17:0.001403 18:1.1e-05 19:1.1e-05 21:0.002517 22:0.016331 23:0.000432 24:0.000176 26:0.000197 27:0.005467 28:0.007936 32:0.007253 37:5e-06 38:0.000203 42:0.000331 43:0.052597 44:0.000203 47:0.000432 48:0.001056 59:0.012389 60:1.6e-05 63:0.014741 64:0.257269 
1 0 1:0.175008 2:0.005717 3:2.1e-05 5:0.013669 6:0.009536 7:2.7e-05 8:5e-06 10:0.000976 11:0.000208 17:0.011728 18:0.002016 19:1.6e-05 21:0.022107 22:0.249696 23:0.0192 24:1.1e-05 25:1.1e-05 26:0.01088 27:0.06136 28:4.3e-05 31:3.2e-05 37:0.001077 38:0.009723 39:0.009531 40:1.1e-05 41:0.00072 42:0.016048 43:0.162661 44:0.005413 47:0.000416 48:0.001968 53:5e-06 57:0.000133 58:0.000587 59:0.003104 60:0.005328 61:1.6e-05 62:0.000357 63:0.002891 64:0.197744 
1 0 1:0.13744 2:0.024779 5:0.001909 6:0.023632 7:0.000432 17:0.035653 18:0.002 19:2.1e-05 21:0.0212 22:0.145605 23:0.027237 24:0.000224 25:2.7e-05 26:0.001376 27:0.038939 28:0.001163 33:1.1e-05 37:6.9e-05 38:0.017867 39:0.003413 40:0.000107 41:2.7e-05 42:0.009349 43:0.137883 44:0.035787 47:0.001173 48:0.045067 54:5.9e-05 58:0.000309 59:0.042149 60:0.002885 63:0.020363 64:0.221845 
1 0 1:0.24108 2:0.041214 3:5e-06 5:0.041198 6:0.058166 7:0.001401 10:0.000834 11:0.000118 15:3.2e-05 17:0.005465 18:0.002353 21:0.01354 22:0.224358 23:0.01523 24:4.3e-05 26:0.010487 27:0.038904 28:0.001455 31:0.001807 32:0.000834 33:5e-06 34:0.000599 37:6.4e-05 38:0.011989 39:0.00177 42:0.005433 43:0.118995 44:0.009829 47:0.003888 48:0.051519 50:1.1e-05 54:0.000278 55:0.000187 58:1.1e-05 59:0.003578 60:0.000535 63:0.002235 64:0.090551 
1 0 1:0.178502 2:0.004818 5:0.022684 6:0.044617 7:0.00022 10:0.000167 11:2.4e-05 17:0.006565 18:0.001426 21:0.005402 22:0.047722 23:0.004115 26:0.004431 27:0.00922 28:7.7e-05 31:8.1e-05 32:5e-06 33:5e-06 34:1e-05 37:0.0001 38:0.007646 39:0.000742 42:0.026828 43:0.081278 44:0.001478 46:5e-06 47:0.00188 48:0.003804 58:0.000684 59:0.030301 60:0.000187 62:1e-05 63:0.170311 64:0.344656 
1 0 1:0.160789 2:0.003509 3:0.000219 4:3.2e-05 5:0.088939 6:0.099461 7:0.00032 8:2.7e-05 10:0.01768 11:0.0012 12:5e-06 15:1.1e-05 16:1.1e-05 17:0.001392 18:0.000229 19:5e-06 21:0.002096 22:0.238208 23:0.006496 24:2.7e-05 25:1.6e-05 26:0.024912 27:0.049397 28:8.5e-05 31:0.000485 32:0.000149 37:5e-06 38:0.001653 39:0.000341 40:1.1e-05 42:0.002709 43:0.157141 44:0.009803 47:0.002859 48:0.028816 59:0.000891 60:5.3e-05 63:0.003424 64:0.096592 
1 0 1:0.524544 2:0.205392 5:0.000789 6:0.09056 17:0.003365 18:0.000251 21:0.0008 22:0.023712 23:0.029125 26:1.1e-05 27:0.000555 28:5.3e-05 38:0.00112 39:0.000325 42:0.000747 43:0.014549 44:0.000779 47:5e-06 48:0.000112 54:6.9e-05 55:3.2e-05 58:1.1e-05 59:0.017973 60:0.000395 63:0.009307 64:0.075419 
1 0 1:0.208631 2:0.008979 3:1.2e-05 5:0.068132 6:0.105255 7:0.002006 10:0.000438 11:4.8e-05 17:0.000384 18:0.000162 21:0.000949 22:0.095483 23:0.057652 24:0.002036 26:0.003279 27:0.069231 28:0.028691 38:0.000372 39:7.2e-05 42:0.001808 43:0.132234 44:0.01642 47:0.000492 48:0.002673 58:2.4e-05 59:0.062048 60:0.000114 63:0.043003 64:0.089369 
1 0 1:0.314816 2:0.002325 3:0.000117 5:0.053099 6:0.067472 10:0.000352 11:2.1e-05 17:0.002059 18:0.000363 19:2.7e-05 21:0.002677 22:0.087264 23:0.000245 26:0.003141 27:0.002203 31:5e-06 38:0.000576 39:6.4e-05 42:0.000427 43:0.019621 44:0.000149 47:0.000496 48:0.000784 59:6.9e-05 60:2.1e-05 63:0.000837 64:0.440768 
1 0 1:0.242074 2:0.10176 3:0.009809 4:3.1e-05 5:0.000849 6:0.088468 7:0.028757 8:0.000911 10:3.1e-05 11:0.004911 12:0.003858 15:1.8e-05 16:0.002615 17:0.001262 18:0.000566 19:3.1e-05 21:0.002406 22:0.099126 23:0.03584 24:0.000185 26:0.001809 27:0.062375 28:0.023335 31:0.000363 32:0.001674 37:0.000462 38:0.014018 39:0.002246 41:9.2e-05 42:0.007809 43:0.061508 44:0.015655 46:6e-06 47:0.005274 48:0.025742 53:6e-06 54:6e-06 57:0.000135 58:0.001083 59:0.005914 60:0.000345 61:6e-06 62:6e-06 63:0.006726 64:0.139895 
1 0 1:0.097213 2:0.093051 3:0.006589 4:0.002006 5:7.2e-05 6:0.116462 7:0.022228 8:0.000264 10:0.002336 11:0.07161 12:1.8e-05 15:6e-06 17:0.000565 18:0.001838 19:0.001219 20:0.001616 21:7.2e-05 22:0.048559 23:0.065748 24:0.006042 26:9.6e-05 27:0.258318 28:0.023556 31:0.000216 32:0.005477 34:1.2e-05 35:1.8e-05 36:8.4e-05 38:0.00042 39:0.001465 40:0.001243 42:6e-05 43:0.038793 44:0.052661 47:4.2e-05 48:0.037279 55:1.2e-05 56:2.4e-05 59:1.8e-05 60:0.002438 64:0.040252 
1 0 1:0.018144 2:0.027371 5:1.1e-05 6:0.050997 7:0.006128 17:0.000315 18:0.001136 21:5.9e-05 22:0.056661 23:0.237115 27:0.160757 28:0.014464 38:0.000112 39:0.000645 43:0.148261 44:0.097179 48:0.041355 59:0.000128 60:0.000971 64:0.138192 
1 0 1:0.075409 2:0.017579 3:0.001744 5:2.4e-05 6:0.000896 7:0.000122 8:6e-06 17:0.191043 18:0.067902 19:0.034866 21:0.001762 22:0.07575 23:0.075854 24:0.003884 27:0.006079 28:0.000988 38:0.004311 39:0.039854 40:0.000799 42:0.000256 43:0.195329 44:0.060573 47:3e-05 48:0.008585 58:6e-06 59:0.000726 60:0.00236 63:0.000774 64:0.132488 
1 0 1:0.338571 2:0.003125 5:0.015915 6:0.019941 7:9.6e-05 9:5e-06 10:0.001131 11:0.001168 12:2.1e-05 14:5e-06 15:0.000144 16:0.000213 17:0.111264 18:0.072699 19:1.1e-05 21:0.017061 22:0.13144 23:0.002976 24:1.6e-05 25:1.1e-05 26:0.011563 27:0.020336 28:0.000299 29:5e-06 30:5e-06 31:0.001504 32:0.002267 33:0.002272 34:0.006032 35:7.5e-05 37:0.010768 38:0.059317 39:0.019029 40:0.00024 41:5e-06 42:0.003349 43:0.074005 44:0.001083 46:5e-06 47:0.004155 48:0.009429 49:0.000139 50:0.000165 51:0.000133 52:0.000256 53:0.000101 54:0.000795 55:0.001003 56:0.002875 57:5e-06 58:0.000523 59:0.006139 60:0.002923 62:5e-06 63:0.00096 64:0.042421 
1 0 1:0.39289 2:0.000724 3:0.00173 4:0.005442 5:0.177055 6:0.010252 7:0.000405 8:6e-06 9:0.003595 10:0.005571 11:0.001276 15:3.7e-05 16:1.8e-05 17:0.003313 18:1.2e-05 19:0.000748 20:0.004558 21:0.068748 22:0.013626 23:0.001681 24:0.002521 25:0.078485 26:0.035215 27:0.020012 28:0.000926 29:1.2e-05 30:0.000564 31:0.007748 32:0.002301 33:6e-06 37:0.01154 38:0.001209 39:4.9e-05 40:4.9e-05 41:0.008767 42:0.018442 43:0.027693 44:0.003736 45:0.000104 46:0.00084 47:0.008387 48:0.014202 53:2.5e-05 57:0.000853 58:0.002877 59:0.003117 60:6.7e-05 61:5.5e-05 62:0.001362 63:0.018515 64:0.038632 
1 0 1:0.085984 2:0.122987 3:0.002901 4:0.000117 5:0.002181 6:0.091456 7:0.109371 8:0.001328 9:0.007147 10:0.000501 11:0.006939 12:0.039349 15:0.000123 16:0.002992 17:0.040256 18:0.002091 19:0.001589 20:0.000517 21:0.005952 22:0.042437 23:0.082917 24:0.001413 25:0.029968 26:0.000437 27:0.069232 28:0.045248 29:0.000976 31:0.000251 32:0.002912 33:7.5e-05 37:0.038731 38:0.044309 39:0.00376 40:0.005141 41:0.000176 42:0.011115 43:0.033984 44:0.01952 46:5e-06 47:0.000251 48:0.008464 53:0.006661 54:5e-06 57:0.000277 58:0.000235 59:0.000245 60:0.000245 61:5e-06 62:9.1e-05 63:0.000219 64:0.026912 
1 0 1:0.275009 2:0.067748 3:0.000781 5:0.016895 6:0.052541 7:0.048426 17:0.002835 18:0.00027 21:0.019616 22:0.086396 23:0.056264 24:6e-06 25:6e-06 26:0.000805 27:0.007664 28:0.000252 37:0.000126 38:0.042661 39:0.000162 42:0.051718 43:0.026913 44:0.000288 47:0.000282 48:0.001459 58:0.014817 59:0.015477 60:8.4e-05 62:3.6e-05 63:0.015309 64:0.195153 
1 0 1:0.214048 2:0.008763 3:0.000373 5:0.154251 6:0.180085 7:0.001851 10:0.062699 11:0.022016 12:5e-06 15:0.000416 16:1.6e-05 17:0.000368 18:9.1e-05 19:3.2e-05 21:0.002245 22:0.073723 23:0.024133 24:8.5e-05 25:0.000357 26:0.027019 27:0.064704 28:0.002709 31:0.005573 32:0.001509 38:0.001232 39:0.000197 40:1.1e-05 41:0.000155 42:0.001344 43:0.040411 44:0.030981 45:5e-06 46:5.3e-05 47:0.002795 48:0.027819 59:0.00368 60:0.000384 62:1.1e-05 63:0.001584 64:0.042267 
1 0 1:0.162595 2:0.059592 3:0.000523 4:6e-06 5:0.002787 6:0.122006 7:0.050018 8:4.2e-05 10:0.000679 11:0.018132 12:0.000733 15:4.2e-05 16:0.000541 17:0.009598 18:0.001063 19:3.6e-05 20:1.2e-05 21:0.018306 22:0.065646 23:0.071532 24:9.6e-05 25:9e-05 26:0.001231 27:0.136793 28:0.046571 31:0.001189 32:0.01194 33:1.8e-05 37:0.001033 38:0.013423 39:0.001802 40:4.2e-05 41:0.00015 42:0.003297 43:0.02767 44:0.026613 46:2.4e-05 47:0.001141 48:0.052985 54:6e-06 58:0.001664 59:0.004745 60:0.000787 62:5.4e-05 63:0.009099 64:0.073652 
1 0 1:0.343297 2:0.066547 5:0.017015 6:0.044811 7:0.000769 10:0.00409 11:0.00215 12:0.001562 15:4.2e-05 16:0.001634 17:0.01233 18:0.000733 21:0.004186 22:0.103345 23:0.022553 26:0.0223 27:0.050144 28:0.002769 31:0.007297 32:0.00382 33:0.000378 37:0.000619 38:0.020198 39:0.000276 42:0.011219 43:0.055447 44:0.012228 47:0.009423 48:0.021928 53:7.8e-05 54:0.000529 57:6e-06 58:0.003471 59:0.021435 60:0.000264 63:0.014354 64:0.116751 
1 0 1:0.353909 2:0.022821 3:0.000624 5:0.001797 6:0.044053 7:0.004437 8:9.6e-05 10:1.1e-05 11:0.000427 12:7.5e-05 17:8e-05 18:5.3e-05 19:5e-06 21:0.000491 22:0.051803 23:0.01408 24:0.000144 26:0.001115 27:0.028032 28:0.002928 32:0.000144 38:0.000107 39:0.000171 40:3.2e-05 42:0.000293 43:0.050651 44:0.015253 47:0.000933 48:0.047915 59:5.9e-05 60:0.000165 63:0.000213 64:0.357083 
1 0 1:0.038176 2:0.144725 3:3.7e-05 5:0.001051 6:0.207131 7:0.033173 10:0.007189 11:0.009312 12:2.1e-05 14:5e-06 15:0.000987 16:6.4e-05 17:5e-06 18:2.1e-05 21:1.6e-05 22:0.019344 23:0.070581 24:5e-06 26:0.005621 27:0.156288 28:0.017819 31:0.008752 32:0.010517 38:1.1e-05 39:3.2e-05 42:5.9e-05 43:0.02456 44:0.031701 47:0.004539 48:0.103979 59:2.1e-05 60:5e-06 63:2.1e-05 64:0.104229 
1 0 1:0.063978 2:0.002129 3:0.000111 5:0.168457 6:0.330618 7:0.000156 10:0.017884 11:0.00043 17:0.001693 18:1.3e-05 19:0.000918 20:0.001315 21:0.001595 22:0.052578 23:0.032038 24:0.000195 26:0.017611 27:0.049753 28:0.004284 31:0.000352 32:0.000169 38:0.000143 39:0.000299 40:0.000137 42:0.000215 43:0.031921 44:0.051823 47:0.003073 48:0.056126 59:0.001986 60:0.000417 63:0.00737 64:0.100215 
1 0 1:0.289255 2:0.051354 3:0.000133 5:0.000617 6:0.032377 7:0.026932 8:0.000323 11:2.5e-05 12:0.000108 17:0.001652 18:0.000617 21:0.000778 22:0.022729 23:0.040356 24:0.000998 26:0.000286 27:0.071801 28:0.036704 32:0.000323 38:0.001292 39:0.000211 42:0.002646 43:0.070261 44:0.070741 47:0.000348 48:0.070265 59:0.0034 60:0.000671 63:0.002037 64:0.200762 
1 0 1:0.208438 2:0.020084 3:0.012132 4:0.004132 5:0.013898 6:0.066841 7:0.00839 8:0.000414 9:0.003393 10:0.000492 11:0.002733 12:0.008643 16:0.001772 17:0.011856 18:0.000559 19:0.001153 20:0.004955 21:0.006444 22:0.195405 23:0.036655 24:0.01767 25:0.000937 26:0.011069 27:0.034366 28:0.008823 30:0.00612 31:6.6e-05 32:0.005423 37:8.4e-05 38:0.007976 39:0.000973 40:0.001982 42:0.008324 43:0.100841 44:0.012114 46:0.001033 47:0.004102 48:0.003904 55:6e-06 56:1.2e-05 57:5.4e-05 58:0.001237 59:0.004955 60:0.001063 62:2.4e-05 63:0.00976 64:0.148691 
1 0 1:0.605509 2:0.007632 3:0.000245 4:2.1e-05 5:0.032181 6:0.002325 7:3.2e-05 9:0.00048 10:6.9e-05 11:1.1e-05 13:0.000107 14:5e-06 17:0.003776 18:0.002379 19:9.1e-05 20:1.1e-05 21:0.03552 22:0.098635 23:0.002197 24:0.000176 25:0.00192 26:0.023077 27:0.000779 28:1.6e-05 29:0.000176 30:0.002149 31:0.000235 33:4.3e-05 34:2.7e-05 35:1.1e-05 37:0.000603 38:0.003189 39:0.000437 40:6.4e-05 41:0.000491 42:0.00808 43:0.018395 44:0.002272 45:8.5e-05 46:0.004677 47:0.018267 48:0.000741 49:5e-06 50:5e-06 53:5e-06 54:5e-06 56:5e-06 57:3.2e-05 58:2.7e-05 59:0.000352 60:0.000491 61:0.000261 62:0.000389 63:0.010395 64:0.110891 
1 0 1:0.104624 2:0.012256 5:0.002533 6:0.02064 7:4.3e-05 17:0.009328 18:0.000587 21:0.001611 22:0.293973 23:0.007632 26:0.006261 27:0.073739 38:0.004304 39:0.000501 42:0.002496 43:0.372917 44:8e-05 47:0.001701 48:0.001365 59:0.008523 60:0.000123 63:0.013317 64:0.061445 
1 0 1:0.008144 2:0.004971 3:0.001 4:0.001309 5:0.008252 6:0.13982 7:0.018216 8:0.000676 10:0.021259 11:0.054935 12:0.005899 15:7e-06 16:0.000252 17:0.001151 18:0.000266 19:1.4e-05 20:1.4e-05 21:0.001281 22:0.025388 23:0.009763 24:0.001417 26:0.011144 27:0.062302 28:0.058871 31:0.000554 32:0.005863 33:7e-06 34:7e-06 37:1.4e-05 38:0.000748 39:0.000317 40:1.4e-05 42:0.00064 43:0.021727 44:0.005741 47:0.000288 48:0.006978 54:7e-06 59:0.002899 60:0.000475 63:0.085237 64:0.432129 
1 0 1:0.209778 2:0.073694 3:0.012811 4:0.001351 5:0.00976 6:0.059934 7:0.051069 8:0.00815 10:0.011393 11:0.054511 12:0.009399 15:0.015748 16:0.000649 17:0.004156 18:0.005117 19:8.4e-05 20:6e-06 21:0.005051 22:0.110072 23:0.006829 24:0.000264 26:0.000529 27:0.025429 28:0.006486 32:0.00024 37:0.000156 38:0.00385 39:0.000294 41:1.2e-05 42:0.004589 43:0.016961 44:0.000402 47:0.000396 48:0.00021 59:0.005688 60:8.4e-05 63:0.005237 64:0.27961 
1 0 1:0.092043 2:0.034337 5:0.00777 6:0.081262 7:0.00184 10:1.1e-05 11:1.1e-05 17:0.015 18:0.000428 21:0.015733 22:0.079342 23:0.055765 24:0.000305 26:0.004203 27:0.100679 28:0.006898 31:5e-06 33:1.1e-05 37:0.003182 38:0.008674 39:7.5e-05 41:0.000139 42:0.014973 43:0.030428 44:0.016086 47:0.001032 48:0.003567 53:8.6e-05 54:1.1e-05 57:4.8e-05 58:0.257032 59:0.007497 60:3.2e-05 62:0.010642 63:0.094909 64:0.055947 
1 0 1:0.159877 2:0.142053 3:0.007424 6:0.063019 7:0.127989 8:0.001227 11:0.005979 12:0.002443 18:6.4e-05 19:5e-06 22:0.003664 23:0.042779 24:0.001611 27:0.034261 28:0.266277 32:0.003077 39:5e-06 43:0.000624 44:0.02376 48:0.079077 60:1.6e-05 64:0.034768 
1 0 1:0.033701 2:0.048624 3:0.011931 5:8e-05 6:0.011248 7:5e-06 17:0.028261 18:0.002352 19:0.004773 20:3.7e-05 21:0.027739 22:0.250587 23:0.032805 24:0.002501 26:0.000464 27:0.034619 28:2.7e-05 37:0.005483 38:0.022949 39:0.001344 40:6.4e-05 42:0.018944 43:0.136699 44:0.012144 47:0.0004 48:0.011701 58:0.000368 59:0.041701 60:0.001104 63:0.03048 64:0.226864 
1 0 1:0.151739 2:0.019637 5:0.009824 6:0.072805 7:2.1e-05 17:0.002453 18:0.004597 21:0.004875 22:0.207893 23:0.098789 26:0.007115 27:0.106085 37:6.4e-05 38:0.014144 39:0.001611 42:0.032037 43:0.109797 44:0.001499 47:0.000133 48:6.9e-05 54:5e-06 58:0.001941 59:0.023077 60:0.001499 62:7.5e-05 63:0.0308 64:0.097413 
1 0 1:0.058251 2:0.001061 3:8.5e-05 4:3.2e-05 5:0.009387 6:0.03064 7:0.000763 8:6.9e-05 10:0.001008 11:0.001189 12:0.000533 16:7.5e-05 17:0.004245 18:7.5e-05 21:0.006085 22:0.197152 23:0.024085 24:3.2e-05 26:0.031163 27:0.168992 28:0.000485 31:1.1e-05 32:0.000608 33:4.8e-05 37:0.001643 38:0.001253 39:0.000107 42:0.045264 43:0.158251 44:0.001248 47:0.001216 48:0.001019 53:1.1e-05 59:0.000704 60:1.6e-05 63:0.001883 64:0.251312 
1 0 1:0.155611 2:0.092976 3:0.032955 4:0.033125 5:0.005669 6:0.131552 7:0.040853 8:0.056331 10:0.000149 11:0.000427 12:0.000869 17:0.00496 18:0.000651 21:0.007387 22:0.111408 23:0.075712 24:0.006251 25:2.1e-05 26:0.023248 27:0.066341 28:0.0124 31:0.0008 32:0.000208 33:5.3e-05 37:0.001499 38:0.005264 39:0.001808 40:1.1e-05 41:0.000331 42:0.00432 43:0.052192 44:0.010299 46:1.1e-05 47:0.027483 48:0.004512 53:6.4e-05 54:9.1e-05 57:0.001765 58:0.001211 59:0.002091 60:0.000432 61:0.000752 62:0.000304 63:0.005605 64:0.02 
1 0 1:3.7e-05 2:1.2e-05 6:3.1e-05 10:0.000174 17:6.2e-05 18:0.000156 21:0.000685 22:0.335664 23:0.006361 26:0.086081 27:0.070611 31:0.063103 32:0.000847 37:4.4e-05 38:0.01762 39:0.007059 40:2.5e-05 41:6e-06 42:0.020984 43:0.114785 44:0.015277 47:0.073109 48:0.040305 58:0.005246 59:0.018548 60:0.00248 62:0.000648 63:0.034773 64:0.085265 
1 0 1:0.271301 2:0.004752 3:0.000853 5:0.003531 6:0.006891 7:3.7e-05 17:0.055712 18:0.027408 19:0.000272 21:0.005563 22:0.145472 23:0.008715 24:0.001552 26:0.010891 27:0.033989 28:3.7e-05 31:5.9e-05 34:0.000128 35:1.6e-05 37:5e-06 38:0.033243 39:0.006213 40:0.000869 42:0.005291 43:0.071904 44:0.008501 47:0.005643 48:0.018357 54:0.00104 55:0.001637 56:0.000171 58:0.000133 59:0.023221 60:0.009493 63:0.002933 64:0.234165 
1 0 1:0.040808 2:0.013042 3:0.001 4:0.00021 5:0.000611 6:0.043443 7:0.012832 8:1.2e-05 11:5.4e-05 17:0.002784 18:7.2e-05 19:6.6e-05 20:1.2e-05 21:0.031162 22:0.073024 23:0.102766 24:0.000114 26:0.000234 27:0.108599 28:4.2e-05 37:7.2e-05 38:0.013766 39:8.4e-05 40:1.8e-05 41:0.000108 42:0.002383 43:0.147329 44:0.024174 46:1.2e-05 47:0.007766 48:0.079539 54:6e-06 57:0.000156 58:0.000299 59:9.6e-05 60:8.4e-05 61:6.6e-05 62:0.000425 63:0.000605 64:0.292126 
1 0 1:0.603515 2:0.116971 5:0.005675 6:0.184907 7:0.001323 11:5e-06 17:0.003093 18:0.000453 21:0.003477 22:0.059205 23:0.010411 26:1.6e-05 27:0.001888 28:0.004507 32:3.2e-05 38:5e-06 39:1.6e-05 42:5e-06 43:0.000384 44:0.000352 48:0.002 64:0.00176 
1 0 1:0.069606 2:0.01128 5:0.002868 6:0.0652 7:0.002843 11:0.0004 12:5.5e-05 21:0.003754 22:0.433606 23:0.0144 26:0.088665 27:0.044203 28:0.005994 32:0.000154 38:0.000234 39:1.2e-05 42:0.003403 43:0.089391 44:0.018671 47:0.016757 48:0.047938 59:6e-06 60:6e-06 63:4.3e-05 64:0.080511 
1 0 1:0.438468 2:0.006498 3:6e-06 5:0.036949 6:0.044553 7:0.000426 9:0.00021 10:0.00397 11:0.00421 12:3e-05 15:0.000456 16:0.000342 17:0.036384 18:0.009237 21:0.002246 22:0.104078 23:0.00355 24:6e-06 25:3.6e-05 26:0.002751 27:0.024366 28:0.000126 31:0.054252 32:0.005177 33:0.005423 34:0.005694 37:0.00027 38:0.03961 39:0.005526 42:0.001664 43:0.113099 44:0.002709 47:0.002318 48:0.03642 49:0.000132 50:0.000517 53:1.2e-05 54:0.000697 55:0.00018 58:1.8e-05 59:0.005009 60:0.000192 63:0.00015 64:0.00203 
1 0 1:0.174053 2:0.03032 3:0.000437 5:0.002181 6:0.022475 10:1.6e-05 17:0.004635 18:0.001771 21:0.003397 22:0.212555 23:0.021227 24:5e-06 26:0.010955 27:0.052021 28:6.4e-05 31:5.3e-05 38:0.006683 39:0.001232 42:0.008416 43:0.173323 44:0.012779 47:0.047547 48:0.131685 59:0.001787 60:0.000811 63:0.002773 64:0.0768 
1 0 1:0.219099 2:0.01656 3:0.00104 5:0.01224 6:0.051232 7:0.003616 10:0.000603 11:0.005909 12:0.000139 17:0.009499 18:0.002064 19:0.000373 21:0.008469 22:0.186533 23:0.016507 26:0.004448 27:0.032907 28:0.000293 31:0.000101 32:0.000773 33:0.000597 37:0.005093 38:0.013584 39:0.003797 41:0.000608 42:0.016544 43:0.112629 44:0.000992 47:0.000923 48:0.002219 53:5e-06 54:3.2e-05 57:0.000347 58:0.006107 59:0.006139 60:0.000208 62:1.6e-05 63:0.008709 64:0.249045 
1 0 1:0.856337 22:0.039663 43:0.036858 64:0.067142 
1 0 1:0.02201 2:0.00201 3:1.7e-05 5:8.4e-05 6:0.003568 7:0.00072 17:0.001675 18:0.000184 21:0.00072 22:0.017018 23:0.022563 24:0.000134 26:3.4e-05 27:0.063166 28:0.040888 38:0.002094 39:0.000402 40:1.7e-05 42:0.000419 43:0.027337 44:0.063769 48:0.005863 59:0.185142 60:0.016265 63:0.025159 64:0.498744 
1 0 1:0.114127 2:0.07697 5:7.6e-05 6:0.026067 7:0.003802 17:0.004929 18:0.004747 21:0.000898 22:0.133079 23:0.131388 26:0.000334 27:0.062308 28:0.000726 32:0.000239 38:0.008664 39:0.012246 42:0.00106 43:0.108463 44:0.044379 47:0.000697 48:0.046891 58:2.9e-05 59:0.037205 60:0.001805 63:0.012112 64:0.166759 
1 0 1:0.026501 2:0.005083 3:0.003147 5:0.001125 6:0.093611 7:0.000763 10:2.1e-05 11:0.001573 12:0.001141 16:5e-06 17:0.005232 18:0.001131 19:7.5e-05 21:0.000832 22:0.308821 23:0.008459 26:0.003659 27:0.01104 28:0.000496 32:8.5e-05 38:0.089408 39:0.002688 42:0.028085 43:0.122005 44:0.000656 47:3.2e-05 48:0.000933 59:0.016576 60:0.000245 63:0.009429 64:0.257141 
1 0 1:0.169557 2:0.005323 5:0.00303 6:0.015425 7:0.003126 11:0.000659 17:0.025772 18:0.00012 21:0.028952 22:0.152958 23:0.013174 26:0.001731 27:0.021084 28:0.001198 38:0.002042 39:0.00015 42:0.013946 43:0.078275 44:0.025156 47:0.01106 48:0.016353 59:0.000449 60:1.8e-05 63:0.003868 64:0.406575 
1 0 1:0.107526 2:0.000979 3:0.00045 5:0.024721 6:0.148691 7:0.002559 10:0.000228 11:0.003021 12:4.2e-05 17:0.002306 18:0.000456 19:0.000432 20:1.8e-05 21:0.020841 22:0.158745 23:0.003051 24:7.2e-05 26:0.034468 27:0.021231 28:0.000186 31:3e-05 32:0.000216 37:0.000721 38:0.016505 39:0.000571 40:0.000102 42:0.036613 43:0.057177 44:0.00161 47:0.002036 48:0.00388 53:4.2e-05 58:0.000577 59:0.02448 60:0.000414 63:0.072006 64:0.252997 
1 0 1:0.398987 2:0.11168 3:0.000709 4:2.7e-05 5:0.061205 6:0.198139 7:0.025109 8:0.000805 9:6.9e-05 10:0.000507 11:0.000533 12:3.7e-05 16:5e-06 17:0.008048 18:0.000597 21:0.007264 22:0.075899 23:0.038053 24:0.000117 25:0.000128 26:0.001808 27:0.032507 28:0.001221 31:8.5e-05 32:3.2e-05 33:0.002848 37:0.001733 38:0.004277 39:0.000112 41:1.1e-05 42:0.002736 43:0.009893 44:0.003707 47:0.000395 48:0.002347 53:0.000112 54:3.7e-05 57:4.3e-05 58:0.000491 59:0.000944 60:1.6e-05 62:1.6e-05 63:0.000427 64:0.006283 
1 0 1:0.469038 22:0.269847 43:0.069354 64:0.191761 
1 0 1:0.099424 2:0.006736 3:0.006533 4:0.00472 5:0.034827 6:0.076144 7:0.000651 8:0.000181 10:0.004117 11:9.1e-05 17:0.002512 18:0.000368 19:0.000555 20:0.000352 21:0.007765 22:0.130587 23:0.006832 24:0.002059 25:2.1e-05 26:0.03576 27:0.023877 28:0.000197 31:5.3e-05 37:1.6e-05 38:0.011339 39:0.000432 40:0.000379 41:5e-06 42:0.043051 43:0.124976 44:0.005739 47:0.009941 48:0.007051 58:0.000101 59:0.012432 60:0.000379 63:0.156448 64:0.183349 
1 0 1:0.077643 2:0.198352 3:0.014603 4:0.001173 5:0.02672 6:0.191595 7:0.052875 8:0.000523 9:1.1e-05 10:0.001893 11:0.010992 12:0.000608 17:0.002069 18:0.00064 19:0.000283 20:9.1e-05 21:0.005029 22:0.119712 23:0.045179 24:0.000827 25:7.5e-05 26:0.031808 27:0.054827 28:0.004549 31:0.000352 32:0.000405 33:2.7e-05 34:1.1e-05 37:0.000512 38:0.007045 39:0.000437 41:0.000107 42:0.013285 43:0.044597 44:0.000187 47:0.000341 48:0.000416 58:0.006603 59:0.004517 60:5.9e-05 62:0.004165 63:0.007904 64:0.066955 
1 0 1:0.081893 2:0.008848 5:0.000309 6:0.006368 17:0.014043 18:0.002427 21:0.003755 22:0.292555 23:0.032795 26:0.033179 27:0.025856 28:8e-05 33:0.000219 34:2.1e-05 37:0.000549 38:0.024213 39:0.009605 40:0.001605 42:0.016203 43:0.201733 44:0.030325 47:0.010352 48:0.026533 54:0.002603 55:0.005728 56:0.001253 58:0.001861 59:0.010464 60:0.009349 63:0.003088 64:0.142187 
1 0 1:0.087835 2:0.240619 3:7.5e-05 5:0.001307 6:0.095173 7:0.001275 8:3.7e-05 11:5.9e-05 12:4.8e-05 17:0.010939 18:0.000784 19:1.6e-05 21:0.000261 22:0.123728 23:0.199275 24:7.5e-05 26:0.000517 27:0.139019 28:0.002107 32:0.000389 38:0.010763 39:0.000517 42:0.000928 43:0.076107 44:0.000555 47:0.000213 48:0.000571 55:1.1e-05 59:0.002501 60:0.000176 63:0.001157 64:0.002965 
0.3152272352022205 0 1:0.136923 2:0.017933 3:7e-06 5:0.000843 6:0.022268 7:0.005645 8:7e-06 10:9.4e-05 11:0.003605 12:0.000769 15:6.7e-05 16:0.000548 17:0.089592 18:0.026856 19:0.0001 21:0.002194 22:0.073846 23:0.022462 24:8.7e-05 26:0.000254 27:0.009619 28:0.003171 31:0.000161 32:0.001418 33:0.018207 34:0.01899 35:0.000167 37:0.000863 38:0.034656 39:0.037084 40:0.000268 42:0.000488 43:0.027077 44:0.006274 47:0.000154 48:0.001853 49:0.008669 50:0.003311 51:9.4e-05 53:0.001023 54:0.01598 55:0.04408 56:0.000214 58:0.00196 59:0.152321 60:0.169164 63:0.000361 64:0.038274 
1 0 1:0.451074 2:0.017241 3:1.2e-05 5:0.037086 6:0.092222 7:0.000426 10:0.001704 11:0.000358 17:0.002877 18:0.000265 19:1.2e-05 21:0.002883 22:0.194173 23:0.009623 26:0.013327 27:0.042309 28:1.9e-05 31:0.000136 32:1.9e-05 38:0.000716 39:4.9e-05 40:6e-06 42:0.00063 43:0.070951 44:0.003494 47:0.001648 48:0.004796 59:0.000901 60:9.3e-05 63:0.001278 64:0.049673 
1 0 1:0.032352 2:0.006981 3:0.00032 4:5.9e-05 5:0.00872 6:0.016555 7:0.000219 8:1.6e-05 10:0.000496 11:0.000144 17:0.003563 18:0.002336 19:0.000117 20:0.000224 21:0.022757 22:0.251125 23:0.017845 24:0.001291 25:0.000379 26:0.010165 27:0.050896 28:0.000656 30:1.6e-05 31:5e-06 32:8.5e-05 38:0.009659 39:0.000811 40:0.003408 42:0.012021 43:0.092677 44:0.017461 46:0.000149 47:0.002309 48:0.005317 59:0.001216 60:0.000133 63:0.08752 64:0.339995 
1 0 1:0.17218 2:0.057754 3:0.000541 4:0.000264 5:0.012486 6:0.045946 7:0.006535 8:0.00018 10:6e-06 11:0.000511 12:0.001015 17:0.000787 18:9.6e-05 19:7.2e-05 20:1.8e-05 21:0.002553 22:0.126414 23:0.035075 24:0.000498 26:0.010721 27:0.100583 28:0.005502 32:0.002102 38:0.000535 39:0.000108 40:4.2e-05 42:0.000895 43:0.126372 44:0.012637 47:0.000919 48:0.088306 59:0.047183 60:0.000156 63:0.007303 64:0.133706 
1 0 1:0.271853 2:0.021231 3:3.2e-05 5:0.006423 6:0.075442 7:0.002103 9:6e-06 10:0.000192 11:2.6e-05 17:0.013147 18:0.000276 19:0.000128 21:0.009006 22:0.149462 23:0.029506 25:1.3e-05 26:0.004026 27:0.119705 31:1.3e-05 37:0.000224 38:0.002147 39:9e-05 42:0.001231 43:0.127173 44:0.000833 47:0.012045 48:0.008186 59:0.000859 60:0.000109 63:0.003756 64:0.140756 
1 0 1:0.261184 2:0.004887 3:0.002879 4:0.001071 5:0.024539 6:0.007532 7:0.000624 8:0.000567 9:5.7e-05 10:0.000496 11:7e-06 17:0.007823 18:0.000752 19:0.000241 20:0.000177 21:0.015411 22:0.178369 23:0.010106 24:0.001596 25:0.000241 26:0.032929 27:0.012525 28:0.001255 30:3.5e-05 31:0.000617 32:2.8e-05 38:0.005965 39:0.00078 40:0.000142 42:0.032759 43:0.106915 44:0.005277 46:0.000475 47:0.031433 48:0.012681 59:0.004582 60:0.000241 63:0.010752 64:0.22205 
1 0 1:0.216885 2:0.064005 3:0.002661 4:5e-06 5:0.000309 6:0.048661 7:0.005877 8:0.000448 10:5e-06 11:5.9e-05 12:0.000352 17:0.001488 18:0.001488 19:0.001947 20:0.000683 21:0.002272 22:0.119701 23:0.050971 24:0.006245 26:0.000192 27:0.052789 28:0.003728 32:5.3e-05 38:0.004245 39:0.000544 40:0.002581 42:0.003051 43:0.028043 44:0.010299 47:5.9e-05 48:0.004725 58:9.6e-05 59:0.000656 60:0.000373 63:0.085467 64:0.279035 
1 0 1:0.033808 2:0.009424 3:0.000128 4:5e-06 5:0.015552 6:0.106053 7:0.018459 8:0.000155 10:5.9e-05 11:0.004544 12:0.000528 17:0.000331 18:0.000779 19:1.1e-05 21:0.004192 22:0.305696 23:0.163024 24:0.000475 25:0.000171 26:0.005387 27:0.100267 28:0.014619 31:4.8e-05 32:0.000608 37:0.000117 38:0.002795 39:0.014203 40:0.000117 41:0.001605 42:0.020624 43:0.114059 44:0.035493 47:0.000363 48:0.008341 58:5e-06 59:0.001083 60:0.00152 63:0.000816 64:0.014539 
1 0 1:0.243317 2:0.048245 5:0.056907 6:0.110352 7:0.005072 9:0.022779 10:0.046043 11:0.003504 14:0.001872 15:0.000437 17:0.001189 18:0.00072 21:0.002272 22:0.086219 23:0.035552 25:2.1e-05 26:0.064949 27:0.080331 28:0.000315 30:0.014 31:0.02904 32:0.000379 38:0.000624 39:0.000165 42:0.002587 43:0.059291 44:0.014555 46:0.001691 47:0.037867 48:0.014773 59:0.000112 60:8.5e-05 63:0.000736 64:0.014 
1 0 1:0.005153 2:0.001934 3:6e-06 5:0.000432 6:0.017988 7:0.017423 8:1.8e-05 10:0.001177 11:0.029922 12:0.000985 16:6e-06 17:0.023351 18:0.00012 21:0.015856 22:0.112072 23:0.008252 24:1.8e-05 26:0.001508 27:0.177087 28:0.114679 31:1.8e-05 32:0.000444 38:0.030402 39:0.005081 42:0.006637 43:0.178432 44:0.129598 47:9e-05 48:0.042985 59:0.011724 60:0.000925 63:0.001441 64:0.064234 
1 0 1:0.000387 2:0.001057 5:6e-06 6:0.003444 7:0.000109 11:6e-06 17:2.4e-05 18:4.2e-05 21:1.8e-05 22:0.266628 23:0.03087 24:4.8e-05 27:0.02452 28:0.028943 32:0.003456 38:0.013148 39:0.001746 42:0.000381 43:0.034894 44:0.029112 47:1.2e-05 48:0.066211 59:0.000785 60:0.000157 63:0.000514 64:0.49348 
1 0 1:0.048479 2:0.037846 5:6e-06 6:0.053822 7:0.009391 8:6e-06 11:0.001107 12:6e-06 21:6e-06 22:0.021882 23:0.079249 26:6e-06 27:0.109509 28:0.081083 32:0.001456 43:0.007757 44:0.081355 47:4.7e-05 48:0.045308 63:0.001355 64:0.420325 
1 0 1:0.380348 2:0.109766 3:0.000757 5:0.000805 6:0.028541 7:0.0063 11:6e-06 17:0.015477 18:0.004006 19:0.00012 21:0.006541 22:0.122006 23:0.074474 26:0.000336 27:0.008895 28:0.000174 32:1.8e-05 34:6e-06 37:0.001357 38:0.010589 39:0.000889 41:6.6e-05 42:0.007045 43:0.021339 44:0.002787 47:0.000174 48:0.000931 54:3.6e-05 55:1.8e-05 57:2.4e-05 58:0.003495 59:0.003886 60:0.004817 62:0.000991 63:0.004186 64:0.178793 
1 0 1:0.094619 2:0.02179 3:0.00355 4:0.001333 5:0.004018 6:0.021604 7:0.000697 8:0.000775 10:6e-06 11:1.8e-05 17:0.033718 18:0.003814 19:0.000691 20:0.00042 21:0.022949 22:0.063309 23:0.014835 24:0.00445 26:0.00182 27:0.010739 28:0.002138 31:0.000126 32:0.001087 33:1.2e-05 37:0.009568 38:0.063135 39:0.001712 40:0.000396 42:0.031357 43:0.026318 44:0.009508 47:0.000805 48:0.04045 53:1.2e-05 54:0.013327 58:0.210751 59:0.206577 60:0.000348 63:0.026523 64:0.050697 
1 0 1:0.186997 2:0.014306 3:6e-06 5:0.002709 6:0.109279 7:0.003586 10:0.003003 11:0.026835 12:0.00015 15:0.000402 16:0.000871 17:0.055219 18:0.019387 19:1.8e-05 21:0.001135 22:0.140264 23:0.011556 24:1.8e-05 26:0.024084 27:0.251333 28:0.000739 31:0.000607 32:0.00239 33:0.008306 34:0.006072 35:6.6e-05 37:0.000204 38:0.022114 39:0.009658 40:5.4e-05 42:0.000354 43:0.066673 44:0.002595 47:0.001003 48:0.007664 49:0.000841 50:0.000781 51:4.8e-05 53:4.8e-05 54:0.001381 55:0.001556 56:0.001159 58:4.2e-05 59:0.002577 60:0.00576 63:0.00015 64:0.006 
1 0 1:0.164803 2:0.092205 3:0.000879 4:0.001752 5:3.2e-05 6:0.007978 7:0.005326 8:0.000189 10:4.3e-05 11:1.1e-05 12:1.1e-05 17:0.035067 18:0.051283 19:0.002016 20:0.005305 21:0.002 22:0.146323 23:0.072744 24:0.011827 26:0.000803 27:0.016345 28:0.01752 31:2.7e-05 32:0.000146 33:5e-06 36:6.5e-05 37:5e-06 38:0.020647 39:0.01407 40:0.008442 42:0.001779 43:0.060415 44:0.05276 47:0.000183 48:0.027655 58:5e-06 59:0.012895 60:0.006868 63:0.008518 64:0.151051 
1 0 1:0.105355 2:0.157616 3:0.024635 6:0.001904 7:0.003685 17:0.002843 18:0.005563 19:0.005616 20:2.1e-05 21:0.000229 22:0.013616 23:0.037813 24:9.1e-05 27:0.000464 28:8e-05 33:0.000261 34:4.8e-05 35:0.000101 36:5.9e-05 37:0.000421 38:0.023755 39:0.013925 40:0.000128 42:0.000672 43:0.060416 44:0.010043 48:0.000507 53:5e-06 54:0.000192 55:2.1e-05 58:0.000565 59:0.047099 60:0.026555 63:0.009888 64:0.445808 
1 0 1:0.556677 2:0.006608 3:0.000485 4:3.7e-05 5:0.033152 6:0.015781 7:0.000683 8:5e-06 10:0.000235 11:0.000133 12:2.7e-05 17:0.003776 18:0.000683 19:5e-06 20:1.1e-05 21:0.007867 22:0.059104 23:0.001627 24:2.7e-05 26:0.002837 27:0.002752 28:0.000389 31:5.3e-05 32:4.3e-05 37:5e-06 38:0.006245 39:0.000768 42:0.007675 43:0.044203 44:0.003333 47:0.000603 48:0.004213 59:0.004453 60:0.00056 63:0.004464 64:0.23048 
1 0 1:0.203575 2:0.073133 3:5.9e-05 5:0.000224 6:0.054702 7:0.006507 10:0.000466 11:0.007422 12:2.4e-05 15:6e-06 17:0.000319 18:0.018549 22:0.110413 23:0.088177 24:1.2e-05 26:0.000189 27:0.096136 28:0.00508 31:0.000407 32:0.003068 38:0.000189 39:0.01305 40:6e-06 43:0.082909 44:0.049569 47:0.000755 48:0.084826 59:0.00013 60:0.001947 63:1.2e-05 64:0.098142 
1 0.06338029753755488 1:0.362245 2:0.007952 3:0.000347 5:0.015371 6:0.063941 7:0.000645 17:0.001173 18:2.1e-05 21:0.012747 22:0.197653 23:0.004976 26:0.008693 27:0.053611 28:0.0012 32:1.6e-05 38:0.00016 39:2.1e-05 42:0.012709 43:0.076677 44:0.005115 47:0.001749 48:0.0076 59:0.001179 60:5e-06 63:0.017701 64:0.146491 
1 0 1:0.308216 2:0.13409 3:7.2e-05 5:5.4e-05 6:0.127129 7:0.02803 8:9.6e-05 10:1.2e-05 11:0.002474 12:0.001562 18:1.8e-05 22:0.018541 23:0.149363 24:7.2e-05 26:6e-05 27:0.045658 28:0.048961 31:6e-06 32:0.005303 43:0.001039 44:0.005327 47:0.000108 48:0.044775 60:6e-06 64:0.079027 
1 0 1:0.650512 2:0.076064 3:0.000747 5:0.002565 6:0.061621 7:0.013765 11:2.1e-05 17:0.029515 18:0.014784 21:0.012789 22:0.088795 23:0.006443 26:0.000352 27:0.001419 28:1.1e-05 33:4.8e-05 34:1.1e-05 37:0.000411 38:0.003717 39:0.00088 42:0.000315 43:0.017083 44:0.001301 47:0.000139 48:0.002229 50:5e-06 53:8e-05 54:0.000117 55:4.3e-05 57:5e-06 58:0.00024 59:0.000624 60:0.000256 63:0.000165 64:0.012928 
1 0 1:0.129472 2:0.026224 3:8e-05 5:0.002512 6:0.052171 7:0.00296 8:3.2e-05 11:0.000741 12:3.7e-05 17:0.0004 18:0.0008 21:0.000955 22:0.230784 23:0.056917 24:0.001109 26:0.00128 27:0.057157 28:0.005157 32:2.7e-05 38:0.003925 39:0.001851 42:0.007195 43:0.198939 44:0.038197 47:0.000949 48:0.013909 59:0.013408 60:0.001605 63:0.02144 64:0.129765 
1 0 1:0.345181 2:0.053834 3:0.005505 4:0.000994 5:0.00471 6:0.053148 7:0.006414 8:0.000385 9:0.00017 10:0.000276 11:0.000353 12:0.000718 15:4.5e-05 16:1.2e-05 17:0.03531 18:0.003481 19:0.000296 20:0.002925 21:0.014686 22:0.136783 23:0.024146 24:0.000349 25:0.000264 26:0.006803 27:0.044503 28:0.018093 30:0.003201 31:0.000357 32:0.001602 33:4e-06 37:9.7e-05 38:0.055331 39:0.001164 40:1.2e-05 42:0.003712 43:0.029335 44:0.019793 46:0.000767 47:0.001773 48:0.055615 58:0.000247 59:0.001757 60:0.000215 62:4e-06 63:0.019882 64:0.045748 
1 0 1:0.186337 2:0.007544 3:0.000254 5:0.018124 6:0.005243 7:0.004538 9:0.000107 10:0.001408 11:0.000249 17:0.008929 18:0.000278 21:0.016325 22:0.024249 23:0.015527 24:0.001189 25:0.000692 26:0.020207 27:0.023864 28:0.00542 31:0.013278 32:0.009059 37:0.000391 38:0.002544 39:0.000479 40:5.9e-05 42:0.004195 43:0.021734 44:0.02113 47:0.012988 48:0.18813 58:7.1e-05 59:0.001396 60:0.000231 62:6e-06 63:0.001521 64:0.382302 
1 0 1:0.080785 2:0.003123 5:0.003104 6:0.136262 7:0.000765 10:0.010857 11:0.005758 17:5.8e-05 18:2.4e-05 21:0.05815 22:0.248789 23:0.068334 26:0.024717 27:0.18954 28:0.000421 37:5e-06 38:0.001448 39:0.000107 42:0.006102 43:0.099879 44:0.024567 47:0.001341 48:0.008131 59:0.005245 60:3.9e-05 63:0.010896 64:0.011554 
1 0 1:0.047544 2:0.000114 5:0.000961 6:0.000228 7:1.8e-05 11:6.6e-05 12:7.2e-05 16:0.000204 17:0.037243 18:4.8e-05 19:6e-06 21:0.050937 22:0.039622 23:0.000138 24:1.2e-05 26:0.001946 27:9.6e-05 28:5.4e-05 32:4.8e-05 33:0.002907 37:0.012961 38:0.031279 39:3.6e-05 40:1.2e-05 42:0.134829 43:0.006384 44:0.000102 47:6e-05 48:4.8e-05 53:3.6e-05 54:1.2e-05 57:1.8e-05 58:0.020565 59:0.014631 60:3e-05 63:0.476847 64:0.119886 
1 0 1:0.394539 2:0.140448 3:0.003685 4:5.9e-05 5:0.003797 6:0.03424 7:0.0016 8:0.000619 10:9.1e-05 11:0.000101 12:0.000144 17:0.0036 18:0.004528 19:0.000613 21:0.003429 22:0.124635 23:0.025781 24:2.1e-05 25:5e-06 26:0.003579 27:0.007595 28:0.000309 30:5e-06 31:5.3e-05 32:9.1e-05 33:0.000213 34:2.1e-05 37:0.000923 38:0.006331 39:0.006107 40:3.7e-05 41:3.7e-05 42:0.006107 43:0.071099 44:0.005541 46:1.1e-05 47:0.002971 48:0.002213 54:5e-06 55:5e-06 58:0.000128 59:0.004496 60:0.001904 63:0.003536 64:0.134747 
1 0 1:0.096245 2:0.003787 5:0.051397 6:0.106709 7:0.000843 10:0.009072 11:0.001264 12:0.000133 15:7.5e-05 16:0.000261 17:0.001515 18:0.00016 19:1.1e-05 21:0.007403 22:0.114656 23:0.002523 24:1.1e-05 26:0.091253 27:0.053557 28:0.001195 31:0.00096 32:0.0012 37:0.000656 38:0.090485 39:5.3e-05 40:5e-06 42:0.0504 43:0.019365 44:0.003035 47:0.004475 48:0.019248 54:0.000133 58:0.008453 59:0.004736 60:5.9e-05 63:0.237728 64:0.016939 
1 0 1:0.098619 2:0.063013 3:0.000197 5:0.09536 6:0.169573 7:0.005952 9:0.012181 10:3.2e-05 11:0.00016 13:1.6e-05 17:0.005072 18:0.001163 19:0.000144 21:0.001899 22:0.049557 23:0.035893 24:5e-06 25:0.013104 26:0.013771 27:0.059376 28:0.000475 29:0.002464 30:0.004107 31:5e-06 32:0.00016 33:0.000581 34:1.6e-05 37:0.003525 38:0.003563 39:0.000779 41:0.000528 42:0.006085 43:0.175936 44:0.001045 45:6.9e-05 46:0.009627 47:0.007957 48:0.012 53:0.001221 54:0.000181 55:2.1e-05 57:0.0016 58:0.001808 59:0.006677 60:9.6e-05 61:0.001472 62:0.001152 63:0.010848 64:0.120912 
1 0 1:0.642029 2:0.073264 3:0.005577 4:1e-05 5:0.000101 6:0.001495 7:5.3e-05 11:1e-05 12:5e-06 17:0.001813 18:0.01438 19:0.014524 20:0.00474 21:0.000947 22:0.043452 23:0.002418 24:0.00424 26:3.8e-05 27:0.000418 28:0.000159 32:1e-05 33:3.4e-05 34:1e-05 35:1.9e-05 36:0.000115 37:0.000111 38:0.002538 39:0.001327 40:0.02587 41:1.4e-05 42:0.001245 43:0.005197 44:0.005567 47:0.000106 48:0.000413 53:1e-05 54:4.3e-05 56:5e-06 58:0.000409 59:0.002125 60:0.003716 62:1.9e-05 63:0.002269 64:0.139154 
1 0 1:0.042708 2:0.00723 5:0.010796 6:0.040013 7:0.002801 17:0.012894 18:0.000429 21:0.006681 22:0.15892 23:0.051712 24:4e-06 26:0.004159 27:0.270655 28:0.001615 38:0.007372 39:0.000642 40:4e-06 42:0.005296 43:0.178783 44:0.08065 47:0.000398 48:0.070438 58:4e-06 59:0.007345 60:0.000208 63:0.000938 64:0.037301 
1 0 1:0.125285 2:0.089947 3:0.001371 4:4.3e-05 5:0.058837 6:0.138219 7:0.006549 8:3.7e-05 10:0.014091 11:0.008496 12:0.001013 14:2.1e-05 15:0.001264 16:0.000923 17:0.001349 18:0.000656 19:3.7e-05 20:1.1e-05 21:0.002384 22:0.128053 23:0.07304 24:0.001387 26:0.012859 27:0.047291 28:0.004176 31:0.005541 32:0.015568 33:3.2e-05 34:2.1e-05 37:0.000688 38:0.008603 39:0.002363 40:3.7e-05 41:1.6e-05 42:0.011723 43:0.068219 44:0.005264 47:0.001685 48:0.033909 53:0.000469 54:0.000128 55:2.7e-05 57:0.003275 58:0.001973 59:0.037472 60:0.000245 62:1.1e-05 63:0.014597 64:0.070795 
1 0 1:0.456654 2:0.034425 5:0.011183 6:0.086774 7:0.034817 9:1.6e-05 10:0.030474 11:0.008632 12:1.6e-05 15:0.000153 22:0.003569 23:0.009744 24:9.8e-05 26:0.006005 27:0.049591 28:0.138447 31:0.007134 32:0.003297 42:5e-06 43:0.004474 44:0.001139 47:0.009657 48:0.055008 63:5e-06 64:0.048681 
1 0 1:0.090384 2:0.015856 3:0.000469 4:5.9e-05 5:0.000229 6:0.101456 7:0.064491 8:5e-06 10:4.8e-05 11:0.000421 12:2.1e-05 16:4.8e-05 17:0.002203 18:0.000688 19:2.1e-05 21:0.00016 22:0.106 23:0.116059 24:5.3e-05 25:5e-06 26:0.000517 27:0.205344 28:0.058304 31:4.8e-05 32:0.000149 34:1.6e-05 35:5e-06 37:5.3e-05 38:0.00056 39:0.000736 41:1.6e-05 42:0.000144 43:0.150165 44:0.019632 46:4.3e-05 47:9.6e-05 48:0.019253 56:5e-06 59:0.002187 60:0.001872 63:0.000779 64:0.041397 
1 0 1:0.043403 2:0.009688 3:0.007698 4:0.01197 5:0.026435 6:0.026206 7:0.00578 8:0.001532 9:0.01137 10:0.011228 11:0.004295 12:3.2e-05 13:0.012894 14:0.021603 15:0.017394 16:8e-06 17:0.000205 18:4.7e-05 19:0.000142 20:0.000111 21:0.005369 22:0.058721 23:0.006869 24:0.000758 25:2.4e-05 26:0.028338 27:0.100276 28:0.010178 29:4.7e-05 30:0.006538 31:0.140411 32:0.002724 36:8e-06 37:0.001366 38:0.000624 39:0.000213 40:0.000245 41:0.000647 42:0.00758 43:0.161461 44:0.063071 47:0.00668 48:0.027185 57:3.2e-05 58:0.006024 59:0.00559 60:0.001137 62:0.000118 63:0.014039 64:0.131686 
1 0 1:0.173728 2:0.210443 3:0.008688 5:1.1e-05 6:0.117888 7:0.099195 8:1.6e-05 10:2.7e-05 11:0.00048 17:5e-06 18:1.1e-05 22:0.03232 23:0.014181 24:0.000112 26:1.6e-05 27:0.023051 28:0.000389 31:2.1e-05 32:0.000123 38:1.1e-05 39:6.9e-05 43:0.013243 44:0.007024 47:4.3e-05 48:0.01664 59:5e-06 60:3.2e-05 63:5e-06 64:0.282224 
1 0 1:0.091163 2:0.211131 3:0.004443 5:0.002085 6:0.115877 7:0.009792 11:2.7e-05 17:0.000656 18:0.000325 19:1.1e-05 21:0.000459 22:0.093371 23:0.121515 24:0.000309 26:0.000443 27:0.039467 28:0.036021 32:0.000192 38:0.00128 39:0.000752 42:0.001051 43:0.108421 44:0.017547 47:0.000261 48:0.018512 59:0.067275 60:0.000421 63:0.031435 64:0.02576 
1 0 1:0.638829 2:0.000775 5:0.004631 6:0.002739 7:0.00018 10:3.6e-05 11:0.000486 12:2.4e-05 16:0.000168 17:0.076709 18:0.064673 19:6e-06 21:0.00024 22:0.023664 23:0.000859 26:0.000168 27:0.007916 28:6e-06 32:1.2e-05 33:0.000775 34:0.009976 35:0.001111 37:7.8e-05 38:0.049784 39:0.053568 42:6e-05 43:0.017982 44:0.000577 47:0.00012 48:0.000613 49:6e-06 50:0.000174 51:0.000336 54:0.000252 55:0.010138 59:0.031219 60:0.000318 63:3.6e-05 64:0.000757 
1 0 1:0.083046 2:0.017561 3:0.000177 5:0.068405 6:0.144135 7:0.002954 9:8.4e-05 10:0.021941 11:0.000532 15:1.7e-05 18:5.1e-05 19:5.9e-05 21:0.000852 22:0.076768 23:0.021612 24:3.4e-05 25:5.1e-05 26:0.115586 27:0.121257 28:0.000641 30:8.4e-05 31:0.002118 32:5.9e-05 38:2.5e-05 39:5.1e-05 42:0.002447 43:0.084591 44:0.006633 46:8.4e-05 47:0.032346 48:0.022928 59:0.001249 60:0.000101 63:0.003688 64:0.167831 
1 0 1:0.638949 2:0.055051 3:0.00024 5:0.008384 6:0.130492 7:6.6e-05 8:6e-06 17:9e-05 18:6.6e-05 21:0.00021 22:0.096162 23:0.005976 24:6e-06 26:0.0003 27:0.011634 42:1.8e-05 43:0.045874 44:0.005718 48:0.000751 64:6e-06 
1 0 1:0.106251 2:0.002406 3:2.4e-05 5:0.012519 6:0.03317 7:4.8e-05 10:0.003684 11:0.001158 17:0.012955 18:0.000806 21:0.021081 22:0.181606 23:0.029116 24:0.000281 26:0.00923 27:0.047922 28:0.007606 31:4.2e-05 32:6e-06 37:3e-05 38:0.009021 39:0.000597 42:0.00477 43:0.116991 44:0.022 47:0.000591 48:0.012269 58:6e-06 59:0.005815 60:6.6e-05 63:0.112006 64:0.245928 
1 0 1:0.03429 2:0.013929 3:0.004279 4:0.000437 5:0.000803 6:0.006858 7:0.026694 8:0.004923 10:0.000322 11:0.002322 12:0.00165 15:0.000344 16:9.3e-05 17:0.008699 18:0.000448 19:0.00041 20:0.00023 21:0.000689 22:0.010989 23:0.043301 24:0.00265 26:0.000934 27:0.188443 28:0.07018 31:5e-06 32:0.000388 33:0.000257 34:5e-06 35:5e-06 37:0.000803 38:0.004383 39:0.000492 40:0.000388 42:0.036557 43:0.10971 44:0.008377 47:0.00029 48:0.004027 58:0.000672 59:0.210923 60:0.000552 63:0.168601 64:0.029645 
1 0 1:0.12848 2:0.012133 3:0.000155 5:0.041467 6:0.088501 7:0.00096 8:6.9e-05 10:0.007568 11:0.000464 12:3.7e-05 15:2.1e-05 17:0.003979 18:0.001776 19:8.5e-05 20:1.1e-05 21:0.007163 22:0.20272 23:0.028181 24:0.000149 26:0.065888 27:0.13696 28:0.001707 31:0.008635 32:0.000576 33:6.4e-05 34:3.2e-05 37:0.000549 38:0.005701 39:0.001664 40:0.000128 42:0.002187 43:0.086939 44:0.023941 47:0.010128 48:0.021787 49:5e-06 54:0.000165 55:2.7e-05 58:0.000149 59:0.008139 60:0.002272 63:0.001291 64:0.097147 
1 0 1:0.184589 2:0.073718 3:1.8e-05 5:0.000583 6:0.053345 7:0.000529 17:0.024168 18:0.002745 21:0.005183 22:0.181628 23:0.003778 24:1.2e-05 26:0.000402 27:0.002793 38:0.013351 39:0.001063 42:0.005417 43:0.14842 44:0.002985 47:9e-05 48:0.003465 59:0.028949 60:0.000595 63:0.005928 64:0.256246 
1 0 1:0.415437 2:0.092672 3:0.000792 5:1.6e-05 6:0.008311 7:0.000448 10:5.5e-05 11:0.000716 12:2.7e-05 15:4.4e-05 16:9.8e-05 17:0.007454 18:0.179011 19:0.017301 20:8.7e-05 22:0.045683 23:0.050044 24:0.013634 26:1.1e-05 27:0.003738 28:0.000896 31:0.000142 32:0.002268 34:0.012962 35:0.019475 36:0.000131 38:0.000913 39:0.037568 40:0.024869 43:0.001383 44:0.013421 47:1.1e-05 48:0.002842 50:0.001098 51:0.003295 52:0.000175 54:4.4e-05 55:0.004022 56:0.011432 59:2.2e-05 60:0.00776 64:0.019694 
1 0 1:0.226287 2:0.041904 3:3.2e-05 5:0.002032 6:0.063585 7:0.000191 11:0.00016 17:0.00317 18:0.000984 19:1.1e-05 21:0.000798 22:0.353165 23:0.029947 26:0.000633 27:0.030761 28:2.7e-05 38:0.001005 39:0.000202 42:0.000431 43:0.096138 44:0.000867 47:0.000473 48:0.003234 59:0.000452 60:8e-05 63:9.6e-05 64:0.143335 
1 0 1:0.166208 2:0.14856 3:0.033125 4:0.011216 6:0.122299 7:0.146229 8:0.018955 10:4.8e-05 11:0.013749 12:0.006261 15:2.1e-05 16:0.000208 18:0.00048 20:5e-06 21:5e-06 22:0.003499 23:0.017088 24:0.006992 27:0.049147 28:0.073685 31:5e-06 32:0.008155 39:5e-06 40:5e-06 43:0.000859 44:0.010613 48:0.066928 64:0.095648 
1 0 1:0.219835 2:0.121595 3:0.001451 5:0.008603 6:0.056027 7:0.021088 11:2.7e-05 12:5e-06 17:0.000352 18:0.003061 19:0.003771 20:5e-06 21:0.002752 22:0.039781 23:0.114821 24:0.000544 25:1.1e-05 26:6.9e-05 27:0.023093 28:0.010795 32:0.000123 35:5e-06 37:0.000155 38:0.005851 39:0.005616 40:0.000912 41:5e-06 42:0.098032 43:0.049856 44:0.017211 47:3.2e-05 48:0.002203 58:0.057845 59:0.080944 60:0.010752 63:0.002592 64:0.040181 
1 0 1:0.365744 2:0.011472 5:0.005371 6:0.074384 7:5e-06 10:1.1e-05 17:1.1e-05 21:0.000224 22:0.055899 23:0.010405 26:0.000256 27:0.021813 43:0.055051 44:0.023504 47:0.000107 48:0.131573 64:0.244171 
1 0 1:0.190299 2:0.043307 3:0.00224 4:0.000293 5:0.000304 6:0.046219 7:0.002549 8:6.9e-05 11:6.4e-05 17:0.000352 18:0.001755 19:0.000341 21:0.000107 22:0.102907 23:0.144779 24:0.000192 26:0.000155 27:0.110427 28:0.002667 32:0.000181 34:5e-06 38:0.000432 39:0.001248 40:4.3e-05 42:0.000123 43:0.060016 44:0.131381 47:0.000197 48:0.028853 58:2.1e-05 59:0.00072 60:0.000725 63:0.000389 64:0.12664 
1 0 1:0.255488 2:0.190987 3:4.8e-05 4:5e-06 5:0.000576 6:0.129317 7:0.000587 17:5.3e-05 18:0.0004 19:6.4e-05 20:5e-06 21:4.8e-05 22:0.12432 23:0.142917 24:0.000181 26:0.000245 27:0.100928 28:0.006901 37:5e-06 38:3.7e-05 39:5.9e-05 40:2.1e-05 42:3.7e-05 43:0.018752 44:0.026469 47:3.7e-05 48:0.00112 63:7.5e-05 64:0.000315 
1 0 1:0.089819 2:0.033494 3:0.003518 4:1.2e-05 5:0.0199 6:0.223169 7:0.022896 8:0.005418 10:0.024229 11:0.026462 12:0.010189 16:0.000378 17:0.004165 18:0.000771 21:0.002811 22:0.066896 23:0.027984 24:0.00145 26:0.029466 27:0.167831 28:0.020137 31:0.000707 32:0.00751 33:4e-06 34:6.8e-05 37:1.2e-05 38:0.001494 39:0.001052 42:0.000133 43:0.073116 44:0.015859 47:0.013888 48:0.057783 54:4e-06 55:4.8e-05 58:4e-06 59:0.000197 60:0.000775 63:0.000141 64:0.046213 
1 0 1:0.000907 2:0.002132 3:3.6e-05 6:0.005147 11:6e-06 18:0.000276 19:0.001201 20:0.000252 22:0.029015 23:0.09821 24:0.006474 26:5.4e-05 27:0.067327 28:0.000456 32:0.000102 39:0.000559 40:0.019171 43:0.028084 44:0.07582 47:1.8e-05 48:0.128054 60:0.006366 64:0.53033 
1 0 1:0.486469 2:0.018661 5:0.039515 6:0.027467 7:9.1e-05 9:0.003275 10:0.001136 11:0.00072 12:1.1e-05 14:0.000288 15:0.000123 16:0.000197 17:0.096016 18:0.055824 21:0.001099 22:0.068101 23:0.002 25:3.2e-05 26:0.000912 27:0.003227 28:3.7e-05 30:0.000107 31:0.000203 32:0.000304 33:0.015429 34:0.005232 37:0.000133 38:0.057856 39:0.034555 41:5e-06 42:0.000325 43:0.023019 44:0.000197 47:0.003744 48:0.001275 49:0.046032 50:3.2e-05 53:3.2e-05 54:0.002389 55:0.002112 58:2.7e-05 59:0.001035 60:0.000107 63:5.9e-05 64:0.000592 
1 0 1:0.423605 2:0.013429 5:0.000165 6:0.055291 7:0.001856 8:5e-06 10:1.6e-05 11:6.9e-05 12:1.1e-05 14:1.1e-05 15:5e-06 16:5e-06 17:0.001045 18:4.3e-05 21:0.000443 22:0.043675 23:0.040283 24:1.1e-05 26:0.000592 27:0.044651 28:0.034507 30:5e-06 31:4.3e-05 32:0.000267 33:0.000181 34:5e-06 37:0.001797 38:0.002549 39:7.5e-05 42:0.001008 43:0.015216 44:0.001344 47:0.009365 48:0.010891 53:0.001072 54:0.003803 55:5e-06 57:2.7e-05 58:0.005717 59:0.005909 60:0.001648 62:5.9e-05 63:0.009488 64:0.269808 
1 0 1:0.095779 2:0.004274 3:1.4e-05 5:0.005201 6:0.011476 7:0.000774 8:4.2e-05 10:2.8e-05 11:0.001004 12:0.000265 16:9.1e-05 17:0.00396 18:0.00076 21:0.0073 22:0.181811 23:0.011811 26:0.014063 27:0.071487 28:0.004448 31:0.00039 32:0.008625 38:0.000112 39:2.1e-05 42:0.003814 43:0.082497 44:0.009768 47:0.004448 48:0.04129 58:1.4e-05 59:0.010159 63:0.024529 64:0.399745 
1 0 1:0.421331 22:0.286622 43:0.054221 60:6e-06 64:0.23782 
1 0 1:0.201527 2:0.21307 3:0.000756 5:0.005677 6:0.027498 7:0.003209 8:0.000104 9:5e-06 10:1.5e-05 17:0.015338 18:0.073279 19:0.001005 21:0.007607 22:0.055308 23:0.056692 24:0.005567 25:0.000209 26:0.003592 27:0.014224 28:0.011438 31:5e-06 32:8.5e-05 33:5e-05 34:0.000194 35:1.5e-05 37:6.5e-05 38:0.004144 39:0.013468 40:0.002373 41:2.5e-05 42:0.003532 43:0.03601 44:0.06307 47:0.000229 48:0.006811 58:0.000234 59:0.005428 60:0.007781 63:0.004164 64:0.156199 
1 0 1:0.178523 2:0.033658 3:0.001868 5:0.052402 6:0.093069 7:0.00242 9:1.2e-05 10:0.024432 11:0.002589 15:0.000168 17:0.008222 18:0.005796 19:0.000444 21:0.008883 22:0.094997 23:0.040498 24:7.2e-05 26:0.028102 27:0.09964 28:0.000583 31:0.000847 32:8.4e-05 33:0.000174 37:0.003201 38:0.008072 39:0.000547 40:6e-05 41:1.8e-05 42:0.013441 43:0.109844 44:0.020649 47:0.006691 48:0.022721 53:6e-06 54:0.000198 57:4.2e-05 58:0.00385 59:0.008811 60:0.000264 61:4.8e-05 62:8.4e-05 63:0.031285 64:0.092685 
1 0 1:0.727509 2:0.000587 5:0.156507 6:0.000619 7:5e-06 9:0.00296 17:0.00032 18:0.000347 21:0.062987 22:0.005616 25:0.018165 26:0.021685 27:2.7e-05 41:0.000325 42:0.001659 43:2.1e-05 45:5e-06 46:0.000224 47:0.000309 61:5e-06 62:1.1e-05 63:0.000107 
1 0 1:0.061904 2:0.027803 5:5.9e-05 6:0.1416 7:0.023845 17:0.001029 18:0.000133 21:0.000933 22:0.060149 23:0.1028 26:0.009424 27:0.084357 28:0.000181 31:3.2e-05 38:0.000896 39:0.000597 42:0.002955 43:0.06616 44:0.050576 47:0.043088 48:0.208523 59:0.00048 60:0.000107 63:0.012283 64:0.100085 
1 0 1:0.283905 2:0.024267 3:0.000237 4:0.001614 5:0.050202 6:0.081211 7:0.018386 8:0.000386 9:0.000866 10:0.05968 11:0.010154 12:1.2e-05 14:0.00092 15:0.017994 16:0.010184 17:0.003163 18:0.000243 19:1.2e-05 21:0.004148 22:0.032617 23:0.030677 24:0.000688 25:1.2e-05 26:0.021561 27:0.038184 28:0.001507 30:1.2e-05 31:0.007786 32:0.021887 33:0.000136 34:0.00019 37:6.5e-05 38:0.00349 39:0.000237 42:0.003858 43:0.117039 44:0.003774 47:0.017163 48:0.018439 54:0.000172 55:0.000119 58:4.7e-05 59:0.008309 60:0.000528 62:2.4e-05 63:0.019359 64:0.084534 
1 0 1:0.293892 2:0.056667 3:0.000378 5:6e-06 6:0.015922 7:0.020667 8:0.001682 11:0.000156 12:0.002324 17:0.043742 18:0.17409 21:0.000174 22:0.30964 23:0.024889 24:0.000841 27:0.004589 28:0.016438 32:6.6e-05 38:0.000162 39:0.002252 43:0.010961 44:0.007886 48:0.002871 59:0.000324 60:0.001075 64:0.008306 
1 0 1:0.067824 2:0.156133 3:0.003019 5:0.001072 6:0.044032 7:0.042128 8:0.000576 11:9.1e-05 12:0.001237 17:5e-06 21:0.000752 22:0.057243 23:0.073808 24:1.1e-05 26:8.5e-05 27:0.518939 28:0.026853 32:9.6e-05 38:5e-06 39:5e-06 42:5e-06 43:0.000859 44:0.002245 48:0.001861 63:5e-06 64:0.001109 
1 0 1:0.025707 2:0.001131 3:2.7e-05 5:0.026853 6:0.042533 7:2.1e-05 10:0.008891 11:0.000427 17:0.00432 18:0.000784 19:0.000203 20:2.7e-05 21:0.004965 22:0.055867 23:0.002309 24:2.1e-05 25:1.1e-05 26:0.034912 27:0.091947 28:6.4e-05 31:0.03656 32:0.000992 35:2.1e-05 36:0.000149 37:0.001712 38:0.013024 39:0.000731 40:0.001413 41:2.1e-05 42:0.005787 43:0.047051 44:0.003189 46:2.7e-05 47:0.055403 48:0.133157 54:2.7e-05 56:0.001659 58:0.000976 59:0.014965 60:0.001307 62:0.000117 63:0.068795 64:0.311899 
1 0 1:0.137483 2:0.049701 3:0.000619 5:0.000459 6:0.046693 7:0.001072 17:0.027349 18:0.00504 19:5e-06 21:0.015819 22:0.318315 23:0.035867 24:3.2e-05 26:0.000187 27:0.018651 28:0.000368 37:1.6e-05 38:0.008811 39:0.001504 41:2.7e-05 42:0.010325 43:0.085728 44:0.006331 47:3.2e-05 48:0.004048 58:2.7e-05 59:0.035653 60:0.000123 63:0.016379 64:0.173339 
1 0 1:0.139728 2:0.065792 3:0.00232 4:0.000219 5:0.012075 6:0.113824 7:0.081445 8:0.001568 10:0.003056 11:0.000981 12:0.001429 17:0.009339 18:0.000677 19:5e-06 21:0.022155 22:0.121317 23:0.065824 24:0.001275 26:0.004795 27:0.063211 28:0.049083 31:4.8e-05 32:0.001909 33:1.1e-05 37:0.000672 38:0.029029 39:0.001323 42:0.014219 43:0.046613 44:0.03808 47:0.000357 48:0.029792 53:5e-06 54:7.5e-05 58:0.00192 59:0.009408 60:0.000219 62:2.1e-05 63:0.004736 64:0.061445 
1 0 1:0.183718 2:0.020306 3:0.000787 4:0.001231 5:0.000426 6:0.035405 7:0.005039 8:4.2e-05 11:7.2e-05 12:7.8e-05 17:0.016895 18:0.000288 19:1.2e-05 21:0.003423 22:0.133285 23:0.041417 24:0.000198 26:0.001147 27:0.098252 28:0.003748 32:2.4e-05 33:0.03621 37:0.036102 38:0.011243 39:0.000174 41:3e-05 42:0.177802 43:0.085447 44:0.008204 47:0.000426 48:0.006853 53:7.8e-05 57:3.6e-05 58:0.051928 59:0.027285 60:5.4e-05 63:0.000757 64:0.011574 
0.4126912930552265 0 1:0.277061 2:0.270549 5:0.000123 6:0.088971 17:0.000496 18:0.001755 21:0.000523 22:0.192357 23:0.012016 26:0.001067 27:0.000373 37:9.6e-05 38:0.123349 39:0.004523 42:0.022805 43:0.003179 44:1.6e-05 53:5e-06 58:0.000437 59:0.000235 62:5e-06 63:2.7e-05 64:3.2e-05 
1 0 1:0.243133 2:0.091033 3:0.001158 5:0.000258 6:0.008825 7:0.000525 17:0.000425 18:0.00075 19:0.000275 20:3.3e-05 21:0.000767 22:0.068533 23:0.026158 24:3.3e-05 26:0.000642 27:0.002967 37:9.2e-05 38:0.001608 39:0.001833 40:1.7e-05 42:0.002783 43:0.052408 44:0.001283 47:0.002742 48:0.000392 59:0.005525 60:0.000333 63:0.018883 64:0.466583 
1 0 1:0.261157 2:0.013733 3:0.001925 4:0.00176 5:0.029984 6:0.037915 7:0.002517 8:0.000656 9:9.6e-05 10:0.012011 11:0.00304 12:0.000197 14:0.000576 15:0.003371 16:0.002144 17:0.009013 18:0.003381 19:0.001365 20:0.001067 21:0.005675 22:0.073147 23:0.02656 24:0.009776 25:1.1e-05 26:0.012027 27:0.028725 28:0.00584 30:0.000235 31:0.016773 32:0.009232 33:5e-06 36:0.000949 37:0.000117 38:0.008021 39:0.00432 40:0.006624 42:0.003525 43:0.036085 44:0.015931 46:1.1e-05 47:0.006869 48:0.047957 52:3.7e-05 53:5e-06 54:8.5e-05 55:5e-06 56:0.006224 58:0.0008 59:0.014421 60:0.008528 63:0.001691 64:0.263877 
1 0 1:0.023824 2:0.050395 3:0.006197 4:0.000229 5:0.000277 6:0.138736 7:0.075099 8:0.008917 10:4.8e-05 11:0.002645 12:4.8e-05 17:8e-05 18:0.000192 19:0.000997 20:0.000437 21:0.001333 22:0.082384 23:0.208027 24:0.038741 25:0.001205 26:0.012715 27:0.128827 28:0.028064 32:0.000128 33:1.1e-05 36:3.7e-05 37:0.000251 38:5.9e-05 39:0.000277 40:0.003515 41:0.006997 42:0.000955 43:0.053381 44:0.046043 45:1.1e-05 46:0.000171 47:0.000224 48:0.03968 56:2.1e-05 59:5e-06 60:0.000587 62:1.1e-05 63:6.9e-05 64:0.038149 
1 0 1:0.159961 2:0.070406 3:0.000411 6:0.153723 7:0.03275 8:0.000296 11:3.3e-05 12:9e-05 17:0.005194 18:0.000181 19:8e-06 21:0.001109 22:0.03021 23:0.100296 24:9e-05 26:8e-06 27:0.077794 28:0.003838 33:0.000164 34:8e-06 37:0.002449 38:0.00798 39:5.8e-05 42:0.000288 43:0.022896 44:0.06158 47:2.5e-05 48:0.155219 54:0.003427 58:0.003369 59:0.000756 60:4.1e-05 63:9e-05 64:0.105251 
1 0 1:0.208603 2:0.275205 3:0.002752 6:0.066197 7:0.169131 8:3.2e-05 11:0.019547 12:0.008085 17:0.00016 18:0.000517 19:1.1e-05 22:0.00568 23:0.066464 24:4.3e-05 27:0.047077 28:0.051504 32:0.000805 33:0.000165 34:1.6e-05 39:0.000133 43:0.002192 44:0.013824 48:0.023883 49:0.000395 50:5e-06 64:0.037573 
1 0 1:0.579515 2:0.104635 3:0.000299 4:5e-06 5:0.001419 6:0.017616 7:0.000123 8:5e-06 17:0.045989 18:0.028299 19:0.000309 20:0.000325 21:0.006133 22:0.088704 23:0.007499 24:0.000171 26:0.000395 27:0.002512 28:6.9e-05 33:0.00472 34:4.8e-05 35:1.1e-05 36:0.000133 37:0.003189 38:0.01152 39:0.003141 40:0.000544 41:1.1e-05 42:0.004107 43:0.021077 44:0.00752 47:8.5e-05 48:0.000843 49:0.000101 53:0.002272 54:0.000443 55:1.6e-05 57:0.001168 58:0.002091 59:0.006021 60:0.002107 61:0.000704 62:0.000464 63:0.004085 64:0.039557 
1 0 1:0.226739 2:0.046757 3:0.003159 4:0.000378 5:0.005009 6:0.042625 7:0.012949 8:0.023159 10:0.008246 11:0.001375 12:0.00045 14:1.2e-05 15:0.000492 16:3e-05 17:0.004733 18:0.003646 19:1.2e-05 21:0.001249 22:0.043273 23:0.041982 24:0.005724 26:0.013676 27:0.022042 28:0.030799 30:1.2e-05 31:0.00561 32:0.001634 33:0.000126 37:0.001526 38:0.00639 39:0.001207 40:1.2e-05 42:0.005069 43:0.042294 44:0.023459 46:2.4e-05 47:0.022354 48:0.031183 53:0.000511 54:0.000168 57:1.2e-05 58:0.001718 59:0.005634 60:0.001652 62:6e-06 63:0.011664 64:0.299219 
1 0 1:0.423867 2:0.235349 3:0.001685 4:0.000629 5:0.000768 6:0.054037 7:0.006267 8:2.1e-05 11:0.000165 12:0.000405 16:3.2e-05 17:0.009787 18:0.019221 19:0.000491 20:2.1e-05 21:0.007445 22:0.126096 23:0.024101 24:8e-05 25:0.000336 26:0.000267 27:0.002725 28:0.000976 32:0.001376 34:1.6e-05 37:2.1e-05 38:0.005947 39:0.002261 40:3.2e-05 41:0.000976 42:0.004736 43:0.025877 44:0.007184 45:5e-06 46:5.3e-05 47:6.9e-05 48:0.001643 55:1.1e-05 58:0.000443 59:0.003131 60:0.001712 62:0.000261 63:0.005029 64:0.024443 
1 0 1:0.174331 2:0.036912 3:0.004427 4:0.001333 5:0.003184 6:0.006795 7:0.090208 8:0.000528 17:0.006432 18:0.063557 19:0.002384 20:0.117467 21:0.012133 22:0.247275 23:0.0128 24:0.002544 25:0.005563 26:0.002251 27:0.013408 28:0.001888 38:7.5e-05 39:0.000757 40:5.3e-05 42:0.000309 43:0.03872 44:0.013333 47:3.2e-05 48:0.012197 59:2.1e-05 60:0.000373 63:5e-06 64:0.128704 
1 0 1:0.398011 2:0.002261 5:0.000832 6:0.005029 7:0.000112 10:0.000112 11:0.000597 12:2.7e-05 15:2.1e-05 16:0.000128 17:0.040224 18:0.069104 21:0.00168 22:0.086869 23:0.002453 24:5e-06 26:0.004171 27:0.016827 28:0.000101 31:0.000416 32:0.000901 33:0.001504 34:0.002832 37:0.000176 38:0.032123 39:0.018139 40:1.6e-05 42:0.001397 43:0.109563 44:0.000325 47:0.014763 48:0.048139 49:0.000197 50:1.6e-05 53:3.7e-05 54:0.00192 55:0.002784 56:0.000123 58:0.000155 59:0.043381 60:0.001355 63:0.005488 64:0.085685 
1 0 1:0.082011 2:0.045952 3:0.00664 4:0.001195 5:0.000245 6:0.052128 7:0.002736 8:0.003547 11:8.5e-05 12:0.000624 16:5e-06 17:0.004027 18:0.001221 19:0.000805 20:0.000464 21:0.00536 22:0.084283 23:0.214848 24:0.005493 25:3.2e-05 26:0.000208 27:0.163813 28:0.003573 32:3.2e-05 33:8e-05 34:5e-06 37:0.003173 38:0.009456 39:0.0028 40:0.002293 41:0.00352 42:0.005669 43:0.094011 44:0.104955 45:5e-06 46:5e-06 47:3.7e-05 48:0.020192 53:0.000187 54:6.4e-05 57:0.001067 58:0.000347 59:0.00056 60:0.001888 61:0.00024 62:0.000203 63:0.000235 64:0.06968 
1 0 1:0.090635 2:0.020416 3:2.7e-05 5:0.019691 6:0.020048 7:6.9e-05 10:0.000603 11:1.6e-05 17:0.008896 18:0.109093 19:0.022827 20:5.9e-05 21:0.015739 22:0.122768 23:0.024651 24:0.000272 25:5e-06 26:0.009963 27:0.020592 28:0.002149 31:0.000432 32:2.1e-05 33:5.3e-05 34:0.003477 35:0.029611 36:0.011045 37:4.3e-05 38:0.015141 39:0.043728 40:0.011792 42:0.008955 43:0.101867 44:0.023056 47:0.003611 48:0.006192 50:5e-06 51:0.000112 52:0.003579 54:8.5e-05 55:0.001563 56:0.018155 58:0.000608 59:0.034987 60:0.016405 62:5e-06 63:0.109936 64:0.067019 
1 0 1:0.230027 2:0.004208 3:0.001152 4:0.000107 5:0.027243 6:0.065264 7:0.000203 8:1.1e-05 9:4.3e-05 10:0.023504 11:0.009547 14:2.1e-05 15:0.000347 17:0.044736 18:0.000805 19:0.000683 20:0.000203 21:0.024165 22:0.114432 23:0.00248 24:0.000416 25:2.7e-05 26:0.020411 27:0.083131 28:0.000213 29:1.1e-05 30:0.000341 31:0.02504 32:0.008571 33:0.000635 34:7.5e-05 35:1.1e-05 37:0.00216 38:0.021019 39:0.000277 40:0.000485 41:5e-06 42:0.032523 43:0.055931 44:0.002155 45:5e-06 46:4.3e-05 47:0.008672 48:0.027605 50:5e-06 53:0.000331 54:0.000192 55:5.3e-05 56:5e-06 57:0.000101 58:0.002261 59:0.006213 60:0.000373 62:6.4e-05 63:0.007515 64:0.143947 
1 0 1:0.030349 2:0.000231 4:6.2e-05 5:0.005489 6:0.001695 7:0.000368 8:0.000555 10:3.7e-05 11:0.000125 12:0.000312 16:0.000399 17:0.003925 18:2.5e-05 20:6e-06 21:0.039308 22:0.025452 23:0.00048 24:0.000673 25:0.000393 26:0.02243 27:0.00724 28:0.000779 31:3.1e-05 32:0.000966 33:1.2e-05 37:0.010486 38:0.002336 39:1.2e-05 41:0.008891 42:0.097514 43:0.167302 44:0.001558 45:6e-06 46:0.000106 47:0.03696 48:0.021682 54:6e-06 57:0.00015 58:0.049047 59:0.001421 60:3.7e-05 61:6e-06 62:0.008629 63:0.329009 64:0.123502 
1 0 1:0.367248 2:0.027472 3:0.004213 4:0.000347 5:0.020411 6:0.01592 7:0.002608 8:0.000235 9:5e-06 10:6.4e-05 11:6.9e-05 12:0.000176 16:0.000245 17:0.000885 18:0.001387 19:0.000309 20:3.2e-05 21:0.003067 22:0.095712 23:0.013483 24:0.000517 25:1.6e-05 26:0.032811 27:0.040981 28:0.002048 30:5e-06 31:0.000363 32:0.001227 37:0.000128 38:0.000731 39:0.000267 40:6.9e-05 42:0.005211 43:0.045968 44:0.006885 47:0.017515 48:0.025792 54:1.1e-05 57:2.7e-05 58:0.000389 59:0.000411 60:0.000107 62:2.7e-05 63:0.008363 64:0.256245 
1 0 1:0.208523 2:0.105941 3:5e-06 5:0.00048 6:0.134389 7:0.000448 10:1.1e-05 11:2.7e-05 17:5.9e-05 18:0.000187 19:5e-06 21:2.7e-05 22:0.136731 23:0.033515 26:0.000539 27:0.050539 28:0.00016 32:1.1e-05 38:0.001285 39:0.000816 42:0.001163 43:0.208955 44:0.040256 47:6.4e-05 48:0.009589 59:0.000784 60:0.008501 63:2.7e-05 64:0.056965 
1 0 1:0.103093 2:0.007958 3:0.00117 5:0.009099 6:0.012251 7:0.001493 8:0.000155 10:0.000716 11:0.00086 12:0.000227 15:7.8e-05 16:0.000101 17:0.007379 18:0.000191 19:1.8e-05 21:0.07197 22:0.132203 23:0.013194 24:0.000424 25:7.8e-05 26:0.009331 27:0.03443 28:0.004119 31:0.001373 32:0.007881 37:0.000848 38:0.003821 39:0.000119 40:2.4e-05 41:0.000955 42:0.01191 43:0.068484 44:0.030084 47:0.001964 48:0.094949 54:6e-06 59:0.000478 60:9e-05 63:0.002131 64:0.364346 
1 0 1:0.33599 2:0.059804 3:0.000711 4:2.4e-05 5:0.020506 6:0.1599 7:0.007862 8:4.8e-05 10:3.3e-05 11:0.00052 12:1.9e-05 17:0.005589 18:0.000539 21:0.043704 22:0.091332 23:0.008516 25:1e-05 26:0.002286 27:0.005976 28:3.3e-05 37:0.010434 38:0.048773 39:0.000444 41:0.000248 42:0.182807 43:0.005217 44:6.7e-05 48:2.9e-05 53:1.4e-05 54:0.000148 57:1e-05 58:0.007537 59:0.000826 63:3.8e-05 64:5e-06 
1 0 1:0.307596 2:0.040928 3:0.002952 4:3e-05 5:0.003036 6:0.043428 7:0.013229 8:0.001398 9:8.4e-05 10:0.002331 11:0.01 12:0.002639 14:0.000241 15:0.001373 16:0.004295 17:0.04891 18:0.050898 19:0.005313 20:7.2e-05 21:0.001271 22:0.047849 23:0.018928 24:0.002831 25:1.2e-05 26:0.003313 27:0.020265 28:0.003494 30:5.4e-05 31:0.008807 32:0.014006 33:0.015048 34:0.009904 35:0.002807 36:1.8e-05 37:0.00053 38:0.019741 39:0.035783 40:0.001422 42:0.001163 43:0.056 44:0.00356 46:1.2e-05 47:0.007681 48:0.125042 49:0.004096 50:0.001813 51:0.000349 52:6e-06 53:0.000163 54:0.003639 55:0.002639 56:0.000277 58:0.000331 59:0.00709 60:0.002687 62:1.8e-05 63:0.000488 64:0.038108 
1 0 1:0.241019 2:0.000837 5:0.000784 6:0.010789 7:0.000299 10:0.000112 11:0.000405 15:5e-06 17:0.150933 18:0.083557 19:1.6e-05 21:0.000245 22:0.111429 23:0.005749 26:0.0004 27:0.012811 28:3.2e-05 31:1.1e-05 32:2.7e-05 33:0.002245 34:0.010315 35:2.7e-05 37:0.000101 38:0.073696 39:0.033291 40:2.1e-05 42:0.000149 43:0.200405 44:0.004864 47:1.1e-05 48:0.001504 49:4.3e-05 50:0.000117 51:5e-06 54:0.006101 55:0.021781 56:5e-06 58:1.6e-05 59:0.018651 60:0.002837 63:1.1e-05 64:0.004341 
1 0 1:0.341858 2:0.106867 5:0.000167 6:0.064192 7:0.002783 11:0.000425 12:8e-06 17:0.000375 18:0.005092 21:0.000192 22:0.279967 23:0.02055 26:4.2e-05 27:0.007467 28:0.000992 32:8e-06 38:0.000175 39:0.001567 42:0.0001 43:0.058917 44:0.00465 47:0.000167 48:0.000825 59:0.002967 60:0.000842 63:0.000617 64:0.098192 
1 0 1:0.359516 2:0.065681 3:0.000148 4:0.000142 5:0.002336 6:0.165162 7:0.004519 8:1.7e-05 10:0.000632 11:0.001835 12:6.8e-05 15:8.5e-05 16:1.7e-05 17:0.002068 18:0.000473 19:6.8e-05 20:0.000519 21:0.002519 22:0.138262 23:0.032028 24:0.000877 26:0.004114 27:0.038211 28:0.002348 31:0.000752 32:0.003128 33:5.1e-05 34:1.1e-05 36:3.4e-05 38:0.00616 39:0.000923 40:0.000142 42:0.008382 43:0.051208 44:0.006456 47:0.000974 48:0.017248 54:1.7e-05 56:6e-06 58:0.000638 59:0.013162 60:0.000245 63:0.014655 64:0.05416 
1 0 1:0.028037 2:0.001648 5:0.000101 6:0.001355 7:0.000107 10:3.2e-05 11:4.3e-05 17:0.009621 18:0.043925 21:2.7e-05 22:0.240421 23:0.033216 26:8.5e-05 27:0.003989 28:8e-05 31:0.000101 32:0.000379 33:0.000496 34:0.004464 37:5e-06 38:0.169755 39:0.265776 42:0.00024 43:0.126075 44:0.001648 47:0.00544 48:0.016219 49:5e-06 50:2.7e-05 53:5e-06 54:0.000293 55:0.000517 58:1.1e-05 59:0.005637 60:0.001099 63:0.000587 64:0.038533 
1 0.09477822123741468 1:0.128347 2:0.043355 3:1.1e-05 5:0.01728 6:0.113152 7:0.000128 8:1.6e-05 11:5e-06 12:3.7e-05 16:2.7e-05 17:0.000832 18:0.000512 21:0.005637 22:0.240597 23:0.078405 26:0.001461 27:0.051904 28:2.7e-05 32:1.1e-05 38:0.004187 39:0.000187 42:0.006576 43:0.055365 44:0.000352 47:0.000203 48:0.000187 59:0.031365 60:1.6e-05 63:0.057568 64:0.162251 
1 0 1:0.529264 2:0.212965 3:0.021648 6:0.172773 7:0.019856 8:0.000224 22:0.00744 23:0.009712 24:0.000581 27:0.00888 28:0.000219 43:0.002699 44:0.007701 48:0.006021 64:1.6e-05 
1 0 1:0.338084 2:0.000613 5:0.060114 6:0.065327 7:4.2e-05 10:0.000919 11:8.4e-05 17:0.005868 18:0.000138 21:0.009159 22:0.184505 23:0.002733 26:0.033165 27:0.053015 28:6.6e-05 31:3.6e-05 32:7.2e-05 33:3.6e-05 37:0.000883 38:0.00779 39:0.000108 42:0.006 43:0.1777 44:0.0037 47:0.00218 48:0.00964 53:6e-06 54:0.000204 58:0.001273 59:0.007309 60:6e-05 63:0.002829 64:0.026342 
1 0 1:0.995483 2:0.004224 5:2.1e-05 6:5e-06 17:9.6e-05 18:5.9e-05 21:2.7e-05 22:8.5e-05 
1 0 1:0.405429 2:0.103947 3:2.1e-05 5:0.001595 6:0.085552 7:0.008725 17:0.003211 18:4.8e-05 21:0.005072 22:0.071355 23:0.080987 24:4.8e-05 26:0.000731 27:0.026581 28:0.000933 37:4.8e-05 38:0.001397 42:0.0008 43:0.033915 44:0.010091 47:0.000192 48:0.019024 59:4.3e-05 63:5.9e-05 64:0.140197 
1 0 1:0.465899 2:0.00312 3:6e-06 5:0.058867 6:0.054171 7:5.1e-05 9:3.2e-05 10:0.013658 11:0.00912 12:6e-06 15:0.004 16:0.002703 17:0.005399 18:0.000184 21:0.008196 22:0.092329 23:0.001538 25:0.000101 26:0.014057 27:0.024222 28:5.1e-05 30:6e-06 31:0.008063 32:0.015918 33:0.000386 37:0.000778 38:0.003608 39:0.000177 41:5.7e-05 42:0.00931 43:0.041627 44:0.000354 46:3.8e-05 47:0.007228 48:0.017544 49:4.4e-05 53:8.9e-05 54:0.000335 57:3.2e-05 58:0.000778 59:0.004209 60:8.2e-05 62:3.2e-05 63:0.008108 64:0.123487 
1 0 1:0.177072 2:0.021008 3:0.000827 4:0.000395 5:0.04488 6:0.037557 7:0.00176 8:0.001051 9:0.00336 10:0.002645 11:0.000613 12:0.000251 16:8e-05 17:0.001515 18:0.000219 19:0.000405 20:3.2e-05 21:0.00296 22:0.060539 23:0.006741 24:0.000757 25:2.1e-05 26:0.097435 27:0.043184 28:0.000944 30:3.2e-05 31:4.3e-05 32:0.000224 33:3.2e-05 37:0.002949 38:0.005899 39:0.000421 40:7.5e-05 41:9.6e-05 42:0.011157 43:0.27224 44:0.034117 46:1.1e-05 47:0.011744 48:0.028624 53:9.6e-05 54:8.5e-05 57:0.000192 58:0.003904 59:0.004533 60:0.00048 62:0.000165 63:0.006773 64:0.109856 
1 0 1:0.141856 2:0.025323 3:0.000784 5:0.024661 6:0.03608 7:0.001968 8:5e-06 10:0.001259 11:0.000165 12:4.3e-05 16:1.6e-05 17:0.011701 18:0.005483 19:0.001349 20:3.2e-05 21:0.00912 22:0.22408 23:0.036699 24:0.000245 25:4.8e-05 26:0.02632 27:0.028784 28:0.011813 31:0.000133 32:0.000315 33:5e-06 37:0.000763 38:0.005029 39:0.000581 40:7.5e-05 41:0.00016 42:0.027995 43:0.127429 44:0.022384 46:2.7e-05 47:0.009941 48:0.004432 53:5e-06 58:0.001504 59:0.003184 60:0.000213 62:0.001067 63:0.018987 64:0.187936 
1 0 1:0.202444 2:0.02191 3:9e-05 5:0.004066 6:0.062889 7:0.021003 8:0.000102 10:6e-06 11:0.002805 12:0.009634 16:0.017778 17:0.110895 18:0.000216 21:0.007724 22:0.096198 23:0.044709 24:6e-05 26:0.002156 27:0.074402 28:0.007598 31:3e-05 32:0.001748 33:6e-06 37:0.00024 38:0.001628 39:0.000324 42:0.001772 43:0.029411 44:0.003441 47:0.000492 48:0.004847 53:1.2e-05 54:8.4e-05 58:0.000312 59:0.068997 60:0.000613 63:0.072991 64:0.126366 
1 0 1:0.192644 2:0.012853 3:0.001087 4:0.000576 5:0.044401 6:0.006154 7:0.000264 8:9e-06 9:0.006055 10:1.7e-05 11:4e-06 17:0.000243 18:0.000503 19:6.4e-05 20:1.3e-05 21:0.055454 22:0.317318 23:0.011143 24:0.002375 25:0.000691 26:0.043373 27:0.001147 28:0.000154 37:0.000107 38:0.00035 39:0.000375 40:0.000166 41:0.002435 42:0.019087 43:0.038132 44:0.014307 45:1.7e-05 46:0.000183 47:0.00087 48:0.000588 57:1.7e-05 58:0.000205 59:0.000849 60:0.001569 61:0.000171 62:0.002503 63:0.014217 64:0.207309 
1 0 1:0.067531 2:0.02048 3:6.9e-05 5:0.029787 6:0.189371 7:0.019936 8:3.7e-05 10:0.057013 11:0.008245 12:0.000192 17:0.000368 18:1.1e-05 21:0.001115 22:0.046197 23:0.016587 24:9.1e-05 26:0.059984 27:0.200448 28:0.013712 31:0.093557 32:0.041349 38:0.000197 39:5e-06 42:0.000613 43:0.013285 44:0.003104 47:0.009024 48:0.090491 59:0.000149 63:0.000539 64:0.016512 
0.3753694135603044 0 1:0.064416 2:0.040539 3:0.006048 4:0.000213 5:0.001211 6:0.136123 7:0.101952 8:0.018741 10:0.000117 11:0.002619 12:0.00168 17:0.000139 18:0.000235 21:5.9e-05 22:0.071131 23:0.151723 24:0.014949 26:0.000485 27:0.07456 28:0.069872 32:0.000427 38:0.002272 39:0.006112 42:0.002395 43:0.075941 44:0.021269 47:0.000725 48:0.038016 58:0.0004 59:0.021552 60:0.000613 63:0.013648 64:0.059819 
1 0 1:0.101461 2:0.099104 3:0.017749 4:0.000133 5:0.000357 6:0.253515 7:0.196747 8:0.005088 10:5e-06 11:0.009056 12:0.001461 16:5e-06 17:0.001024 18:5.3e-05 19:2.7e-05 21:0.000139 22:0.009467 23:0.053669 24:0.001797 26:5.9e-05 27:0.127179 28:0.016069 32:0.000144 38:5e-06 39:1.1e-05 40:5e-06 43:0.008944 44:0.026363 47:0.000123 48:0.028757 60:1.6e-05 64:0.041467 
1 0 1:0.145598 2:0.053021 3:1.8e-05 5:0.000889 6:0.043838 7:0.000324 8:0.000132 10:0.000288 11:6e-06 12:2.4e-05 17:0.006072 18:0.001778 21:0.002967 22:0.222474 23:0.025333 24:1.8e-05 26:0.015303 27:0.063616 28:7.2e-05 31:0.001033 32:1.2e-05 38:0.011381 39:0.004721 42:0.008835 43:0.213195 44:0.004354 47:0.006775 48:0.011622 59:0.014619 60:0.003688 63:0.007375 64:0.130619 
1 0 1:0.343846 2:0.028803 5:0.001133 6:0.017314 7:0.000101 17:0.000979 18:0.00066 21:0.000511 22:0.085936 23:0.008745 26:7.4e-05 27:0.013117 28:0.001952 31:0.001165 32:0.00566 37:2.7e-05 38:0.001489 39:0.001436 42:0.000543 43:0.044128 44:0.014048 47:0.000479 48:0.174904 58:1.1e-05 59:0.005856 60:0.006239 63:0.001138 64:0.239707 
1 0 1:0.044615 2:0.01318 5:0.00278 6:0.212635 7:0.00147 10:0.00063 11:0.000195 17:0.000175 18:2.5e-05 21:0.001695 22:0.147355 23:0.00139 26:0.006185 27:0.00406 28:5e-06 38:0.05744 39:2.5e-05 42:0.16443 43:0.331125 44:0.001475 47:5e-06 48:0.00224 59:0.00036 60:8.5e-05 63:2e-05 64:0.0064 
1 0 1:0.270395 2:0.027122 3:0.001668 4:0.000218 5:0.028597 6:0.051699 7:0.002 8:1e-05 9:2.6e-05 10:0.019647 11:0.018878 12:7.8e-05 14:5e-06 15:0.001995 16:0.001138 17:0.001226 18:0.006145 19:0.007122 20:0.008868 21:0.002192 22:0.031055 23:0.009683 24:0.001044 25:1.6e-05 26:0.011558 27:0.035803 28:0.001283 30:2.6e-05 31:0.013616 32:0.006275 33:2.6e-05 34:0.002156 35:0.005112 36:0.013486 37:3.1e-05 38:0.00134 39:0.007564 40:0.025231 42:0.001891 43:0.01761 44:0.007548 46:2.1e-05 47:0.007335 48:0.01467 50:4.2e-05 51:6.2e-05 52:1.6e-05 54:0.000291 55:0.00747 56:0.034561 58:9.9e-05 59:0.004857 60:0.108286 63:0.003148 64:0.177761 
1 0 1:0.11355 2:0.005682 3:7.8e-05 5:0.007045 6:0.01403 7:0.000228 8:1.8e-05 9:4.8e-05 10:0.000619 11:0.000264 12:1.8e-05 13:6e-06 14:0.000781 15:0.001952 16:0.001874 17:0.007351 18:0.021249 19:0.006937 21:0.003219 22:0.278234 23:0.005015 24:7.8e-05 25:0.000168 26:0.031063 27:0.009015 28:0.00015 29:2.4e-05 30:0.000486 31:0.000841 32:0.001477 33:0.000535 34:0.000955 35:0.005964 36:6e-05 37:0.000312 38:0.008523 39:0.091724 40:0.009333 41:4.2e-05 42:0.003165 43:0.075502 44:0.002456 45:6e-06 46:0.000336 47:0.002162 48:0.005195 49:9.6e-05 50:7.2e-05 51:0.000348 52:0.000835 53:0.000138 54:0.000817 55:0.028625 56:0.051712 57:3.6e-05 58:0.000529 59:0.01582 60:0.034817 62:0.000192 63:0.004 64:0.144192 
1 0 1:0.18941 2:0.005361 3:0.001524 4:6.6e-05 5:0.117982 6:0.335771 7:0.002398 8:3e-05 11:0.00206 12:6e-06 17:0.003235 18:0.000319 21:0.002699 22:0.204108 23:0.010072 24:0.000102 26:0.002349 27:0.021789 28:6.6e-05 33:1.2e-05 37:0.00112 38:0.001349 39:0.000669 42:0.000488 43:0.096958 44:5.4e-05 
1 0 1:0.136528 2:0.089461 3:0.000256 5:0.020613 6:0.110827 7:0.00624 8:0.000443 10:5.3e-05 11:0.001157 12:0.001323 17:0.000283 18:0.000149 19:5e-06 21:0.002016 22:0.127931 23:0.056896 24:0.000203 26:0.006192 27:0.074117 28:0.002315 31:3.2e-05 32:0.000432 37:1.6e-05 38:0.000629 39:8e-05 40:5e-06 42:0.003685 43:0.173829 44:0.043296 47:0.00368 48:0.067248 59:0.000443 60:2.1e-05 63:0.005013 64:0.064581 
1 0 1:0.570927 2:0.02061 3:0.001268 5:1.5e-05 6:0.007415 7:0.008133 17:0.001319 18:0.001026 19:9.5e-05 21:0.000982 22:0.023014 23:0.006982 24:7e-06 26:2.9e-05 27:0.000652 28:0.000125 37:7e-06 38:0.000271 39:0.000256 42:0.000352 43:0.006198 44:0.000271 47:2.2e-05 56:7e-06 58:1.5e-05 59:0.000865 60:0.0003 63:0.001531 64:0.347306 
1 0 1:0.153925 2:0.016864 3:0.000304 5:0.028203 6:0.13024 7:0.007851 8:3.2e-05 10:0.003472 11:3.7e-05 17:0.001877 18:0.000805 21:0.009397 22:0.227269 23:0.042347 24:0.000379 26:0.021877 27:0.022171 28:0.00024 31:1.1e-05 33:5e-06 37:3.7e-05 38:0.002955 39:0.000944 42:0.022352 43:0.133936 44:0.000619 47:0.005493 48:0.000192 58:1.1e-05 59:0.038965 60:0.000283 63:0.046293 64:0.080613 
1 0 1:0.141208 2:0.001083 3:5e-05 5:0.036508 6:0.02705 7:0.000392 8:3.3e-05 10:0.001475 11:0.000333 12:1.7e-05 17:0.012008 21:0.0316 22:0.184833 23:0.001642 24:2.5e-05 26:0.024692 27:0.039875 28:0.000475 31:0.002808 32:0.000808 38:0.00485 39:0.0001 42:0.024625 43:0.1195 44:0.000175 47:0.022317 48:0.016117 59:0.082658 63:0.076917 64:0.145825 
1 0 1:0.165013 2:0.049835 3:5e-06 5:0.018747 6:0.129211 7:0.001739 10:0.003515 11:0.001077 12:3.2e-05 16:5e-06 17:0.000677 18:0.001189 20:5e-06 21:0.000976 22:0.10304 23:0.008773 24:1.6e-05 26:0.017424 27:0.081584 28:0.001589 31:0.003061 32:0.003723 34:5e-06 37:1.6e-05 38:0.021477 39:0.001184 40:2.1e-05 42:0.011248 43:0.027904 44:0.005664 47:0.00128 48:0.011989 58:0.000832 59:0.044 60:0.000235 63:0.102896 64:0.180011 
1 0 1:0.001019 2:0.000501 3:0.003173 5:0.019515 6:0.010384 7:0.001701 9:1.1e-05 10:0.003931 11:0.001429 12:0.000288 17:0.000368 18:0.000315 19:0.001621 20:3.2e-05 21:0.019552 22:0.17216 23:0.024128 24:0.001008 25:5e-06 26:0.092155 27:0.105653 28:0.001643 31:0.021685 32:0.007632 34:5e-06 38:0.005013 39:0.000731 40:0.000245 42:0.034635 43:0.097125 44:0.001968 46:5e-06 47:0.022261 48:0.066917 58:5e-06 59:0.048928 60:0.001291 63:0.062747 64:0.168213 
1 0 1:0.456985 2:0.042985 3:0.001545 4:5e-05 5:0.00136 6:0.160625 7:0.008655 8:1e-05 10:0.00016 11:0.004185 12:4e-05 15:5e-06 16:1e-05 17:0.003495 18:0.00416 19:0.00041 20:1.5e-05 21:0.00025 22:0.05543 23:0.045725 24:0.000195 26:0.000285 27:0.07963 28:0.007245 31:0.00015 32:0.0049 33:6e-05 34:3.5e-05 37:7e-05 38:0.001815 39:0.001365 40:3.5e-05 42:0.000295 43:0.013625 44:0.01081 47:0.00023 48:0.03738 50:5e-06 54:8.5e-05 55:4e-05 58:0.000115 59:0.0018 60:0.000225 63:0.00055 64:0.052955 
1 0 1:0.297003 2:0.01888 5:0.025376 6:0.032608 7:5e-06 17:0.00208 18:0.000352 21:0.001931 22:0.178987 23:0.010181 26:0.000555 27:0.010171 38:0.00408 39:0.000192 42:0.004229 43:0.071616 44:4.3e-05 47:8.5e-05 48:0.00016 58:0.000123 59:0.003861 60:7.5e-05 63:0.002048 64:0.33536 
1 0 1:0.284693 2:0.197589 3:0.000112 5:0.000565 6:0.119179 7:0.007749 11:0.002165 12:0.006875 17:0.002816 18:0.002539 19:0.011541 21:0.004709 22:0.147035 23:0.063504 24:4.8e-05 26:0.000608 27:0.016389 28:0.001701 32:0.000523 33:7.5e-05 34:5e-06 35:0.000501 36:1.1e-05 37:0.001477 38:0.006565 39:0.034955 40:0.015365 42:0.005899 43:0.022197 44:0.010805 47:2.7e-05 48:0.004075 54:0.00016 55:5.9e-05 56:0.000144 58:0.000923 59:0.005264 60:0.003664 63:0.003147 64:0.014341 
1 0 1:0.125029 2:0.045275 3:0.028309 4:0.003157 5:0.018843 6:0.093771 7:0.040507 8:0.000187 10:5.3e-05 11:0.000443 15:2.1e-05 16:8e-05 17:0.000357 18:0.000245 19:0.0028 20:0.003323 21:0.001787 22:0.198464 23:0.021979 24:0.002427 26:0.043243 27:0.084139 28:0.001248 31:0.000272 32:0.002165 38:0.000363 39:8e-05 40:0.000192 42:0.00336 43:0.083776 44:0.012048 47:0.019717 48:0.034064 59:0.000224 60:0.000139 63:0.000379 64:0.127536 
1 0 1:0.041168 2:0.002203 3:5e-06 5:0.018592 6:0.022597 7:0.000853 10:5e-06 11:0.000491 12:1.6e-05 17:0.00512 18:0.0004 19:1.6e-05 21:0.048837 22:0.265883 23:0.031851 24:0.000213 25:7.5e-05 26:0.004635 27:0.049792 28:0.001376 31:2.1e-05 32:0.003488 37:3.7e-05 38:0.002549 39:0.000421 40:1.6e-05 41:2.1e-05 42:0.012171 43:0.107355 44:0.002987 47:0.002032 48:0.003227 59:0.004923 60:0.000416 63:0.008459 64:0.357749 
1 0 1:0.10904 2:0.022272 3:1.1e-05 5:0.000213 6:0.009915 7:5.3e-05 17:0.0004 18:0.001963 21:0.000395 22:0.089968 23:0.046875 24:0.000544 26:0.000491 27:0.140229 28:0.004048 32:2.7e-05 38:0.005451 39:0.000448 40:2.1e-05 42:0.017563 43:0.226395 44:0.016203 47:0.000203 48:0.003179 54:5.3e-05 58:0.011669 59:0.030624 60:0.000891 63:0.127269 64:0.133589 
1 0 1:0.043763 2:0.09439 3:5.9e-05 6:0.094622 7:0.04204 11:5e-06 17:5.9e-05 18:8.4e-05 21:3e-05 22:0.028667 23:0.181985 24:4.4e-05 26:2e-05 27:0.09117 28:0.024805 38:0.000622 39:0.000953 42:0.000677 43:0.076627 44:0.04036 47:0.000385 48:0.013022 58:6.9e-05 59:0.006316 60:0.000119 63:0.090978 64:0.168128 
1 0 1:0.192752 2:0.107579 3:0.08448 4:0.007499 5:0.004576 6:0.109632 7:0.002896 8:0.000832 10:0.006197 11:0.017184 12:0.001579 15:6.9e-05 16:0.000379 17:0.000683 18:0.000384 19:0.015669 20:0.061712 21:0.005115 22:0.067088 23:0.023403 24:0.001301 25:2.1e-05 26:0.0024 27:0.083776 28:0.003739 30:5e-06 31:0.036837 32:0.0068 38:0.000235 39:0.00048 40:7.5e-05 42:0.000117 43:0.055152 44:0.03336 47:0.000997 48:0.021355 59:0.000464 60:0.000427 63:0.000112 64:0.04264 
1 0 1:0.104693 2:0.022091 3:8.5e-05 5:0.021157 6:0.111867 7:0.007973 8:1.1e-05 10:0.000288 11:5.9e-05 17:0.019216 18:0.000128 19:4.8e-05 20:1.6e-05 21:0.02696 22:0.282448 23:0.072069 24:0.000427 26:0.005248 27:0.081552 28:0.015024 31:4.8e-05 32:5e-06 33:0.000656 37:0.000896 38:0.020341 39:0.000304 40:4.3e-05 42:0.007157 43:0.135499 44:0.006853 47:0.000187 48:0.000853 53:5e-06 58:2.1e-05 59:0.003685 60:0.000917 63:0.002192 64:0.048976 
1 0 1:0.146228 2:0.199875 3:0.031198 4:0.00032 5:0.00019 6:0.040168 7:0.082515 8:0.001111 11:0.002146 12:5e-06 17:0.002997 18:0.002938 19:1.6e-05 20:5e-06 21:0.00116 22:0.018661 23:0.037854 24:0.016997 25:3.3e-05 26:0.000667 27:0.037772 28:0.039583 32:8.1e-05 33:0.001789 34:0.001008 37:0.00064 38:0.000743 39:0.000466 40:1.1e-05 41:0.001973 42:0.003631 43:0.014927 44:0.125854 46:1.1e-05 47:0.000493 48:0.088558 49:0.000477 50:9.2e-05 54:5.4e-05 55:0.000103 56:5e-06 57:0.001799 58:0.000396 59:0.000271 60:9.8e-05 61:0.000634 62:0.000309 63:0.001366 64:0.091772 
1 0 1:0.61753 2:0.000925 5:0.009893 6:0.006541 7:7.8e-05 10:5.7e-05 11:0.000463 15:7e-06 17:0.086932 18:0.067032 21:0.00047 22:0.033587 23:0.000107 26:0.000441 27:0.002562 28:7e-06 31:0.000128 32:0.000128 33:0.000676 34:0.002356 37:2.8e-05 38:0.006726 39:0.000712 42:0.000747 43:0.039566 44:4.3e-05 47:0.003423 48:0.002484 49:7e-06 50:2.8e-05 54:0.000335 55:0.000171 58:7.1e-05 59:0.018285 60:0.000669 63:0.006968 64:0.089815 
1 0 1:0.687868 2:0.021772 3:0.001562 4:0.003141 5:0.000943 6:0.00997 7:0.000955 8:0.000108 12:3e-05 17:0.001153 18:0.000366 19:0.00021 20:0.001027 21:0.001219 22:0.043748 23:0.01027 24:0.000222 25:6e-06 26:0.000715 27:0.004372 28:0.000108 29:1.8e-05 30:6e-06 33:0.000108 34:0.000126 35:6e-06 36:7.2e-05 37:4.8e-05 38:0.001447 39:0.000312 40:0.000138 42:0.001471 43:0.03239 44:0.000805 47:0.000565 48:0.002102 50:3.6e-05 53:6e-06 54:0.000144 56:2.4e-05 59:0.001291 60:3.6e-05 63:0.003147 64:0.165934 
1 0 1:0.295755 2:0.00575 5:0.01896 6:0.02445 9:1e-05 17:0.00946 18:0.01246 21:0.001645 22:0.141905 23:0.00313 25:0.00012 26:0.0248 27:0.026815 30:1e-05 31:1e-05 34:9e-05 38:0.006165 39:0.007105 42:0.00312 43:0.21235 44:0.003525 46:5.5e-05 47:0.017975 48:0.018705 59:0.004575 60:0.00789 63:0.001555 64:0.15161 
1 0 1:0.161253 2:0.079281 3:0.051751 4:0.000698 5:0.010626 6:0.032562 7:0.012214 8:0.00116 10:7e-06 17:0.010676 18:0.020071 19:0.00348 20:2.1e-05 21:0.004769 22:0.106833 23:0.095794 24:0.019473 26:0.089217 27:0.049004 28:0.009324 35:7e-06 37:0.008491 38:0.029964 39:0.04294 40:0.001416 41:5.7e-05 42:0.003488 43:0.071772 44:0.025936 47:7e-06 48:0.002669 54:3.6e-05 55:4.3e-05 58:0.00148 59:0.01679 60:0.01763 63:0.001367 64:0.017694 
1 0 1:0.129002 2:0.042566 3:0.002864 5:0.00348 6:0.077048 7:0.122083 8:0.053789 11:4.6e-05 12:0.073499 17:0.00023 18:0.000607 21:0.000409 22:0.171549 23:0.020069 24:0.00052 26:0.000175 27:0.017255 28:0.093692 32:0.000414 38:0.000124 39:8.3e-05 42:0.000262 43:0.012938 44:0.005172 47:7.4e-05 48:0.016621 63:6.9e-05 64:0.155361 
1 0 1:0.083584 2:0.012693 3:1.1e-05 5:0.008923 6:0.101013 7:0.007051 10:0.035301 11:0.038075 12:0.001285 15:2.7e-05 16:0.003141 17:0.005632 18:0.000656 19:1.1e-05 21:0.004523 22:0.181824 23:0.041963 24:4.3e-05 26:0.032139 27:0.312768 28:0.008592 31:0.000368 32:0.001328 38:0.000816 39:4.3e-05 42:0.000923 43:0.038677 44:0.009392 47:0.0004 48:0.013168 59:0.00032 60:5e-06 63:0.000619 64:0.054688 
1 0 1:0.357339 2:0.130114 3:0.000252 5:5.4e-05 6:0.108601 7:0.027994 8:0.000126 11:9e-05 12:0.000162 18:2.4e-05 22:0.018739 23:0.066853 24:0.000414 26:1.2e-05 27:0.053477 28:0.048973 32:0.000511 39:6e-06 43:0.005285 44:0.050258 47:6e-06 48:0.091459 60:1.2e-05 64:0.039237 
1 0 1:0.254427 2:0.011627 3:6.9e-05 5:0.099749 6:0.024656 7:5e-06 10:5.3e-05 17:0.013013 18:0.006379 19:0.000555 21:0.0424 22:0.158283 23:0.022805 25:9.6e-05 26:0.002283 27:0.003061 28:2.7e-05 30:5e-06 31:1.6e-05 37:0.001205 38:0.036917 39:0.000501 42:0.176747 43:0.058715 44:0.001616 46:2.7e-05 47:0.000288 48:0.001115 58:0.000805 59:0.032091 60:0.000293 63:0.006389 64:0.043781 
